<?xml version="1.0"?>
<MethodSetup Method="BDT::DYmva_2017_0j_BDT_1000Trees_Grad_FalseBagged_0.6BagFrac_1BagShrink_GiniIndex_20Cuts_CostComplexity_12PruneStrength_13Var">
  <GeneralInfo>
    <Info name="TMVA Release" value="4.2.1 [262657]"/>
    <Info name="ROOT Release" value="6.06/01 [394753]"/>
    <Info name="Creator" value="ddicroce"/>
    <Info name="Date" value="Thu Jun 20 19:45:53 2019"/>
    <Info name="Host" value="Linux vocms0315.cern.ch 2.6.32-573.26.1.el6.x86_64 #1 SMP Wed May 4 09:23:05 CEST 2016 x86_64 x86_64 x86_64 GNU/Linux"/>
    <Info name="Dir" value="/storage_mnt/storage/user/ddicroce/WW_sample/CMSSW_8_0_17/src/UATmva"/>
    <Info name="Training events" value="37956"/>
    <Info name="TrainingTime" value="9.43584390e+01"/>
    <Info name="AnalysisType" value="Classification"/>
  </GeneralInfo>
  <Options>
    <Option name="V" modified="Yes">False</Option>
    <Option name="VerbosityLevel" modified="No">Default</Option>
    <Option name="VarTransform" modified="No">None</Option>
    <Option name="H" modified="Yes">False</Option>
    <Option name="CreateMVAPdfs" modified="No">False</Option>
    <Option name="IgnoreNegWeightsInTraining" modified="No">False</Option>
    <Option name="NTrees" modified="Yes">1000</Option>
    <Option name="MaxDepth" modified="Yes">2</Option>
    <Option name="MinNodeSize" modified="Yes">2.5%</Option>
    <Option name="nCuts" modified="Yes">20</Option>
    <Option name="BoostType" modified="Yes">Grad</Option>
    <Option name="AdaBoostR2Loss" modified="No">quadratic</Option>
    <Option name="UseBaggedBoost" modified="Yes">True</Option>
    <Option name="Shrinkage" modified="Yes">1.000000e-01</Option>
    <Option name="AdaBoostBeta" modified="No">5.000000e-01</Option>
    <Option name="UseRandomisedTrees" modified="No">False</Option>
    <Option name="UseNvars" modified="No">4</Option>
    <Option name="UsePoissonNvars" modified="No">True</Option>
    <Option name="BaggedSampleFraction" modified="Yes">5.000000e-01</Option>
    <Option name="UseYesNoLeaf" modified="No">True</Option>
    <Option name="NegWeightTreatment" modified="No">ignorenegweightsintraining</Option>
    <Option name="Css" modified="No">1.000000e+00</Option>
    <Option name="Cts_sb" modified="No">1.000000e+00</Option>
    <Option name="Ctb_ss" modified="No">1.000000e+00</Option>
    <Option name="Cbb" modified="No">1.000000e+00</Option>
    <Option name="NodePurityLimit" modified="No">5.000000e-01</Option>
    <Option name="SeparationType" modified="No">giniindex</Option>
    <Option name="DoBoostMonitor" modified="No">False</Option>
    <Option name="UseFisherCuts" modified="No">False</Option>
    <Option name="MinLinCorrForFisher" modified="No">8.000000e-01</Option>
    <Option name="UseExclusiveVars" modified="No">False</Option>
    <Option name="DoPreselection" modified="No">False</Option>
    <Option name="SigToBkgFraction" modified="No">1.000000e+00</Option>
    <Option name="PruneMethod" modified="No">nopruning</Option>
    <Option name="PruneStrength" modified="No">0.000000e+00</Option>
    <Option name="PruningValFraction" modified="No">5.000000e-01</Option>
    <Option name="nEventsMin" modified="No">0</Option>
    <Option name="UseBaggedGrad" modified="No">False</Option>
    <Option name="GradBaggingFraction" modified="No">5.000000e-01</Option>
    <Option name="UseNTrainEvents" modified="No">0</Option>
    <Option name="NNodesMax" modified="No">0</Option>
  </Options>
  <Variables NVar="13">
    <Variable VarIndex="0" Expression="ptll" Label="ptll" Title="ptll" Unit="" Internal="ptll" Type="F" Min="3.00001202e+01" Max="3.90649170e+02"/>
    <Variable VarIndex="1" Expression="mth" Label="mth" Title="mth" Unit="" Internal="mth" Type="F" Min="1.48536405e-02" Max="6.25837952e+02"/>
    <Variable VarIndex="2" Expression="jetpt1_cut" Label="jetpt1_cut" Title="jetpt1_cut" Unit="" Internal="jetpt1_cut" Type="F" Min="-1.00000000e+00" Max="2.99843750e+01"/>
    <Variable VarIndex="3" Expression="uperp" Label="uperp" Title="uperp" Unit="" Internal="uperp" Type="F" Min="-1.79573132e+03" Max="2.04773218e+03"/>
    <Variable VarIndex="4" Expression="PfMetDivSumMet" Label="PfMetDivSumMet" Title="PfMetDivSumMet" Unit="" Internal="PfMetDivSumMet" Type="F" Min="5.83613157e-01" Max="1.62308292e+01"/>
    <Variable VarIndex="5" Expression="recoil" Label="recoil" Title="recoil" Unit="" Internal="recoil" Type="F" Min="5.95409535e-02" Max="4.20702911e+02"/>
    <Variable VarIndex="6" Expression="mpmet" Label="mpmet" Title="mpmet" Unit="" Internal="mpmet" Type="F" Min="0.00000000e+00" Max="4.02834320e+02"/>
    <Variable VarIndex="7" Expression="mtw1" Label="mtw1" Title="mtw1" Unit="" Internal="mtw1" Type="F" Min="2.24120226e-02" Max="8.25690979e+02"/>
    <Variable VarIndex="8" Expression="PuppiMET_pt" Label="PuppiMET_pt" Title="PuppiMET_pt" Unit="" Internal="PuppiMET_pt" Type="F" Min="2.00004978e+01" Max="4.15236542e+02"/>
    <Variable VarIndex="9" Expression="MET_pt" Label="MET_pt" Title="MET_pt" Unit="" Internal="MET_pt" Type="F" Min="1.78284302e-01" Max="3.86037109e+02"/>
    <Variable VarIndex="10" Expression="dphijet1met_cut" Label="dphijet1met_cut" Title="dphijet1met_cut" Unit="" Internal="dphijet1met_cut" Type="F" Min="-1.00000000e+00" Max="3.14158225e+00"/>
    <Variable VarIndex="11" Expression="upara" Label="upara" Title="upara" Unit="" Internal="upara" Type="F" Min="-3.66078418e+03" Max="1.82713184e+03"/>
    <Variable VarIndex="12" Expression="PV_npvsGood" Label="PV_npvsGood" Title="PV_npvsGood" Unit="" Internal="PV_npvsGood" Type="F" Min="1.00000000e+00" Max="9.00000000e+01"/>
  </Variables>
  <Spectators NSpec="0"/>
  <Classes NClass="2">
    <Class Name="Signal" Index="0"/>
    <Class Name="Background" Index="1"/>
  </Classes>
  <Transformations NTransformations="0"/>
  <MVAPdfs/>
  <Weights NTrees="1000" AnalysisType="1">
    <BinaryTree type="DecisionTree" boostWeight="1.0000000000000000e+00" itree="0">
      <Node pos="s" depth="0" NCoef="0" IVar="4" Cut="2.9286732673645020e+00" cType="1" res="-9.9503889214247465e-04" rms="4.9999901652336121e-01" purity="4.9900498986244202e-01" nType="0">
        <Node pos="l" depth="1" NCoef="0" IVar="6" Cut="2.8409049987792969e+01" cType="1" res="-2.7091133594512939e-01" rms="4.2024639248847961e-01" purity="2.2908864915370941e-01" nType="0">
          <Node pos="l" depth="2" NCoef="0" IVar="-1" Cut="0.0000000000000000e+00" cType="1" res="-1.8742371350526810e-02" rms="3.5168558359146118e-01" purity="1.4458861947059631e-01" nType="-99"/>
          <Node pos="r" depth="2" NCoef="0" IVar="-1" Cut="0.0000000000000000e+00" cType="1" res="1.2321959948167205e-03" rms="4.9939522147178650e-01" purity="5.2458482980728149e-01" nType="-99"/>
        </Node>
        <Node pos="r" depth="1" NCoef="0" IVar="6" Cut="2.3885759353637695e+01" cType="1" res="3.1238892674446106e-01" rms="3.9040127396583557e-01" purity="8.1238889694213867e-01" nType="0">
          <Node pos="l" depth="2" NCoef="0" IVar="-1" Cut="0.0000000000000000e+00" cType="1" res="-1.0786985047161579e-02" rms="4.7776812314987183e-01" purity="3.5256314277648926e-01" nType="-99"/>
          <Node pos="r" depth="2" NCoef="0" IVar="-1" Cut="0.0000000000000000e+00" cType="1" res="1.9814779981970787e-02" rms="3.4106367826461792e-01" purity="8.6561667919158936e-01" nType="-99"/>
        </Node>
      </Node>
    </BinaryTree>
    <BinaryTree type="DecisionTree" boostWeight="1.0000000000000000e+00" itree="1">
      <Node pos="s" depth="0" NCoef="0" IVar="6" Cut="2.7845613479614258e+01" cType="1" res="-5.8836098760366440e-03" rms="4.9419751763343811e-01" purity="4.9395805597305298e-01" nType="0">
        <Node pos="l" depth="1" NCoef="0" IVar="1" Cut="6.4330963134765625e+01" cType="1" res="-3.1051018834114075e-01" rms="3.8441053032875061e-01" purity="1.8123586475849152e-01" nType="0">
          <Node pos="l" depth="2" NCoef="0" IVar="-1" Cut="0.0000000000000000e+00" cType="1" res="-1.8883582204580307e-02" rms="3.0186724662780762e-01" purity="1.0150024294853210e-01" nType="-99"/>
          <Node pos="r" depth="2" NCoef="0" IVar="-1" Cut="0.0000000000000000e+00" cType="1" res="-8.6161354556679726e-03" rms="4.7228085994720459e-01" purity="3.3862027525901794e-01" nType="-99"/>
        </Node>
        <Node pos="r" depth="1" NCoef="0" IVar="9" Cut="3.4290485382080078e+01" cType="1" res="2.8447937965393066e-01" rms="4.0424180030822754e-01" purity="7.9203760623931885e-01" nType="0">
          <Node pos="l" depth="2" NCoef="0" IVar="-1" Cut="0.0000000000000000e+00" cType="1" res="7.0580473402515054e-04" rms="4.9852547049522400e-01" purity="5.2153062820434570e-01" nType="-99"/>
          <Node pos="r" depth="2" NCoef="0" IVar="-1" Cut="0.0000000000000000e+00" cType="1" res="2.2221026942133904e-02" rms="3.0182161927223206e-01" purity="8.9755618572235107e-01" nType="-99"/>
        </Node>
      </Node>
    </BinaryTree>
    <BinaryTree type="DecisionTree" boostWeight="1.0000000000000000e+00" itree="2">
      <Node pos="s" depth="0" NCoef="0" IVar="6" Cut="3.5820602416992188e+01" cType="1" res="3.7059662863612175e-03" rms="4.8835074901580811e-01" purity="5.0444418191909790e-01" nType="0">
        <Node pos="l" depth="1" NCoef="0" IVar="1" Cut="6.7504196166992188e+01" cType="1" res="-2.1150493621826172e-01" rms="4.4260779023170471e-01" purity="2.7895838022232056e-01" nType="0">
          <Node pos="l" depth="2" NCoef="0" IVar="-1" Cut="0.0000000000000000e+00" cType="1" res="-1.7171178013086319e-02" rms="3.3497905731201172e-01" purity="1.3015983998775482e-01" nType="-99"/>
          <Node pos="r" depth="2" NCoef="0" IVar="-1" Cut="0.0000000000000000e+00" cType="1" res="4.1105796117335558e-04" rms="4.9521619081497192e-01" purity="5.0755274295806885e-01" nType="-99"/>
        </Node>
        <Node pos="r" depth="1" NCoef="0" IVar="4" Cut="3.4592559337615967e+00" cType="1" res="3.7270757555961609e-01" rms="3.0972123146057129e-01" purity="8.9106321334838867e-01" nType="0">
          <Node pos="l" depth="2" NCoef="0" IVar="-1" Cut="0.0000000000000000e+00" cType="1" res="1.0717503726482391e-02" rms="4.4437357783317566e-01" purity="7.2519975900650024e-01" nType="-99"/>
          <Node pos="r" depth="2" NCoef="0" IVar="-1" Cut="0.0000000000000000e+00" cType="1" res="2.3868260905146599e-02" rms="2.3185481131076813e-01" purity="9.4249600172042847e-01" nType="-99"/>
        </Node>
      </Node>
    </BinaryTree>
    <BinaryTree type="DecisionTree" boostWeight="1.0000000000000000e+00" itree="3">
      <Node pos="s" depth="0" NCoef="0" IVar="4" Cut="3.0392765998840332e+00" cType="1" res="1.5246531693264842e-03" rms="4.8229801654815674e-01" purity="5.0292742252349854e-01" nType="0">
        <Node pos="l" depth="1" NCoef="0" IVar="6" Cut="2.7812595367431641e+01" cType="1" res="-2.4991306662559509e-01" rms="4.1650238633155823e-01" purity="2.3399686813354492e-01" nType="0">
          <Node pos="l" depth="2" NCoef="0" IVar="-1" Cut="0.0000000000000000e+00" cType="1" res="-1.6340117901563644e-02" rms="3.3290624618530273e-01" purity="1.2783695757389069e-01" nType="-99"/>
          <Node pos="r" depth="2" NCoef="0" IVar="-1" Cut="0.0000000000000000e+00" cType="1" res="1.8701824592426419e-03" rms="4.9599367380142212e-01" purity="5.4256486892700195e-01" nType="-99"/>
        </Node>
        <Node pos="r" depth="1" NCoef="0" IVar="6" Cut="2.3942951202392578e+01" cType="1" res="3.2303291559219360e-01" rms="3.5216751694679260e-01" purity="8.4680342674255371e-01" nType="0">
          <Node pos="l" depth="2" NCoef="0" IVar="-1" Cut="0.0000000000000000e+00" cType="1" res="-7.5600249692797661e-03" rms="4.7448924183845520e-01" purity="3.4712147712707520e-01" nType="-99"/>
          <Node pos="r" depth="2" NCoef="0" IVar="-1" Cut="0.0000000000000000e+00" cType="1" res="2.0685056224465370e-02" rms="2.9515549540519714e-01" purity="9.0116965770721436e-01" nType="-99"/>
        </Node>
      </Node>
    </BinaryTree>
    <BinaryTree type="DecisionTree" boostWeight="1.0000000000000000e+00" itree="4">
      <Node pos="s" depth="0" NCoef="0" IVar="6" Cut="3.3937210083007812e+01" cType="1" res="-6.8815723061561584e-03" rms="4.7770968079566956e-01" purity="4.9471881985664368e-01" nType="0">
        <Node pos="l" depth="1" NCoef="0" IVar="6" Cut="2.4235383987426758e+01" cType="1" res="-2.3710319399833679e-01" rms="4.2016214132308960e-01" purity="2.4164064228534698e-01" nType="0">
          <Node pos="l" depth="2" NCoef="0" IVar="-1" Cut="0.0000000000000000e+00" cType="1" res="-1.5888962894678116e-02" rms="3.3324640989303589e-01" purity="1.2839345633983612e-01" nType="-99"/>
          <Node pos="r" depth="2" NCoef="0" IVar="-1" Cut="0.0000000000000000e+00" cType="1" res="-1.6297462861984968e-03" rms="4.9261617660522461e-01" purity="4.6358558535575867e-01" nType="-99"/>
        </Node>
        <Node pos="r" depth="1" NCoef="0" IVar="9" Cut="3.4376262664794922e+01" cType="1" res="3.4079360961914062e-01" rms="3.2452642917633057e-01" purity="8.7691128253936768e-01" nType="0">
          <Node pos="l" depth="2" NCoef="0" IVar="-1" Cut="0.0000000000000000e+00" cType="1" res="6.4584724605083466e-03" rms="4.7458910942077637e-01" purity="6.5367317199707031e-01" nType="-99"/>
          <Node pos="r" depth="2" NCoef="0" IVar="-1" Cut="0.0000000000000000e+00" cType="1" res="2.2786317393183708e-02" rms="2.4358923733234406e-01" purity="9.3528974056243896e-01" nType="-99"/>
        </Node>
      </Node>
    </BinaryTree>
    <BinaryTree type="DecisionTree" boostWeight="1.0000000000000000e+00" itree="5">
      <Node pos="s" depth="0" NCoef="0" IVar="6" Cut="2.7988119125366211e+01" cType="1" res="-6.2982542440295219e-03" rms="4.7227022051811218e-01" purity="4.9645051360130310e-01" nType="0">
        <Node pos="l" depth="1" NCoef="0" IVar="6" Cut="1.7323724746704102e+01" cType="1" res="-2.9411581158638000e-01" rms="3.7286558747291565e-01" purity="1.7055231332778931e-01" nType="0">
          <Node pos="l" depth="2" NCoef="0" IVar="-1" Cut="0.0000000000000000e+00" cType="1" res="-2.5426458567380905e-02" rms="2.5270894169807434e-01" purity="6.9276548922061920e-02" nType="-99"/>
          <Node pos="r" depth="2" NCoef="0" IVar="-1" Cut="0.0000000000000000e+00" cType="1" res="-9.0780463069677353e-03" rms="4.3862953782081604e-01" purity="2.6576420664787292e-01" nType="-99"/>
        </Node>
        <Node pos="r" depth="1" NCoef="0" IVar="4" Cut="3.0763556957244873e+00" cType="1" res="2.6168003678321838e-01" rms="3.9027872681617737e-01" purity="7.9988455772399902e-01" nType="0">
          <Node pos="l" depth="2" NCoef="0" IVar="-1" Cut="0.0000000000000000e+00" cType="1" res="5.3532369202002883e-04" rms="4.9493134021759033e-01" purity="5.2279150485992432e-01" nType="-99"/>
          <Node pos="r" depth="2" NCoef="0" IVar="-1" Cut="0.0000000000000000e+00" cType="1" res="2.0964484661817551e-02" rms="2.9319757223129272e-01" purity="9.0252220630645752e-01" nType="-99"/>
        </Node>
      </Node>
    </BinaryTree>
    <BinaryTree type="DecisionTree" boostWeight="1.0000000000000000e+00" itree="6">
      <Node pos="s" depth="0" NCoef="0" IVar="6" Cut="3.5820602416992188e+01" cType="1" res="9.5852017402648926e-03" rms="4.6702450513839722e-01" purity="5.1250272989273071e-01" nType="0">
        <Node pos="l" depth="1" NCoef="0" IVar="6" Cut="2.5584476470947266e+01" cType="1" res="-1.8182486295700073e-01" rms="4.3908628821372986e-01" purity="2.8990697860717773e-01" nType="0">
          <Node pos="l" depth="2" NCoef="0" IVar="-1" Cut="0.0000000000000000e+00" cType="1" res="-1.6245003789663315e-02" rms="3.6494180560112000e-01" purity="1.6115084290504456e-01" nType="-99"/>
          <Node pos="r" depth="2" NCoef="0" IVar="-1" Cut="0.0000000000000000e+00" cType="1" res="1.8857809482142329e-03" rms="4.8885223269462585e-01" purity="5.4417383670806885e-01" nType="-99"/>
        </Node>
        <Node pos="r" depth="1" NCoef="0" IVar="9" Cut="4.2848773956298828e+01" cType="1" res="3.4373041987419128e-01" rms="2.9443642497062683e-01" purity="9.0108901262283325e-01" nType="0">
          <Node pos="l" depth="2" NCoef="0" IVar="-1" Cut="0.0000000000000000e+00" cType="1" res="1.2451870366930962e-02" rms="4.1881096363067627e-01" purity="7.6658594608306885e-01" nType="-99"/>
          <Node pos="r" depth="2" NCoef="0" IVar="-1" Cut="0.0000000000000000e+00" cType="1" res="2.3366155102849007e-02" rms="2.0161405205726624e-01" purity="9.5723283290863037e-01" nType="-99"/>
        </Node>
      </Node>
    </BinaryTree>
    <BinaryTree type="DecisionTree" boostWeight="1.0000000000000000e+00" itree="7">
      <Node pos="s" depth="0" NCoef="0" IVar="6" Cut="3.5822216033935547e+01" cType="1" res="8.3555951714515686e-03" rms="4.6060061454772949e-01" purity="5.1196759939193726e-01" nType="0">
        <Node pos="l" depth="1" NCoef="0" IVar="6" Cut="2.7288219451904297e+01" cType="1" res="-1.9122271239757538e-01" rms="4.2982903122901917e-01" purity="2.7397105097770691e-01" nType="0">
          <Node pos="l" depth="2" NCoef="0" IVar="-1" Cut="0.0000000000000000e+00" cType="1" res="-1.4588014222681522e-02" rms="3.6548575758934021e-01" purity="1.6306579113006592e-01" nType="-99"/>
          <Node pos="r" depth="2" NCoef="0" IVar="-1" Cut="0.0000000000000000e+00" cType="1" res="3.9017372764647007e-03" rms="4.8483791947364807e-01" purity="5.8852243423461914e-01" nType="-99"/>
        </Node>
        <Node pos="r" depth="1" NCoef="0" IVar="4" Cut="3.0217180252075195e+00" cType="1" res="3.3788907527923584e-01" rms="2.8815659880638123e-01" purity="9.0493530035018921e-01" nType="0">
          <Node pos="l" depth="2" NCoef="0" IVar="-1" Cut="0.0000000000000000e+00" cType="1" res="6.8497792817652225e-03" rms="4.7561639547348022e-01" purity="6.4573627710342407e-01" nType="-99"/>
          <Node pos="r" depth="2" NCoef="0" IVar="-1" Cut="0.0000000000000000e+00" cType="1" res="2.0603004842996597e-02" rms="2.5075146555900574e-01" purity="9.3120533227920532e-01" nType="-99"/>
        </Node>
      </Node>
    </BinaryTree>
    <BinaryTree type="DecisionTree" boostWeight="1.0000000000000000e+00" itree="8">
      <Node pos="s" depth="0" NCoef="0" IVar="6" Cut="2.7987981796264648e+01" cType="1" res="-1.1576346121728420e-02" rms="4.5719471573829651e-01" purity="4.9106606841087341e-01" nType="0">
        <Node pos="l" depth="1" NCoef="0" IVar="4" Cut="3.1639490127563477e+00" cType="1" res="-2.7480837702751160e-01" rms="3.6799895763397217e-01" purity="1.6661758720874786e-01" nType="0">
          <Node pos="l" depth="2" NCoef="0" IVar="-1" Cut="0.0000000000000000e+00" cType="1" res="-1.4692493714392185e-02" rms="3.4075272083282471e-01" purity="1.3691784441471100e-01" nType="-99"/>
          <Node pos="r" depth="2" NCoef="0" IVar="-1" Cut="0.0000000000000000e+00" cType="1" res="-2.5866020005196333e-03" rms="4.8851358890533447e-01" purity="4.1823410987854004e-01" nType="-99"/>
        </Node>
        <Node pos="r" depth="1" NCoef="0" IVar="9" Cut="3.8772930145263672e+01" cType="1" res="2.3633666336536407e-01" rms="3.8939422369003296e-01" purity="7.9663306474685669e-01" nType="0">
          <Node pos="l" depth="2" NCoef="0" IVar="-1" Cut="0.0000000000000000e+00" cType="1" res="2.3557234089821577e-03" rms="4.8557674884796143e-01" purity="5.8322429656982422e-01" nType="-99"/>
          <Node pos="r" depth="2" NCoef="0" IVar="-1" Cut="0.0000000000000000e+00" cType="1" res="1.8316704779863358e-02" rms="2.9434186220169067e-01" purity="8.9762353897094727e-01" nType="-99"/>
        </Node>
      </Node>
    </BinaryTree>
    <BinaryTree type="DecisionTree" boostWeight="1.0000000000000000e+00" itree="9">
      <Node pos="s" depth="0" NCoef="0" IVar="6" Cut="3.3242454528808594e+01" cType="1" res="-1.0352578014135361e-02" rms="4.5286339521408081e-01" purity="4.9176099896430969e-01" nType="0">
        <Node pos="l" depth="1" NCoef="0" IVar="6" Cut="2.2152879714965820e+01" cType="1" res="-2.1773982048034668e-01" rms="4.0777000784873962e-01" purity="2.3324806988239288e-01" nType="0">
          <Node pos="l" depth="2" NCoef="0" IVar="-1" Cut="0.0000000000000000e+00" cType="1" res="-1.5884710475802422e-02" rms="3.1495782732963562e-01" purity="1.1390477418899536e-01" nType="-99"/>
          <Node pos="r" depth="2" NCoef="0" IVar="-1" Cut="0.0000000000000000e+00" cType="1" res="-3.9590108208358288e-03" rms="4.7676461935043335e-01" purity="3.9642247557640076e-01" nType="-99"/>
        </Node>
        <Node pos="r" depth="1" NCoef="0" IVar="9" Cut="3.5009143829345703e+01" cType="1" res="2.9515111446380615e-01" rms="3.2490739226341248e-01" purity="8.7257826328277588e-01" nType="0">
          <Node pos="l" depth="2" NCoef="0" IVar="-1" Cut="0.0000000000000000e+00" cType="1" res="6.1704828403890133e-03" rms="4.6967187523841858e-01" purity="6.6137236356735229e-01" nType="-99"/>
          <Node pos="r" depth="2" NCoef="0" IVar="-1" Cut="0.0000000000000000e+00" cType="1" res="2.1221380680799484e-02" rms="2.4558681249618530e-01" purity="9.3338787555694580e-01" nType="-99"/>
        </Node>
      </Node>
    </BinaryTree>
    <BinaryTree type="DecisionTree" boostWeight="1.0000000000000000e+00" itree="10">
      <Node pos="s" depth="0" NCoef="0" IVar="4" Cut="3.0392765998840332e+00" cType="1" res="1.5905929030850530e-03" rms="4.4820111989974976e-01" purity="5.0758427381515503e-01" nType="0">
        <Node pos="l" depth="1" NCoef="0" IVar="6" Cut="2.4334087371826172e+01" cType="1" res="-2.1480412781238556e-01" rms="4.0540328621864319e-01" purity="2.3395666480064392e-01" nType="0">
          <Node pos="l" depth="2" NCoef="0" IVar="-1" Cut="0.0000000000000000e+00" cType="1" res="-1.5991240739822388e-02" rms="3.1363415718078613e-01" purity="1.1175255477428436e-01" nType="-99"/>
          <Node pos="r" depth="2" NCoef="0" IVar="-1" Cut="0.0000000000000000e+00" cType="1" res="-2.2943997755646706e-03" rms="4.8666542768478394e-01" purity="4.4658377766609192e-01" nType="-99"/>
        </Node>
        <Node pos="r" depth="1" NCoef="0" IVar="6" Cut="2.3887784957885742e+01" cType="1" res="2.5256869196891785e-01" rms="3.5490104556083679e-01" purity="8.2494199275970459e-01" nType="0">
          <Node pos="l" depth="2" NCoef="0" IVar="-1" Cut="0.0000000000000000e+00" cType="1" res="-7.2972606867551804e-03" rms="4.5173412561416626e-01" purity="2.9111528396606445e-01" nType="-99"/>
          <Node pos="r" depth="2" NCoef="0" IVar="-1" Cut="0.0000000000000000e+00" cType="1" res="1.6406092792749405e-02" rms="3.1345349550247192e-01" purity="8.8231778144836426e-01" nType="-99"/>
        </Node>
      </Node>
    </BinaryTree>
    <BinaryTree type="DecisionTree" boostWeight="1.0000000000000000e+00" itree="11">
      <Node pos="s" depth="0" NCoef="0" IVar="6" Cut="3.1591728210449219e+01" cType="1" res="4.7232275828719139e-03" rms="4.4267976284027100e-01" purity="5.1026588678359985e-01" nType="0">
        <Node pos="l" depth="1" NCoef="0" IVar="6" Cut="2.2561275482177734e+01" cType="1" res="-2.2306267917156219e-01" rms="3.9508599042892456e-01" purity="2.1240337193012238e-01" nType="0">
          <Node pos="l" depth="2" NCoef="0" IVar="-1" Cut="0.0000000000000000e+00" cType="1" res="-1.4758425764739513e-02" rms="3.1279370188713074e-01" purity="1.1169743537902832e-01" nType="-99"/>
          <Node pos="r" depth="2" NCoef="0" IVar="-1" Cut="0.0000000000000000e+00" cType="1" res="-3.5860538482666016e-03" rms="4.7970572113990784e-01" purity="3.9815998077392578e-01" nType="-99"/>
        </Node>
        <Node pos="r" depth="1" NCoef="0" IVar="4" Cut="3.1260378360748291e+00" cType="1" res="2.7341982722282410e-01" rms="3.3105257153511047e-01" purity="8.6162489652633667e-01" nType="0">
          <Node pos="l" depth="2" NCoef="0" IVar="-1" Cut="0.0000000000000000e+00" cType="1" res="4.0922611951828003e-03" rms="4.7941869497299194e-01" purity="6.1537933349609375e-01" nType="-99"/>
          <Node pos="r" depth="2" NCoef="0" IVar="-1" Cut="0.0000000000000000e+00" cType="1" res="1.9038986414670944e-02" rms="2.5138360261917114e-01" purity="9.2936688661575317e-01" nType="-99"/>
        </Node>
      </Node>
    </BinaryTree>
    <BinaryTree type="DecisionTree" boostWeight="1.0000000000000000e+00" itree="12">
      <Node pos="s" depth="0" NCoef="0" IVar="6" Cut="3.5820602416992188e+01" cType="1" res="-1.0154538787901402e-02" rms="4.3967568874359131e-01" purity="4.9320158362388611e-01" nType="0">
        <Node pos="l" depth="1" NCoef="0" IVar="6" Cut="2.5584476470947266e+01" cType="1" res="-1.8233621120452881e-01" rms="4.1523873805999756e-01" purity="2.6090437173843384e-01" nType="0">
          <Node pos="l" depth="2" NCoef="0" IVar="-1" Cut="0.0000000000000000e+00" cType="1" res="-1.3944229111075401e-02" rms="3.4186229109764099e-01" purity="1.3907031714916229e-01" nType="-99"/>
          <Node pos="r" depth="2" NCoef="0" IVar="-1" Cut="0.0000000000000000e+00" cType="1" res="7.1194628253579140e-04" rms="4.8639729619026184e-01" purity="5.2532935142517090e-01" nType="-99"/>
        </Node>
        <Node pos="r" depth="1" NCoef="0" IVar="9" Cut="2.3044061660766602e+01" cType="1" res="2.8573802113533020e-01" rms="3.0119240283966064e-01" purity="8.9240223169326782e-01" nType="0">
          <Node pos="l" depth="2" NCoef="0" IVar="-1" Cut="0.0000000000000000e+00" cType="1" res="-1.2972065014764667e-03" rms="4.9446877837181091e-01" purity="5.4521465301513672e-01" nType="-99"/>
          <Node pos="r" depth="2" NCoef="0" IVar="-1" Cut="0.0000000000000000e+00" cType="1" res="1.8840342760086060e-02" rms="2.6130989193916321e-01" purity="9.2240613698959351e-01" nType="-99"/>
        </Node>
      </Node>
    </BinaryTree>
    <BinaryTree type="DecisionTree" boostWeight="1.0000000000000000e+00" itree="13">
      <Node pos="s" depth="0" NCoef="0" IVar="6" Cut="2.7987981796264648e+01" cType="1" res="-3.6472456995397806e-03" rms="4.3675860762596130e-01" purity="5.0010776519775391e-01" nType="0">
        <Node pos="l" depth="1" NCoef="0" IVar="1" Cut="6.4844207763671875e+01" cType="1" res="-2.3286744952201843e-01" rms="3.7615829706192017e-01" purity="1.7912933230400085e-01" nType="0">
          <Node pos="l" depth="2" NCoef="0" IVar="-1" Cut="0.0000000000000000e+00" cType="1" res="-1.3979293406009674e-02" rms="3.0585944652557373e-01" purity="1.0642586648464203e-01" nType="-99"/>
          <Node pos="r" depth="2" NCoef="0" IVar="-1" Cut="0.0000000000000000e+00" cType="1" res="-6.3001005910336971e-03" rms="4.5964625477790833e-01" purity="3.1871351599693298e-01" nType="-99"/>
        </Node>
        <Node pos="r" depth="1" NCoef="0" IVar="4" Cut="3.4090330600738525e+00" cType="1" res="2.1887636184692383e-01" rms="3.7156188488006592e-01" purity="8.1170892715454102e-01" nType="0">
          <Node pos="l" depth="2" NCoef="0" IVar="-1" Cut="0.0000000000000000e+00" cType="1" res="3.2699771691113710e-03" rms="4.7828656435012817e-01" purity="6.0600507259368896e-01" nType="-99"/>
          <Node pos="r" depth="2" NCoef="0" IVar="-1" Cut="0.0000000000000000e+00" cType="1" res="1.8551036715507507e-02" rms="2.5297868251800537e-01" purity="9.2831414937973022e-01" nType="-99"/>
        </Node>
      </Node>
    </BinaryTree>
    <BinaryTree type="DecisionTree" boostWeight="1.0000000000000000e+00" itree="14">
      <Node pos="s" depth="0" NCoef="0" IVar="6" Cut="3.3937210083007812e+01" cType="1" res="-1.0083137080073357e-02" rms="4.3217882513999939e-01" purity="4.9360662698745728e-01" nType="0">
        <Node pos="l" depth="1" NCoef="0" IVar="1" Cut="5.8975555419921875e+01" cType="1" res="-1.9158565998077393e-01" rms="4.0478056669235229e-01" purity="2.3667417466640472e-01" nType="0">
          <Node pos="l" depth="2" NCoef="0" IVar="-1" Cut="0.0000000000000000e+00" cType="1" res="-1.4857992529869080e-02" rms="2.7645945549011230e-01" purity="8.3988353610038757e-02" nType="-99"/>
          <Node pos="r" depth="2" NCoef="0" IVar="-1" Cut="0.0000000000000000e+00" cType="1" res="-5.7959873229265213e-03" rms="4.5655837655067444e-01" purity="3.4790661931037903e-01" nType="-99"/>
        </Node>
        <Node pos="r" depth="1" NCoef="0" IVar="4" Cut="3.4920430183410645e+00" cType="1" res="2.6358902454376221e-01" rms="3.1110438704490662e-01" purity="8.8101309537887573e-01" nType="0">
          <Node pos="l" depth="2" NCoef="0" IVar="-1" Cut="0.0000000000000000e+00" cType="1" res="7.2865886613726616e-03" rms="4.4595187902450562e-01" purity="7.0699191093444824e-01" nType="-99"/>
          <Node pos="r" depth="2" NCoef="0" IVar="-1" Cut="0.0000000000000000e+00" cType="1" res="1.8421685323119164e-02" rms="2.2265507280826569e-01" purity="9.4552963972091675e-01" nType="-99"/>
        </Node>
      </Node>
    </BinaryTree>
    <BinaryTree type="DecisionTree" boostWeight="1.0000000000000000e+00" itree="15">
      <Node pos="s" depth="0" NCoef="0" IVar="4" Cut="3.0706191062927246e+00" cType="1" res="9.3028377741575241e-03" rms="4.3240377306938171e-01" purity="5.1743984222412109e-01" nType="0">
        <Node pos="l" depth="1" NCoef="0" IVar="1" Cut="7.2809860229492188e+01" cType="1" res="-1.7052011191844940e-01" rms="4.1596388816833496e-01" purity="2.6023957133293152e-01" nType="0">
          <Node pos="l" depth="2" NCoef="0" IVar="-1" Cut="0.0000000000000000e+00" cType="1" res="-1.1586903594434261e-02" rms="3.6780130863189697e-01" purity="1.6831360757350922e-01" nType="-99"/>
          <Node pos="r" depth="2" NCoef="0" IVar="-1" Cut="0.0000000000000000e+00" cType="1" res="1.4273105189204216e-03" rms="4.7833102941513062e-01" purity="5.2206802368164062e-01" nType="-99"/>
        </Node>
        <Node pos="r" depth="1" NCoef="0" IVar="9" Cut="2.3506679534912109e+01" cType="1" res="2.3096847534179688e-01" rms="3.3936583995819092e-01" purity="8.3448761701583862e-01" nType="0">
          <Node pos="l" depth="2" NCoef="0" IVar="-1" Cut="0.0000000000000000e+00" cType="1" res="-3.7606838159263134e-03" rms="4.6889743208885193e-01" purity="4.3884781002998352e-01" nType="-99"/>
          <Node pos="r" depth="2" NCoef="0" IVar="-1" Cut="0.0000000000000000e+00" cType="1" res="1.6061130911111832e-02" rms="3.0094233155250549e-01" purity="8.7844187021255493e-01" nType="-99"/>
        </Node>
      </Node>
    </BinaryTree>
    <BinaryTree type="DecisionTree" boostWeight="1.0000000000000000e+00" itree="16">
      <Node pos="s" depth="0" NCoef="0" IVar="6" Cut="3.3238079071044922e+01" cType="1" res="-2.1395266056060791e-02" rms="4.2571249604225159e-01" purity="4.8217508196830750e-01" nType="0">
        <Node pos="l" depth="1" NCoef="0" IVar="1" Cut="5.8994945526123047e+01" cType="1" res="-1.9877327978610992e-01" rms="3.9361944794654846e-01" purity="2.2073626518249512e-01" nType="0">
          <Node pos="l" depth="2" NCoef="0" IVar="-1" Cut="0.0000000000000000e+00" cType="1" res="-1.3667407445609570e-02" rms="2.6041629910469055e-01" purity="7.4124008417129517e-02" nType="-99"/>
          <Node pos="r" depth="2" NCoef="0" IVar="-1" Cut="0.0000000000000000e+00" cType="1" res="-6.0539362020790577e-03" rms="4.4989085197448730e-01" purity="3.2655799388885498e-01" nType="-99"/>
        </Node>
        <Node pos="r" depth="1" NCoef="0" IVar="9" Cut="3.8772930145263672e+01" cType="1" res="2.3571574687957764e-01" rms="3.2807597517967224e-01" purity="8.6113297939300537e-01" nType="0">
          <Node pos="l" depth="2" NCoef="0" IVar="-1" Cut="0.0000000000000000e+00" cType="1" res="3.6624639760702848e-03" rms="4.6327009797096252e-01" purity="6.5375453233718872e-01" nType="-99"/>
          <Node pos="r" depth="2" NCoef="0" IVar="-1" Cut="0.0000000000000000e+00" cType="1" res="1.9152170047163963e-02" rms="2.1960289776325226e-01" purity="9.4499945640563965e-01" nType="-99"/>
        </Node>
      </Node>
    </BinaryTree>
    <BinaryTree type="DecisionTree" boostWeight="1.0000000000000000e+00" itree="17">
      <Node pos="s" depth="0" NCoef="0" IVar="6" Cut="2.7987981796264648e+01" cType="1" res="-1.3931044377386570e-02" rms="4.2403388023376465e-01" purity="4.9019709229469299e-01" nType="0">
        <Node pos="l" depth="1" NCoef="0" IVar="4" Cut="3.2800600528717041e+00" cType="1" res="-2.2248491644859314e-01" rms="3.6757165193557739e-01" purity="1.7116707563400269e-01" nType="0">
          <Node pos="l" depth="2" NCoef="0" IVar="-1" Cut="0.0000000000000000e+00" cType="1" res="-1.2350607663393021e-02" rms="3.4509745240211487e-01" purity="1.4305007457733154e-01" nType="-99"/>
          <Node pos="r" depth="2" NCoef="0" IVar="-1" Cut="0.0000000000000000e+00" cType="1" res="2.5116465985774994e-03" rms="4.8715290427207947e-01" purity="4.8830515146255493e-01" nType="-99"/>
        </Node>
        <Node pos="r" depth="1" NCoef="0" IVar="4" Cut="2.7742447853088379e+00" cType="1" res="1.8521735072135925e-01" rms="3.7588772177696228e-01" purity="7.9483932256698608e-01" nType="0">
          <Node pos="l" depth="2" NCoef="0" IVar="-1" Cut="0.0000000000000000e+00" cType="1" res="-3.1130681745707989e-03" rms="4.8889496922492981e-01" purity="4.5325577259063721e-01" nType="-99"/>
          <Node pos="r" depth="2" NCoef="0" IVar="-1" Cut="0.0000000000000000e+00" cType="1" res="1.4363860711455345e-02" rms="3.2114866375923157e-01" purity="8.7009072303771973e-01" nType="-99"/>
        </Node>
      </Node>
    </BinaryTree>
    <BinaryTree type="DecisionTree" boostWeight="1.0000000000000000e+00" itree="18">
      <Node pos="s" depth="0" NCoef="0" IVar="6" Cut="3.3937210083007812e+01" cType="1" res="-1.1721755145117640e-03" rms="4.1940465569496155e-01" purity="5.0740820169448853e-01" nType="0">
        <Node pos="l" depth="1" NCoef="0" IVar="1" Cut="5.8975555419921875e+01" cType="1" res="-1.7197449505329132e-01" rms="4.0389761328697205e-01" purity="2.4157418310642242e-01" nType="0">
          <Node pos="l" depth="2" NCoef="0" IVar="-1" Cut="0.0000000000000000e+00" cType="1" res="-1.4620348811149597e-02" rms="2.5840249657630920e-01" purity="7.2438642382621765e-02" nType="-99"/>
          <Node pos="r" depth="2" NCoef="0" IVar="-1" Cut="0.0000000000000000e+00" cType="1" res="-4.5129642821848392e-03" rms="4.5995211601257324e-01" purity="3.6132347583770752e-01" nType="-99"/>
        </Node>
        <Node pos="r" depth="1" NCoef="0" IVar="9" Cut="3.8233997344970703e+01" cType="1" res="2.3927938938140869e-01" rms="3.0819910764694214e-01" purity="8.8164311647415161e-01" nType="0">
          <Node pos="l" depth="2" NCoef="0" IVar="-1" Cut="0.0000000000000000e+00" cType="1" res="6.5706553868949413e-03" rms="4.4096702337265015e-01" purity="7.1664804220199585e-01" nType="-99"/>
          <Node pos="r" depth="2" NCoef="0" IVar="-1" Cut="0.0000000000000000e+00" cType="1" res="1.7429277300834656e-02" rms="2.3349502682685852e-01" purity="9.3758052587509155e-01" nType="-99"/>
        </Node>
      </Node>
    </BinaryTree>
    <BinaryTree type="DecisionTree" boostWeight="1.0000000000000000e+00" itree="19">
      <Node pos="s" depth="0" NCoef="0" IVar="6" Cut="2.7988119125366211e+01" cType="1" res="-1.6098227351903915e-02" rms="4.1845569014549255e-01" purity="4.9046289920806885e-01" nType="0">
        <Node pos="l" depth="1" NCoef="0" IVar="6" Cut="1.7323724746704102e+01" cType="1" res="-2.1882396936416626e-01" rms="3.6127805709838867e-01" purity="1.6463771462440491e-01" nType="0">
          <Node pos="l" depth="2" NCoef="0" IVar="-1" Cut="0.0000000000000000e+00" cType="1" res="-1.7128469422459602e-02" rms="2.6285606622695923e-01" purity="7.7791363000869751e-02" nType="-99"/>
          <Node pos="r" depth="2" NCoef="0" IVar="-1" Cut="0.0000000000000000e+00" cType="1" res="-7.0706703700125217e-03" rms="4.2451995611190796e-01" purity="2.4828298389911652e-01" nType="-99"/>
        </Node>
        <Node pos="r" depth="1" NCoef="0" IVar="4" Cut="2.5499322414398193e+00" cType="1" res="1.6763854026794434e-01" rms="3.8013824820518494e-01" purity="7.8576856851577759e-01" nType="0">
          <Node pos="l" depth="2" NCoef="0" IVar="-1" Cut="0.0000000000000000e+00" cType="1" res="-7.6366215944290161e-03" rms="4.7093090415000916e-01" purity="3.5638186335563660e-01" nType="-99"/>
          <Node pos="r" depth="2" NCoef="0" IVar="-1" Cut="0.0000000000000000e+00" cType="1" res="1.2479101307690144e-02" rms="3.4180846810340881e-01" purity="8.4752172231674194e-01" nType="-99"/>
        </Node>
      </Node>
    </BinaryTree>
    <BinaryTree type="DecisionTree" boostWeight="1.0000000000000000e+00" itree="20">
      <Node pos="s" depth="0" NCoef="0" IVar="4" Cut="3.2039616107940674e+00" cType="1" res="-5.4327715188264847e-03" rms="4.1458067297935486e-01" purity="5.0159162282943726e-01" nType="0">
        <Node pos="l" depth="1" NCoef="0" IVar="6" Cut="3.0126396179199219e+01" cType="1" res="-1.5910491347312927e-01" rms="4.0363553166389465e-01" purity="2.5955218076705933e-01" nType="0">
          <Node pos="l" depth="2" NCoef="0" IVar="-1" Cut="0.0000000000000000e+00" cType="1" res="-1.1355939321219921e-02" rms="3.5592809319496155e-01" purity="1.5966090559959412e-01" nType="-99"/>
          <Node pos="r" depth="2" NCoef="0" IVar="-1" Cut="0.0000000000000000e+00" cType="1" res="2.9187854379415512e-03" rms="4.7916597127914429e-01" purity="6.0871982574462891e-01" nType="-99"/>
        </Node>
        <Node pos="r" depth="1" NCoef="0" IVar="9" Cut="3.2465759277343750e+01" cType="1" res="2.1562264859676361e-01" rms="3.1925523281097412e-01" purity="8.4976232051849365e-01" nType="0">
          <Node pos="l" depth="2" NCoef="0" IVar="-1" Cut="0.0000000000000000e+00" cType="1" res="1.2259893082955386e-05" rms="4.5982787013053894e-01" purity="5.6623452901840210e-01" nType="-99"/>
          <Node pos="r" depth="2" NCoef="0" IVar="-1" Cut="0.0000000000000000e+00" cType="1" res="1.7038345336914062e-02" rms="2.5296220183372498e-01" purity="9.1437381505966187e-01" nType="-99"/>
        </Node>
      </Node>
    </BinaryTree>
    <BinaryTree type="DecisionTree" boostWeight="1.0000000000000000e+00" itree="21">
      <Node pos="s" depth="0" NCoef="0" IVar="6" Cut="2.5454204559326172e+01" cType="1" res="-5.2726706489920616e-03" rms="4.1100898385047913e-01" purity="5.0035673379898071e-01" nType="0">
        <Node pos="l" depth="1" NCoef="0" IVar="1" Cut="5.8977901458740234e+01" cType="1" res="-2.2612376511096954e-01" rms="3.3824622631072998e-01" purity="1.3956613838672638e-01" nType="0">
          <Node pos="l" depth="2" NCoef="0" IVar="-1" Cut="0.0000000000000000e+00" cType="1" res="-1.2122006155550480e-02" rms="2.5782272219657898e-01" purity="7.2559200227260590e-02" nType="-99"/>
          <Node pos="r" depth="2" NCoef="0" IVar="-1" Cut="0.0000000000000000e+00" cType="1" res="-1.0153176262974739e-02" rms="4.0874156355857849e-01" purity="2.2311702370643616e-01" nType="-99"/>
        </Node>
        <Node pos="r" depth="1" NCoef="0" IVar="9" Cut="2.5812927246093750e+01" cType="1" res="1.5827161073684692e-01" rms="3.8266721367835999e-01" purity="7.6752883195877075e-01" nType="0">
          <Node pos="l" depth="2" NCoef="0" IVar="-1" Cut="0.0000000000000000e+00" cType="1" res="-5.0980048254132271e-03" rms="4.7817856073379517e-01" purity="4.1958722472190857e-01" nType="-99"/>
          <Node pos="r" depth="2" NCoef="0" IVar="-1" Cut="0.0000000000000000e+00" cType="1" res="1.2519362382590771e-02" rms="3.3726930618286133e-01" purity="8.3633714914321899e-01" nType="-99"/>
        </Node>
      </Node>
    </BinaryTree>
    <BinaryTree type="DecisionTree" boostWeight="1.0000000000000000e+00" itree="22">
      <Node pos="s" depth="0" NCoef="0" IVar="4" Cut="3.2506766319274902e+00" cType="1" res="-2.3752811830490828e-03" rms="4.1132688522338867e-01" purity="5.0660532712936401e-01" nType="0">
        <Node pos="l" depth="1" NCoef="0" IVar="1" Cut="7.6624763488769531e+01" cType="1" res="-1.4751911163330078e-01" rms="4.0583723783493042e-01" purity="2.6931279897689819e-01" nType="0">
          <Node pos="l" depth="2" NCoef="0" IVar="-1" Cut="0.0000000000000000e+00" cType="1" res="-1.0172427631914616e-02" rms="3.6981385946273804e-01" purity="1.8095876276493073e-01" nType="-99"/>
          <Node pos="r" depth="2" NCoef="0" IVar="-1" Cut="0.0000000000000000e+00" cType="1" res="2.6415195316076279e-03" rms="4.6138125658035278e-01" purity="5.7853817939758301e-01" nType="-99"/>
        </Node>
        <Node pos="r" depth="1" NCoef="0" IVar="9" Cut="3.1494831085205078e+01" cType="1" res="2.1189670264720917e-01" rms="3.1432396173477173e-01" purity="8.5691410303115845e-01" nType="0">
          <Node pos="l" depth="2" NCoef="0" IVar="-1" Cut="0.0000000000000000e+00" cType="1" res="9.2636671615764499e-04" rms="4.6051493287086487e-01" purity="5.8138239383697510e-01" nType="-99"/>
          <Node pos="r" depth="2" NCoef="0" IVar="-1" Cut="0.0000000000000000e+00" cType="1" res="1.6838962212204933e-02" rms="2.5497651100158691e-01" purity="9.1603869199752808e-01" nType="-99"/>
        </Node>
      </Node>
    </BinaryTree>
    <BinaryTree type="DecisionTree" boostWeight="1.0000000000000000e+00" itree="23">
      <Node pos="s" depth="0" NCoef="0" IVar="4" Cut="2.8839745521545410e+00" cType="1" res="-1.7012499272823334e-02" rms="4.0512484312057495e-01" purity="4.9011680483818054e-01" nType="0">
        <Node pos="l" depth="1" NCoef="0" IVar="6" Cut="2.1087787628173828e+01" cType="1" res="-1.8476276099681854e-01" rms="3.7841537594795227e-01" purity="2.0845082402229309e-01" nType="0">
          <Node pos="l" depth="2" NCoef="0" IVar="-1" Cut="0.0000000000000000e+00" cType="1" res="-1.4207771979272366e-02" rms="2.6423931121826172e-01" purity="7.6434232294559479e-02" nType="-99"/>
          <Node pos="r" depth="2" NCoef="0" IVar="-1" Cut="0.0000000000000000e+00" cType="1" res="-4.3852445669472218e-03" rms="4.5345759391784668e-01" purity="3.4539502859115601e-01" nType="-99"/>
        </Node>
        <Node pos="r" depth="1" NCoef="0" IVar="9" Cut="3.2465759277343750e+01" cType="1" res="1.6508619487285614e-01" rms="3.5090899467468262e-01" purity="7.9587483406066895e-01" nType="0">
          <Node pos="l" depth="2" NCoef="0" IVar="-1" Cut="0.0000000000000000e+00" cType="1" res="-3.6916949320584536e-03" rms="4.6264451742172241e-01" purity="4.5616367459297180e-01" nType="-99"/>
          <Node pos="r" depth="2" NCoef="0" IVar="-1" Cut="0.0000000000000000e+00" cType="1" res="1.5253626741468906e-02" rms="2.7345550060272217e-01" purity="8.9318293333053589e-01" nType="-99"/>
        </Node>
      </Node>
    </BinaryTree>
    <BinaryTree type="DecisionTree" boostWeight="1.0000000000000000e+00" itree="24">
      <Node pos="s" depth="0" NCoef="0" IVar="6" Cut="2.7987981796264648e+01" cType="1" res="1.5341209247708321e-02" rms="4.0446299314498901e-01" purity="5.2687400579452515e-01" nType="0">
        <Node pos="l" depth="1" NCoef="0" IVar="6" Cut="1.7323659896850586e+01" cType="1" res="-1.6571696102619171e-01" rms="3.8341528177261353e-01" purity="1.9594645500183105e-01" nType="0">
          <Node pos="l" depth="2" NCoef="0" IVar="-1" Cut="0.0000000000000000e+00" cType="1" res="-1.6533449292182922e-02" rms="2.8148820996284485e-01" purity="9.1440618038177490e-02" nType="-99"/>
          <Node pos="r" depth="2" NCoef="0" IVar="-1" Cut="0.0000000000000000e+00" cType="1" res="-3.8966611027717590e-03" rms="4.4724687933921814e-01" purity="2.9954668879508972e-01" nType="-99"/>
        </Node>
        <Node pos="r" depth="1" NCoef="0" IVar="4" Cut="3.6162130832672119e+00" cType="1" res="1.7823378741741180e-01" rms="3.4997510910034180e-01" purity="8.2459956407546997e-01" nType="0">
          <Node pos="l" depth="2" NCoef="0" IVar="-1" Cut="0.0000000000000000e+00" cType="1" res="4.6469145454466343e-03" rms="4.5367491245269775e-01" purity="6.5797078609466553e-01" nType="-99"/>
          <Node pos="r" depth="2" NCoef="0" IVar="-1" Cut="0.0000000000000000e+00" cType="1" res="1.5385310165584087e-02" rms="2.3453608155250549e-01" purity="9.3658155202865601e-01" nType="-99"/>
        </Node>
      </Node>
    </BinaryTree>
    <BinaryTree type="DecisionTree" boostWeight="1.0000000000000000e+00" itree="25">
      <Node pos="s" depth="0" NCoef="0" IVar="6" Cut="2.7987981796264648e+01" cType="1" res="-8.2155661657452583e-03" rms="4.0025326609611511e-01" purity="4.9523195624351501e-01" nType="0">
        <Node pos="l" depth="1" NCoef="0" IVar="6" Cut="1.8656250000000000e+01" cType="1" res="-1.8953627347946167e-01" rms="3.5867980122566223e-01" purity="1.6584360599517822e-01" nType="0">
          <Node pos="l" depth="2" NCoef="0" IVar="-1" Cut="0.0000000000000000e+00" cType="1" res="-1.5893714502453804e-02" rms="2.6095160841941833e-01" purity="7.6965764164924622e-02" nType="-99"/>
          <Node pos="r" depth="2" NCoef="0" IVar="-1" Cut="0.0000000000000000e+00" cType="1" res="-4.7835046425461769e-03" rms="4.3446931242942810e-01" purity="2.7178481221199036e-01" nType="-99"/>
        </Node>
        <Node pos="r" depth="1" NCoef="0" IVar="4" Cut="2.5499322414398193e+00" cType="1" res="1.6465960443019867e-01" rms="3.5923933982849121e-01" purity="8.0927795171737671e-01" nType="0">
          <Node pos="l" depth="2" NCoef="0" IVar="-1" Cut="0.0000000000000000e+00" cType="1" res="-4.5942594297230244e-03" rms="4.8733949661254883e-01" purity="4.1048461198806763e-01" nType="-99"/>
          <Node pos="r" depth="2" NCoef="0" IVar="-1" Cut="0.0000000000000000e+00" cType="1" res="1.2874854728579521e-02" rms="3.2069614529609680e-01" purity="8.6534476280212402e-01" nType="-99"/>
        </Node>
      </Node>
    </BinaryTree>
    <BinaryTree type="DecisionTree" boostWeight="1.0000000000000000e+00" itree="26">
      <Node pos="s" depth="0" NCoef="0" IVar="6" Cut="2.3880401611328125e+01" cType="1" res="9.0905418619513512e-03" rms="3.9999908208847046e-01" purity="5.2160817384719849e-01" nType="0">
        <Node pos="l" depth="1" NCoef="0" IVar="4" Cut="3.3291826248168945e+00" cType="1" res="-1.9124847650527954e-01" rms="3.4586474299430847e-01" purity="1.4786130189895630e-01" nType="0">
          <Node pos="l" depth="2" NCoef="0" IVar="-1" Cut="0.0000000000000000e+00" cType="1" res="-1.2357136234641075e-02" rms="3.2620903849601746e-01" purity="1.2521935999393463e-01" nType="-99"/>
          <Node pos="r" depth="2" NCoef="0" IVar="-1" Cut="0.0000000000000000e+00" cType="1" res="-1.9417090516071767e-04" rms="4.8129683732986450e-01" purity="4.0592655539512634e-01" nType="-99"/>
        </Node>
        <Node pos="r" depth="1" NCoef="0" IVar="4" Cut="2.9821672439575195e+00" cType="1" res="1.3208001852035522e-01" rms="3.8081610202789307e-01" purity="7.5105386972427368e-01" nType="0">
          <Node pos="l" depth="2" NCoef="0" IVar="-1" Cut="0.0000000000000000e+00" cType="1" res="-1.0484131053090096e-03" rms="4.7645202279090881e-01" purity="4.5813208818435669e-01" nType="-99"/>
          <Node pos="r" depth="2" NCoef="0" IVar="-1" Cut="0.0000000000000000e+00" cType="1" res="1.2874291278421879e-02" rms="3.0554655194282532e-01" purity="8.8263523578643799e-01" nType="-99"/>
        </Node>
      </Node>
    </BinaryTree>
    <BinaryTree type="DecisionTree" boostWeight="1.0000000000000000e+00" itree="27">
      <Node pos="s" depth="0" NCoef="0" IVar="6" Cut="2.3891601562500000e+01" cType="1" res="-2.5882141198962927e-03" rms="3.9850550889968872e-01" purity="5.0415104627609253e-01" nType="0">
        <Node pos="l" depth="1" NCoef="0" IVar="6" Cut="1.4794150352478027e+01" cType="1" res="-1.9954454898834229e-01" rms="3.3320364356040955e-01" purity="1.3442586362361908e-01" nType="0">
          <Node pos="l" depth="2" NCoef="0" IVar="-1" Cut="0.0000000000000000e+00" cType="1" res="-1.8723143264651299e-02" rms="2.4683012068271637e-01" purity="6.7065395414829254e-02" nType="-99"/>
          <Node pos="r" depth="2" NCoef="0" IVar="-1" Cut="0.0000000000000000e+00" cType="1" res="-6.9027650170028210e-03" rms="3.9264130592346191e-01" purity="2.0062914490699768e-01" nType="-99"/>
        </Node>
        <Node pos="r" depth="1" NCoef="0" IVar="9" Cut="4.2768043518066406e+01" cType="1" res="1.2168751657009125e-01" rms="3.8605025410652161e-01" purity="7.3744076490402222e-01" nType="0">
          <Node pos="l" depth="2" NCoef="0" IVar="-1" Cut="0.0000000000000000e+00" cType="1" res="2.0733432393171825e-05" rms="4.6038249135017395e-01" purity="5.4408901929855347e-01" nType="-99"/>
          <Node pos="r" depth="2" NCoef="0" IVar="-1" Cut="0.0000000000000000e+00" cType="1" res="1.5881611034274101e-02" rms="2.6449257135391235e-01" purity="9.0643048286437988e-01" nType="-99"/>
        </Node>
      </Node>
    </BinaryTree>
    <BinaryTree type="DecisionTree" boostWeight="1.0000000000000000e+00" itree="28">
      <Node pos="s" depth="0" NCoef="0" IVar="6" Cut="3.3937210083007812e+01" cType="1" res="-6.4488467760384083e-03" rms="3.9560750126838684e-01" purity="5.0416654348373413e-01" nType="0">
        <Node pos="l" depth="1" NCoef="0" IVar="6" Cut="2.5851444244384766e+01" cType="1" res="-1.3856144249439240e-01" rms="3.9607909321784973e-01" purity="2.4527452886104584e-01" nType="0">
          <Node pos="l" depth="2" NCoef="0" IVar="-1" Cut="0.0000000000000000e+00" cType="1" res="-1.0400044731795788e-02" rms="3.4315505623817444e-01" purity="1.4519943296909332e-01" nType="-99"/>
          <Node pos="r" depth="2" NCoef="0" IVar="-1" Cut="0.0000000000000000e+00" cType="1" res="-3.6369753070175648e-04" rms="4.8097494244575500e-01" purity="4.9741622805595398e-01" nType="-99"/>
        </Node>
        <Node pos="r" depth="1" NCoef="0" IVar="4" Cut="3.7284262180328369e+00" cType="1" res="1.8457585573196411e-01" rms="3.0698251724243164e-01" purity="8.7850457429885864e-01" nType="0">
          <Node pos="l" depth="2" NCoef="0" IVar="-1" Cut="0.0000000000000000e+00" cType="1" res="5.4685943759977818e-03" rms="4.2340981960296631e-01" purity="7.3575758934020996e-01" nType="-99"/>
          <Node pos="r" depth="2" NCoef="0" IVar="-1" Cut="0.0000000000000000e+00" cType="1" res="1.5144001692533493e-02" rms="2.0990256965160370e-01" purity="9.5129537582397461e-01" nType="-99"/>
        </Node>
      </Node>
    </BinaryTree>
    <BinaryTree type="DecisionTree" boostWeight="1.0000000000000000e+00" itree="29">
      <Node pos="s" depth="0" NCoef="0" IVar="6" Cut="3.3938434600830078e+01" cType="1" res="-1.7030352726578712e-02" rms="3.9332082867622375e-01" purity="4.8787397146224976e-01" nType="0">
        <Node pos="l" depth="1" NCoef="0" IVar="1" Cut="6.7560371398925781e+01" cType="1" res="-1.4270091056823730e-01" rms="3.8828200101852417e-01" purity="2.3403057456016541e-01" nType="0">
          <Node pos="l" depth="2" NCoef="0" IVar="-1" Cut="0.0000000000000000e+00" cType="1" res="-1.1114665307104588e-02" rms="3.2647103071212769e-01" purity="1.2987063825130463e-01" nType="-99"/>
          <Node pos="r" depth="2" NCoef="0" IVar="-1" Cut="0.0000000000000000e+00" cType="1" res="-1.3767817290499806e-03" rms="4.5808288455009460e-01" purity="4.2461353540420532e-01" nType="-99"/>
        </Node>
        <Node pos="r" depth="1" NCoef="0" IVar="9" Cut="3.4318798065185547e+01" cType="1" res="1.6976220905780792e-01" rms="3.1967067718505859e-01" purity="8.6517834663391113e-01" nType="0">
          <Node pos="l" depth="2" NCoef="0" IVar="-1" Cut="0.0000000000000000e+00" cType="1" res="4.4117227662354708e-04" rms="4.7689622640609741e-01" purity="6.2565302848815918e-01" nType="-99"/>
          <Node pos="r" depth="2" NCoef="0" IVar="-1" Cut="0.0000000000000000e+00" cType="1" res="1.5525424852967262e-02" rms="2.4066279828548431e-01" purity="9.3200874328613281e-01" nType="-99"/>
        </Node>
      </Node>
    </BinaryTree>
    <BinaryTree type="DecisionTree" boostWeight="1.0000000000000000e+00" itree="30">
      <Node pos="s" depth="0" NCoef="0" IVar="6" Cut="2.5453052520751953e+01" cType="1" res="3.2576823141425848e-03" rms="3.9676910638809204e-01" purity="5.0850057601928711e-01" nType="0">
        <Node pos="l" depth="1" NCoef="0" IVar="11" Cut="-3.8164237976074219e+01" cType="1" res="-1.6006052494049072e-01" rms="3.6149886250495911e-01" purity="1.6597104072570801e-01" nType="0">
          <Node pos="l" depth="2" NCoef="0" IVar="-1" Cut="0.0000000000000000e+00" cType="1" res="-1.0854382999241352e-02" rms="3.1726482510566711e-01" purity="1.2178185582160950e-01" nType="-99"/>
          <Node pos="r" depth="2" NCoef="0" IVar="-1" Cut="0.0000000000000000e+00" cType="1" res="-4.9266354180872440e-03" rms="4.3001410365104675e-01" purity="2.5802257657051086e-01" nType="-99"/>
        </Node>
        <Node pos="r" depth="1" NCoef="0" IVar="9" Cut="3.4318798065185547e+01" cType="1" res="1.2490758299827576e-01" rms="3.7773036956787109e-01" purity="7.6363861560821533e-01" nType="0">
          <Node pos="l" depth="2" NCoef="0" IVar="-1" Cut="0.0000000000000000e+00" cType="1" res="-1.5985894715413451e-03" rms="4.7531774640083313e-01" purity="5.0714212656021118e-01" nType="-99"/>
          <Node pos="r" depth="2" NCoef="0" IVar="-1" Cut="0.0000000000000000e+00" cType="1" res="1.2876411899924278e-02" rms="3.0658915638923645e-01" purity="8.6939388513565063e-01" nType="-99"/>
        </Node>
      </Node>
    </BinaryTree>
    <BinaryTree type="DecisionTree" boostWeight="1.0000000000000000e+00" itree="31">
      <Node pos="s" depth="0" NCoef="0" IVar="6" Cut="2.7987981796264648e+01" cType="1" res="-1.9134972244501114e-02" rms="3.9167946577072144e-01" purity="4.8605591058731079e-01" nType="0">
        <Node pos="l" depth="1" NCoef="0" IVar="4" Cut="3.2848901748657227e+00" cType="1" res="-1.7166179418563843e-01" rms="3.5356259346008301e-01" purity="1.6159620881080627e-01" nType="0">
          <Node pos="l" depth="2" NCoef="0" IVar="-1" Cut="0.0000000000000000e+00" cType="1" res="-1.0024826973676682e-02" rms="3.3419457077980042e-01" purity="1.3662025332450867e-01" nType="-99"/>
          <Node pos="r" depth="2" NCoef="0" IVar="-1" Cut="0.0000000000000000e+00" cType="1" res="3.3135520061478019e-04" rms="4.8076915740966797e-01" purity="4.2505070567131042e-01" nType="-99"/>
        </Node>
        <Node pos="r" depth="1" NCoef="0" IVar="4" Cut="2.2878315448760986e+00" cType="1" res="1.2387049943208694e-01" rms="3.7119150161743164e-01" purity="7.9026162624359131e-01" nType="0">
          <Node pos="l" depth="2" NCoef="0" IVar="-1" Cut="0.0000000000000000e+00" cType="1" res="-1.1014542542397976e-02" rms="4.5467242598533630e-01" purity="2.9252603650093079e-01" nType="-99"/>
          <Node pos="r" depth="2" NCoef="0" IVar="-1" Cut="0.0000000000000000e+00" cType="1" res="9.4103766605257988e-03" rms="3.5301271080970764e-01" purity="8.2457178831100464e-01" nType="-99"/>
        </Node>
      </Node>
    </BinaryTree>
    <BinaryTree type="DecisionTree" boostWeight="1.0000000000000000e+00" itree="32">
      <Node pos="s" depth="0" NCoef="0" IVar="1" Cut="7.1557983398437500e+01" cType="1" res="-1.1733471415936947e-02" rms="3.8531333208084106e-01" purity="4.9303832650184631e-01" nType="0">
        <Node pos="l" depth="1" NCoef="0" IVar="6" Cut="1.7218750000000000e+01" cType="1" res="-1.7900979518890381e-01" rms="3.4832113981246948e-01" purity="1.6632267832756042e-01" nType="0">
          <Node pos="l" depth="2" NCoef="0" IVar="-1" Cut="0.0000000000000000e+00" cType="1" res="-1.5677303075790405e-02" rms="2.1924762427806854e-01" purity="5.1113978028297424e-02" nType="-99"/>
          <Node pos="r" depth="2" NCoef="0" IVar="-1" Cut="0.0000000000000000e+00" cType="1" res="-6.0220165178179741e-03" rms="4.1492280364036560e-01" purity="2.5345399975776672e-01" nType="-99"/>
        </Node>
        <Node pos="r" depth="1" NCoef="0" IVar="4" Cut="3.3284003734588623e+00" cType="1" res="1.2900422513484955e-01" rms="3.5770142078399658e-01" purity="7.6792007684707642e-01" nType="0">
          <Node pos="l" depth="2" NCoef="0" IVar="-1" Cut="0.0000000000000000e+00" cType="1" res="5.9835199499502778e-04" rms="4.5314249396324158e-01" purity="5.3113198280334473e-01" nType="-99"/>
          <Node pos="r" depth="2" NCoef="0" IVar="-1" Cut="0.0000000000000000e+00" cType="1" res="1.4011579565703869e-02" rms="2.7347552776336670e-01" purity="8.9454215764999390e-01" nType="-99"/>
        </Node>
      </Node>
    </BinaryTree>
    <BinaryTree type="DecisionTree" boostWeight="1.0000000000000000e+00" itree="33">
      <Node pos="s" depth="0" NCoef="0" IVar="4" Cut="3.1255855560302734e+00" cType="1" res="-8.4841856732964516e-03" rms="3.8937360048294067e-01" purity="4.9897706508636475e-01" nType="0">
        <Node pos="l" depth="1" NCoef="0" IVar="6" Cut="2.1087787628173828e+01" cType="1" res="-1.2747535109519958e-01" rms="3.9230522513389587e-01" purity="2.5262057781219482e-01" nType="0">
          <Node pos="l" depth="2" NCoef="0" IVar="-1" Cut="0.0000000000000000e+00" cType="1" res="-1.4589283615350723e-02" rms="2.6741164922714233e-01" purity="7.8808836638927460e-02" nType="-99"/>
          <Node pos="r" depth="2" NCoef="0" IVar="-1" Cut="0.0000000000000000e+00" cType="1" res="-2.5406202767044306e-03" rms="4.6193811297416687e-01" purity="4.0260258316993713e-01" nType="-99"/>
        </Node>
        <Node pos="r" depth="1" NCoef="0" IVar="9" Cut="2.7591321945190430e+01" cType="1" res="1.5754412114620209e-01" rms="3.1795135140419006e-01" purity="8.4271818399429321e-01" nType="0">
          <Node pos="l" depth="2" NCoef="0" IVar="-1" Cut="0.0000000000000000e+00" cType="1" res="-1.2197747128084302e-03" rms="4.5536598563194275e-01" purity="5.3354191780090332e-01" nType="-99"/>
          <Node pos="r" depth="2" NCoef="0" IVar="-1" Cut="0.0000000000000000e+00" cType="1" res="1.3335351832211018e-02" rms="2.7974304556846619e-01" purity="8.9150530099868774e-01" nType="-99"/>
        </Node>
      </Node>
    </BinaryTree>
    <BinaryTree type="DecisionTree" boostWeight="1.0000000000000000e+00" itree="34">
      <Node pos="s" depth="0" NCoef="0" IVar="4" Cut="3.3734304904937744e+00" cType="1" res="-5.7200868614017963e-03" rms="3.8486790657043457e-01" purity="5.0332230329513550e-01" nType="0">
        <Node pos="l" depth="1" NCoef="0" IVar="1" Cut="7.6624763488769531e+01" cType="1" res="-1.1163257807493210e-01" rms="3.9569017291069031e-01" purity="2.8085130453109741e-01" nType="0">
          <Node pos="l" depth="2" NCoef="0" IVar="-1" Cut="0.0000000000000000e+00" cType="1" res="-8.4236683323979378e-03" rms="3.6430865526199341e-01" purity="1.8268224596977234e-01" nType="-99"/>
          <Node pos="r" depth="2" NCoef="0" IVar="-1" Cut="0.0000000000000000e+00" cType="1" res="3.7493219133466482e-03" rms="4.4775035977363586e-01" purity="6.1785191297531128e-01" nType="-99"/>
        </Node>
        <Node pos="r" depth="1" NCoef="0" IVar="9" Cut="3.2028434753417969e+01" cType="1" res="1.7206141352653503e-01" rms="2.8897780179977417e-01" purity="8.7675547599792480e-01" nType="0">
          <Node pos="l" depth="2" NCoef="0" IVar="-1" Cut="0.0000000000000000e+00" cType="1" res="2.0514649804681540e-03" rms="4.5662134885787964e-01" purity="6.2983828783035278e-01" nType="-99"/>
          <Node pos="r" depth="2" NCoef="0" IVar="-1" Cut="0.0000000000000000e+00" cType="1" res="1.4484349638223648e-02" rms="2.3588699102401733e-01" purity="9.2377173900604248e-01" nType="-99"/>
        </Node>
      </Node>
    </BinaryTree>
    <BinaryTree type="DecisionTree" boostWeight="1.0000000000000000e+00" itree="35">
      <Node pos="s" depth="0" NCoef="0" IVar="6" Cut="2.3880401611328125e+01" cType="1" res="-5.9297354891896248e-03" rms="3.8181057572364807e-01" purity="5.0482189655303955e-01" nType="0">
        <Node pos="l" depth="1" NCoef="0" IVar="6" Cut="1.7054851531982422e+01" cType="1" res="-1.7263026535511017e-01" rms="3.2401204109191895e-01" purity="1.2886504828929901e-01" nType="0">
          <Node pos="l" depth="2" NCoef="0" IVar="-1" Cut="0.0000000000000000e+00" cType="1" res="-1.4066502451896667e-02" rms="2.6448360085487366e-01" purity="8.0022528767585754e-02" nType="-99"/>
          <Node pos="r" depth="2" NCoef="0" IVar="-1" Cut="0.0000000000000000e+00" cType="1" res="-6.2621408142149448e-03" rms="3.9590081572532654e-01" purity="2.0866516232490540e-01" nType="-99"/>
        </Node>
        <Node pos="r" depth="1" NCoef="0" IVar="9" Cut="3.4233024597167969e+01" cType="1" res="9.8588541150093079e-02" rms="3.7816670536994934e-01" purity="7.4054008722305298e-01" nType="0">
          <Node pos="l" depth="2" NCoef="0" IVar="-1" Cut="0.0000000000000000e+00" cType="1" res="-2.6404806412756443e-03" rms="4.6799710392951965e-01" purity="4.7386118769645691e-01" nType="-99"/>
          <Node pos="r" depth="2" NCoef="0" IVar="-1" Cut="0.0000000000000000e+00" cType="1" res="1.1432253755629063e-02" rms="3.0784395337104797e-01" purity="8.5877442359924316e-01" nType="-99"/>
        </Node>
      </Node>
    </BinaryTree>
    <BinaryTree type="DecisionTree" boostWeight="1.0000000000000000e+00" itree="36">
      <Node pos="s" depth="0" NCoef="0" IVar="1" Cut="7.8629127502441406e+01" cType="1" res="-1.1286410503089428e-02" rms="3.8657698035240173e-01" purity="4.9403843283653259e-01" nType="0">
        <Node pos="l" depth="1" NCoef="0" IVar="1" Cut="7.4877693176269531e+01" cType="1" res="-1.2659561634063721e-01" rms="3.8356915116310120e-01" purity="2.3862448334693909e-01" nType="0">
          <Node pos="l" depth="2" NCoef="0" IVar="-1" Cut="0.0000000000000000e+00" cType="1" res="-8.1026731058955193e-03" rms="3.6766147613525391e-01" purity="1.9681526720523834e-01" nType="-99"/>
          <Node pos="r" depth="2" NCoef="0" IVar="-1" Cut="0.0000000000000000e+00" cType="1" res="5.7418299838900566e-03" rms="4.4677835702896118e-01" purity="6.1222499608993530e-01" nType="-99"/>
        </Node>
        <Node pos="r" depth="1" NCoef="0" IVar="6" Cut="2.6316600799560547e+01" cType="1" res="1.3292793929576874e-01" rms="3.3898654580116272e-01" purity="8.1347823143005371e-01" nType="0">
          <Node pos="l" depth="2" NCoef="0" IVar="-1" Cut="0.0000000000000000e+00" cType="1" res="-6.3239592127501965e-03" rms="4.4027304649353027e-01" purity="2.9673758149147034e-01" nType="-99"/>
          <Node pos="r" depth="2" NCoef="0" IVar="-1" Cut="0.0000000000000000e+00" cType="1" res="1.0888884775340557e-02" rms="3.1913051009178162e-01" purity="8.6437016725540161e-01" nType="-99"/>
        </Node>
      </Node>
    </BinaryTree>
    <BinaryTree type="DecisionTree" boostWeight="1.0000000000000000e+00" itree="37">
      <Node pos="s" depth="0" NCoef="0" IVar="4" Cut="2.4596612453460693e+00" cType="1" res="1.0264272568747401e-03" rms="3.7997135519981384e-01" purity="5.0537157058715820e-01" nType="0">
        <Node pos="l" depth="1" NCoef="0" IVar="9" Cut="4.8472335815429688e+01" cType="1" res="-1.5020719170570374e-01" rms="3.5628339648246765e-01" purity="1.7257048189640045e-01" nType="0">
          <Node pos="l" depth="2" NCoef="0" IVar="-1" Cut="0.0000000000000000e+00" cType="1" res="-9.4965808093547821e-03" rms="3.3384880423545837e-01" purity="1.4326460659503937e-01" nType="-99"/>
          <Node pos="r" depth="2" NCoef="0" IVar="-1" Cut="0.0000000000000000e+00" cType="1" res="1.5669105341657996e-03" rms="4.4915875792503357e-01" purity="3.7703382968902588e-01" nType="-99"/>
        </Node>
        <Node pos="r" depth="1" NCoef="0" IVar="9" Cut="3.1404010772705078e+01" cType="1" res="1.0345258563756943e-01" rms="3.6084443330764771e-01" purity="7.3076814413070679e-01" nType="0">
          <Node pos="l" depth="2" NCoef="0" IVar="-1" Cut="0.0000000000000000e+00" cType="1" res="-2.3325104266405106e-03" rms="4.5163148641586304e-01" purity="4.4914650917053223e-01" nType="-99"/>
          <Node pos="r" depth="2" NCoef="0" IVar="-1" Cut="0.0000000000000000e+00" cType="1" res="1.1620488017797470e-02" rms="3.0827480554580688e-01" purity="8.2754874229431152e-01" nType="-99"/>
        </Node>
      </Node>
    </BinaryTree>
    <BinaryTree type="DecisionTree" boostWeight="1.0000000000000000e+00" itree="38">
      <Node pos="s" depth="0" NCoef="0" IVar="4" Cut="3.0706191062927246e+00" cType="1" res="-8.3352271467447281e-03" rms="3.7932682037353516e-01" purity="5.0330668687820435e-01" nType="0">
        <Node pos="l" depth="1" NCoef="0" IVar="1" Cut="6.2425167083740234e+01" cType="1" res="-1.1340275406837463e-01" rms="3.9105468988418579e-01" purity="2.5479352474212646e-01" nType="0">
          <Node pos="l" depth="2" NCoef="0" IVar="-1" Cut="0.0000000000000000e+00" cType="1" res="-1.1146895587444305e-02" rms="3.0051398277282715e-01" purity="1.0431943833827972e-01" nType="-99"/>
          <Node pos="r" depth="2" NCoef="0" IVar="-1" Cut="0.0000000000000000e+00" cType="1" res="-2.1293719764798880e-03" rms="4.5251747965812683e-01" purity="4.0494963526725769e-01" nType="-99"/>
        </Node>
        <Node pos="r" depth="1" NCoef="0" IVar="9" Cut="3.1876453399658203e+01" cType="1" res="1.3196983933448792e-01" rms="3.1208452582359314e-01" purity="8.3516621589660645e-01" nType="0">
          <Node pos="l" depth="2" NCoef="0" IVar="-1" Cut="0.0000000000000000e+00" cType="1" res="-2.4393675848841667e-03" rms="4.5302057266235352e-01" purity="4.9933531880378723e-01" nType="-99"/>
          <Node pos="r" depth="2" NCoef="0" IVar="-1" Cut="0.0000000000000000e+00" cType="1" res="1.3878931291401386e-02" rms="2.4844473600387573e-01" purity="9.1452652215957642e-01" nType="-99"/>
        </Node>
      </Node>
    </BinaryTree>
    <BinaryTree type="DecisionTree" boostWeight="1.0000000000000000e+00" itree="39">
      <Node pos="s" depth="0" NCoef="0" IVar="6" Cut="3.5820602416992188e+01" cType="1" res="-5.3294841200113297e-03" rms="3.8114652037620544e-01" purity="5.0304031372070312e-01" nType="0">
        <Node pos="l" depth="1" NCoef="0" IVar="1" Cut="6.7501976013183594e+01" cType="1" res="-9.4018056988716125e-02" rms="3.9880275726318359e-01" purity="2.7892541885375977e-01" nType="0">
          <Node pos="l" depth="2" NCoef="0" IVar="-1" Cut="0.0000000000000000e+00" cType="1" res="-8.8723860681056976e-03" rms="3.3927425742149353e-01" purity="1.4263673126697540e-01" nType="-99"/>
          <Node pos="r" depth="2" NCoef="0" IVar="-1" Cut="0.0000000000000000e+00" cType="1" res="9.7278511384502053e-04" rms="4.5824733376502991e-01" purity="4.9772220849990845e-01" nType="-99"/>
        </Node>
        <Node pos="r" depth="1" NCoef="0" IVar="9" Cut="3.4318798065185547e+01" cType="1" res="1.4858561754226685e-01" rms="2.8988513350486755e-01" purity="8.9198172092437744e-01" nType="0">
          <Node pos="l" depth="2" NCoef="0" IVar="-1" Cut="0.0000000000000000e+00" cType="1" res="1.2672068551182747e-03" rms="4.6098768711090088e-01" purity="6.6585946083068848e-01" nType="-99"/>
          <Node pos="r" depth="2" NCoef="0" IVar="-1" Cut="0.0000000000000000e+00" cType="1" res="1.4128873124718666e-02" rms="2.1877039968967438e-01" purity="9.4706541299819946e-01" nType="-99"/>
        </Node>
      </Node>
    </BinaryTree>
    <BinaryTree type="DecisionTree" boostWeight="1.0000000000000000e+00" itree="40">
      <Node pos="s" depth="0" NCoef="0" IVar="6" Cut="3.3238079071044922e+01" cType="1" res="-1.2844259850680828e-02" rms="3.7601265311241150e-01" purity="4.9688327312469482e-01" nType="0">
        <Node pos="l" depth="1" NCoef="0" IVar="1" Cut="5.8975555419921875e+01" cType="1" res="-1.1767791956663132e-01" rms="3.8154810667037964e-01" purity="2.3054459691047668e-01" nType="0">
          <Node pos="l" depth="2" NCoef="0" IVar="-1" Cut="0.0000000000000000e+00" cType="1" res="-1.0850528255105019e-02" rms="2.5674989819526672e-01" purity="7.1642577648162842e-02" nType="-99"/>
          <Node pos="r" depth="2" NCoef="0" IVar="-1" Cut="0.0000000000000000e+00" cType="1" res="-3.2412081491202116e-03" rms="4.3962177634239197e-01" purity="3.4412863850593567e-01" nType="-99"/>
        </Node>
        <Node pos="r" depth="1" NCoef="0" IVar="9" Cut="3.5066608428955078e+01" cType="1" res="1.3255693018436432e-01" rms="3.1493633985519409e-01" purity="8.6628711223602295e-01" nType="0">
          <Node pos="l" depth="2" NCoef="0" IVar="-1" Cut="0.0000000000000000e+00" cType="1" res="7.3399604298174381e-04" rms="4.7245478630065918e-01" purity="6.4148074388504028e-01" nType="-99"/>
          <Node pos="r" depth="2" NCoef="0" IVar="-1" Cut="0.0000000000000000e+00" cType="1" res="1.2957512401044369e-02" rms="2.4420031905174255e-01" purity="9.2882269620895386e-01" nType="-99"/>
        </Node>
      </Node>
    </BinaryTree>
    <BinaryTree type="DecisionTree" boostWeight="1.0000000000000000e+00" itree="41">
      <Node pos="s" depth="0" NCoef="0" IVar="4" Cut="3.5304093360900879e+00" cType="1" res="-7.0210820995271206e-03" rms="3.7370535731315613e-01" purity="5.0173157453536987e-01" nType="0">
        <Node pos="l" depth="1" NCoef="0" IVar="6" Cut="2.5887107849121094e+01" cType="1" res="-9.1640748083591461e-02" rms="3.9082828164100647e-01" purity="2.9954627156257629e-01" nType="0">
          <Node pos="l" depth="2" NCoef="0" IVar="-1" Cut="0.0000000000000000e+00" cType="1" res="-8.8820466771721840e-03" rms="3.2994589209556580e-01" purity="1.3276803493499756e-01" nType="-99"/>
          <Node pos="r" depth="2" NCoef="0" IVar="-1" Cut="0.0000000000000000e+00" cType="1" res="4.3895433191210032e-04" rms="4.5485684275627136e-01" purity="5.6691616773605347e-01" nType="-99"/>
        </Node>
        <Node pos="r" depth="1" NCoef="0" IVar="9" Cut="3.2028434753417969e+01" cType="1" res="1.5606674551963806e-01" rms="2.7207931876182556e-01" purity="8.9140415191650391e-01" nType="0">
          <Node pos="l" depth="2" NCoef="0" IVar="-1" Cut="0.0000000000000000e+00" cType="1" res="9.8250224255025387e-04" rms="4.5604795217514038e-01" purity="6.2744033336639404e-01" nType="-99"/>
          <Node pos="r" depth="2" NCoef="0" IVar="-1" Cut="0.0000000000000000e+00" cType="1" res="1.4767209999263287e-02" rms="2.1030056476593018e-01" purity="9.4174247980117798e-01" nType="-99"/>
        </Node>
      </Node>
    </BinaryTree>
    <BinaryTree type="DecisionTree" boostWeight="1.0000000000000000e+00" itree="42">
      <Node pos="s" depth="0" NCoef="0" IVar="4" Cut="3.2039616107940674e+00" cType="1" res="-9.9000828340649605e-03" rms="3.7942916154861450e-01" purity="4.9589475989341736e-01" nType="0">
        <Node pos="l" depth="1" NCoef="0" IVar="6" Cut="2.4337276458740234e+01" cType="1" res="-9.5488987863063812e-02" rms="3.9133703708648682e-01" purity="2.6501241326332092e-01" nType="0">
          <Node pos="l" depth="2" NCoef="0" IVar="-1" Cut="0.0000000000000000e+00" cType="1" res="-1.0071097873151302e-02" rms="3.1848728656768799e-01" purity="1.1925083398818970e-01" nType="-99"/>
          <Node pos="r" depth="2" NCoef="0" IVar="-1" Cut="0.0000000000000000e+00" cType="1" res="-3.6757448106072843e-04" rms="4.7147712111473083e-01" purity="4.9587607383728027e-01" nType="-99"/>
        </Node>
        <Node pos="r" depth="1" NCoef="0" IVar="9" Cut="2.5903747558593750e+01" cType="1" res="1.1835061013698578e-01" rms="3.2060620188713074e-01" purity="8.4186023473739624e-01" nType="0">
          <Node pos="l" depth="2" NCoef="0" IVar="-1" Cut="0.0000000000000000e+00" cType="1" res="-3.3124776091426611e-03" rms="4.6801704168319702e-01" purity="4.9526733160018921e-01" nType="-99"/>
          <Node pos="r" depth="2" NCoef="0" IVar="-1" Cut="0.0000000000000000e+00" cType="1" res="1.1209447868168354e-02" rms="2.8651267290115356e-01" purity="8.8825845718383789e-01" nType="-99"/>
        </Node>
      </Node>
    </BinaryTree>
    <BinaryTree type="DecisionTree" boostWeight="1.0000000000000000e+00" itree="43">
      <Node pos="s" depth="0" NCoef="0" IVar="6" Cut="3.5820602416992188e+01" cType="1" res="-1.1001646518707275e-02" rms="3.7422084808349609e-01" purity="4.9641501903533936e-01" nType="0">
        <Node pos="l" depth="1" NCoef="0" IVar="1" Cut="6.6589706420898438e+01" cType="1" res="-9.3035951256752014e-02" rms="3.9204797148704529e-01" purity="2.7085512876510620e-01" nType="0">
          <Node pos="l" depth="2" NCoef="0" IVar="-1" Cut="0.0000000000000000e+00" cType="1" res="-9.0583991259336472e-03" rms="3.2417747378349304e-01" purity="1.3134691119194031e-01" nType="-99"/>
          <Node pos="r" depth="2" NCoef="0" IVar="-1" Cut="0.0000000000000000e+00" cType="1" res="-4.9922330072149634e-04" rms="4.5463621616363525e-01" purity="4.5872053503990173e-01" nType="-99"/>
        </Node>
        <Node pos="r" depth="1" NCoef="0" IVar="9" Cut="2.5812927246093750e+01" cType="1" res="1.3280555605888367e-01" rms="2.8916567564010620e-01" purity="8.9182448387145996e-01" nType="0">
          <Node pos="l" depth="2" NCoef="0" IVar="-1" Cut="0.0000000000000000e+00" cType="1" res="-1.9528168486431241e-03" rms="4.8820203542709351e-01" purity="5.8882164955139160e-01" nType="-99"/>
          <Node pos="r" depth="2" NCoef="0" IVar="-1" Cut="0.0000000000000000e+00" cType="1" res="1.2081145308911800e-02" rms="2.5539591908454895e-01" purity="9.2162364721298218e-01" nType="-99"/>
        </Node>
      </Node>
    </BinaryTree>
    <BinaryTree type="DecisionTree" boostWeight="1.0000000000000000e+00" itree="44">
      <Node pos="s" depth="0" NCoef="0" IVar="4" Cut="2.7519695758819580e+00" cType="1" res="-6.1987107619643211e-03" rms="3.7080669403076172e-01" purity="5.1023274660110474e-01" nType="0">
        <Node pos="l" depth="1" NCoef="0" IVar="6" Cut="1.5062705039978027e+01" cType="1" res="-1.2473674863576889e-01" rms="3.6900794506072998e-01" purity="2.0231801271438599e-01" nType="0">
          <Node pos="l" depth="2" NCoef="0" IVar="-1" Cut="0.0000000000000000e+00" cType="1" res="-1.7375752329826355e-02" rms="2.1285973489284515e-01" purity="4.7665175050497055e-02" nType="-99"/>
          <Node pos="r" depth="2" NCoef="0" IVar="-1" Cut="0.0000000000000000e+00" cType="1" res="-4.8166881315410137e-03" rms="4.2583245038986206e-01" purity="2.8615462779998779e-01" nType="-99"/>
        </Node>
        <Node pos="r" depth="1" NCoef="0" IVar="9" Cut="2.7972944259643555e+01" cType="1" res="9.8973952233791351e-02" rms="3.3933764696121216e-01" purity="7.8342956304550171e-01" nType="0">
          <Node pos="l" depth="2" NCoef="0" IVar="-1" Cut="0.0000000000000000e+00" cType="1" res="-3.2624923624098301e-03" rms="4.4929426908493042e-01" purity="4.4355425238609314e-01" nType="-99"/>
          <Node pos="r" depth="2" NCoef="0" IVar="-1" Cut="0.0000000000000000e+00" cType="1" res="1.0270867496728897e-02" rms="2.9827299714088440e-01" purity="8.5857748985290527e-01" nType="-99"/>
        </Node>
      </Node>
    </BinaryTree>
    <BinaryTree type="DecisionTree" boostWeight="1.0000000000000000e+00" itree="45">
      <Node pos="s" depth="0" NCoef="0" IVar="4" Cut="2.6346387863159180e+00" cType="1" res="-3.5434542223811150e-03" rms="3.6996477842330933e-01" purity="5.1084113121032715e-01" nType="0">
        <Node pos="l" depth="1" NCoef="0" IVar="9" Cut="4.4661689758300781e+01" cType="1" res="-1.2422779947519302e-01" rms="3.6300286650657654e-01" purity="1.8485991656780243e-01" nType="0">
          <Node pos="l" depth="2" NCoef="0" IVar="-1" Cut="0.0000000000000000e+00" cType="1" res="-8.8663063943386078e-03" rms="3.4266021847724915e-01" purity="1.5031988918781281e-01" nType="-99"/>
          <Node pos="r" depth="2" NCoef="0" IVar="-1" Cut="0.0000000000000000e+00" cType="1" res="-9.3879888299852610e-04" rms="4.2419335246086121e-01" purity="3.3671990036964417e-01" nType="-99"/>
        </Node>
        <Node pos="r" depth="1" NCoef="0" IVar="9" Cut="3.1404010772705078e+01" cType="1" res="8.8763512670993805e-02" rms="3.4801772236824036e-01" purity="7.6017206907272339e-01" nType="0">
          <Node pos="l" depth="2" NCoef="0" IVar="-1" Cut="0.0000000000000000e+00" cType="1" res="-3.4636391792446375e-03" rms="4.4708153605461121e-01" purity="4.2952829599380493e-01" nType="-99"/>
          <Node pos="r" depth="2" NCoef="0" IVar="-1" Cut="0.0000000000000000e+00" cType="1" res="1.0861327871680260e-02" rms="2.9583775997161865e-01" purity="8.5942006111145020e-01" nType="-99"/>
        </Node>
      </Node>
    </BinaryTree>
    <BinaryTree type="DecisionTree" boostWeight="1.0000000000000000e+00" itree="46">
      <Node pos="s" depth="0" NCoef="0" IVar="6" Cut="3.3937210083007812e+01" cType="1" res="-1.0303477756679058e-02" rms="3.6827868223190308e-01" purity="5.0101101398468018e-01" nType="0">
        <Node pos="l" depth="1" NCoef="0" IVar="1" Cut="6.7504196166992188e+01" cType="1" res="-1.0349275916814804e-01" rms="3.8519158959388733e-01" purity="2.4123971164226532e-01" nType="0">
          <Node pos="l" depth="2" NCoef="0" IVar="-1" Cut="0.0000000000000000e+00" cType="1" res="-8.4063019603490829e-03" rms="3.2947224378585815e-01" purity="1.3609911501407623e-01" nType="-99"/>
          <Node pos="r" depth="2" NCoef="0" IVar="-1" Cut="0.0000000000000000e+00" cType="1" res="-1.3362449826672673e-03" rms="4.5551002025604248e-01" purity="4.2368754744529724e-01" nType="-99"/>
        </Node>
        <Node pos="r" depth="1" NCoef="0" IVar="4" Cut="3.5820565223693848e+00" cType="1" res="1.2845788896083832e-01" rms="2.9063412547111511e-01" purity="8.8781756162643433e-01" nType="0">
          <Node pos="l" depth="2" NCoef="0" IVar="-1" Cut="0.0000000000000000e+00" cType="1" res="3.7803614977747202e-03" rms="4.1746789216995239e-01" purity="7.4006783962249756e-01" nType="-99"/>
          <Node pos="r" depth="2" NCoef="0" IVar="-1" Cut="0.0000000000000000e+00" cType="1" res="1.3628656044602394e-02" rms="2.0900467038154602e-01" purity="9.5009315013885498e-01" nType="-99"/>
        </Node>
      </Node>
    </BinaryTree>
    <BinaryTree type="DecisionTree" boostWeight="1.0000000000000000e+00" itree="47">
      <Node pos="s" depth="0" NCoef="0" IVar="1" Cut="6.2142391204833984e+01" cType="1" res="-1.3818046078085899e-02" rms="3.7345445156097412e-01" purity="4.9301856756210327e-01" nType="0">
        <Node pos="l" depth="1" NCoef="0" IVar="2" Cut="1.9656250000000000e+01" cType="1" res="-1.6181416809558868e-01" rms="2.9905566573143005e-01" purity="9.9890537559986115e-02" nType="0">
          <Node pos="l" depth="2" NCoef="0" IVar="-1" Cut="0.0000000000000000e+00" cType="1" res="-7.3789497837424278e-03" rms="3.5832181572914124e-01" purity="1.5511812269687653e-01" nType="-99"/>
          <Node pos="r" depth="2" NCoef="0" IVar="-1" Cut="0.0000000000000000e+00" cType="1" res="-9.6825249493122101e-03" rms="2.4685031175613403e-01" purity="6.4036667346954346e-02" nType="-99"/>
        </Node>
        <Node pos="r" depth="1" NCoef="0" IVar="9" Cut="3.4376262664794922e+01" cType="1" res="4.8765942454338074e-02" rms="3.8398885726928711e-01" purity="6.5926289558410645e-01" nType="0">
          <Node pos="l" depth="2" NCoef="0" IVar="-1" Cut="0.0000000000000000e+00" cType="1" res="-3.4816546831279993e-03" rms="4.4510772824287415e-01" purity="3.9691305160522461e-01" nType="-99"/>
          <Node pos="r" depth="2" NCoef="0" IVar="-1" Cut="0.0000000000000000e+00" cType="1" res="8.5839768871665001e-03" rms="3.3004954457283020e-01" purity="8.0380696058273315e-01" nType="-99"/>
        </Node>
      </Node>
    </BinaryTree>
    <BinaryTree type="DecisionTree" boostWeight="1.0000000000000000e+00" itree="48">
      <Node pos="s" depth="0" NCoef="0" IVar="6" Cut="2.3714422225952148e+01" cType="1" res="-1.1407826095819473e-02" rms="3.6771160364151001e-01" purity="5.0054675340652466e-01" nType="0">
        <Node pos="l" depth="1" NCoef="0" IVar="6" Cut="1.8063507080078125e+01" cType="1" res="-1.4510382711887360e-01" rms="3.1389799714088440e-01" purity="1.2142957001924515e-01" nType="0">
          <Node pos="l" depth="2" NCoef="0" IVar="-1" Cut="0.0000000000000000e+00" cType="1" res="-1.3373793102800846e-02" rms="2.6276752352714539e-01" purity="7.9767793416976929e-02" nType="-99"/>
          <Node pos="r" depth="2" NCoef="0" IVar="-1" Cut="0.0000000000000000e+00" cType="1" res="-5.0453501753509045e-03" rms="3.8495564460754395e-01" purity="1.9733868539333344e-01" nType="-99"/>
        </Node>
        <Node pos="r" depth="1" NCoef="0" IVar="9" Cut="4.2848773956298828e+01" cType="1" res="7.0380039513111115e-02" rms="3.7420126795768738e-01" purity="7.3246985673904419e-01" nType="0">
          <Node pos="l" depth="2" NCoef="0" IVar="-1" Cut="0.0000000000000000e+00" cType="1" res="-7.8825303353369236e-04" rms="4.5133486390113831e-01" purity="5.4510909318923950e-01" nType="-99"/>
          <Node pos="r" depth="2" NCoef="0" IVar="-1" Cut="0.0000000000000000e+00" cType="1" res="1.2591218575835228e-02" rms="2.6998841762542725e-01" purity="8.9550191164016724e-01" nType="-99"/>
        </Node>
      </Node>
    </BinaryTree>
    <BinaryTree type="DecisionTree" boostWeight="1.0000000000000000e+00" itree="49">
      <Node pos="s" depth="0" NCoef="0" IVar="4" Cut="3.0392765998840332e+00" cType="1" res="-4.6263299882411957e-03" rms="3.6845895648002625e-01" purity="5.0770175457000732e-01" nType="0">
        <Node pos="l" depth="1" NCoef="0" IVar="0" Cut="4.3566448211669922e+01" cType="1" res="-9.1139979660511017e-02" rms="3.8599759340286255e-01" purity="2.4848227202892303e-01" nType="0">
          <Node pos="l" depth="2" NCoef="0" IVar="-1" Cut="0.0000000000000000e+00" cType="1" res="-8.8811991736292839e-03" rms="3.4372392296791077e-01" purity="1.5824879705905914e-01" nType="-99"/>
          <Node pos="r" depth="2" NCoef="0" IVar="-1" Cut="0.0000000000000000e+00" cType="1" res="-5.5554916616529226e-04" rms="4.4159114360809326e-01" purity="4.1302499175071716e-01" nType="-99"/>
        </Node>
        <Node pos="r" depth="1" NCoef="0" IVar="6" Cut="2.3880554199218750e+01" cType="1" res="1.0356444865465164e-01" rms="3.1328761577606201e-01" purity="8.3187204599380493e-01" nType="0">
          <Node pos="l" depth="2" NCoef="0" IVar="-1" Cut="0.0000000000000000e+00" cType="1" res="-3.4863243345171213e-03" rms="4.5176073908805847e-01" purity="3.2141098380088806e-01" nType="-99"/>
          <Node pos="r" depth="2" NCoef="0" IVar="-1" Cut="0.0000000000000000e+00" cType="1" res="1.0247210040688515e-02" rms="2.8671884536743164e-01" purity="8.9151865243911743e-01" nType="-99"/>
        </Node>
      </Node>
    </BinaryTree>
    <BinaryTree type="DecisionTree" boostWeight="1.0000000000000000e+00" itree="50">
      <Node pos="s" depth="0" NCoef="0" IVar="6" Cut="2.3880401611328125e+01" cType="1" res="-1.1138846166431904e-02" rms="3.6711052060127258e-01" purity="4.9613374471664429e-01" nType="0">
        <Node pos="l" depth="1" NCoef="0" IVar="6" Cut="1.7054521560668945e+01" cType="1" res="-1.2953025102615356e-01" rms="3.2361334562301636e-01" purity="1.2979021668434143e-01" nType="0">
          <Node pos="l" depth="2" NCoef="0" IVar="-1" Cut="0.0000000000000000e+00" cType="1" res="-1.4017319306731224e-02" rms="2.5120255351066589e-01" purity="7.1489468216896057e-02" nType="-99"/>
          <Node pos="r" depth="2" NCoef="0" IVar="-1" Cut="0.0000000000000000e+00" cType="1" res="-3.9028322789818048e-03" rms="4.0381848812103271e-01" purity="2.2073382139205933e-01" nType="-99"/>
        </Node>
        <Node pos="r" depth="1" NCoef="0" IVar="9" Cut="3.3635822296142578e+01" cType="1" res="6.2854766845703125e-02" rms="3.7324583530426025e-01" purity="7.2509527206420898e-01" nType="0">
          <Node pos="l" depth="2" NCoef="0" IVar="-1" Cut="0.0000000000000000e+00" cType="1" res="-2.6989229954779148e-03" rms="4.6589311957359314e-01" purity="4.4846710562705994e-01" nType="-99"/>
          <Node pos="r" depth="2" NCoef="0" IVar="-1" Cut="0.0000000000000000e+00" cType="1" res="8.7873432785272598e-03" rms="3.1116330623626709e-01" purity="8.4576421976089478e-01" nType="-99"/>
        </Node>
      </Node>
    </BinaryTree>
    <BinaryTree type="DecisionTree" boostWeight="1.0000000000000000e+00" itree="51">
      <Node pos="s" depth="0" NCoef="0" IVar="4" Cut="3.2506766319274902e+00" cType="1" res="-2.4782589171081781e-03" rms="3.6748963594436646e-01" purity="5.1292407512664795e-01" nType="0">
        <Node pos="l" depth="1" NCoef="0" IVar="7" Cut="1.0000466156005859e+02" cType="1" res="-8.4424138069152832e-02" rms="3.9026352763175964e-01" purity="2.6721990108489990e-01" nType="0">
          <Node pos="l" depth="2" NCoef="0" IVar="-1" Cut="0.0000000000000000e+00" cType="1" res="-4.6237609349191189e-03" rms="3.9257171750068665e-01" purity="2.7705019712448120e-01" nType="-99"/>
          <Node pos="r" depth="2" NCoef="0" IVar="-1" Cut="0.0000000000000000e+00" cType="1" res="-2.6464397087693214e-02" rms="2.3616494238376617e-01" purity="6.7799158394336700e-02" nType="-99"/>
        </Node>
        <Node pos="r" depth="1" NCoef="0" IVar="9" Cut="2.1158624649047852e+01" cType="1" res="1.1394167691469193e-01" rms="2.9569923877716064e-01" purity="8.6199426651000977e-01" nType="0">
          <Node pos="l" depth="2" NCoef="0" IVar="-1" Cut="0.0000000000000000e+00" cType="1" res="-2.3371488787233829e-03" rms="4.6893146634101868e-01" purity="4.9606525897979736e-01" nType="-99"/>
          <Node pos="r" depth="2" NCoef="0" IVar="-1" Cut="0.0000000000000000e+00" cType="1" res="1.0301738046109676e-02" rms="2.7362975478172302e-01" purity="8.8998937606811523e-01" nType="-99"/>
        </Node>
      </Node>
    </BinaryTree>
    <BinaryTree type="DecisionTree" boostWeight="1.0000000000000000e+00" itree="52">
      <Node pos="s" depth="0" NCoef="0" IVar="1" Cut="6.4518524169921875e+01" cType="1" res="-5.1144626922905445e-03" rms="3.6282077431678772e-01" purity="5.0316560268402100e-01" nType="0">
        <Node pos="l" depth="1" NCoef="0" IVar="10" Cut="1.8327848613262177e-01" cType="1" res="-1.3850478827953339e-01" rms="3.0742862820625305e-01" purity="1.1652648448944092e-01" nType="0">
          <Node pos="l" depth="2" NCoef="0" IVar="-1" Cut="0.0000000000000000e+00" cType="1" res="-4.1867382824420929e-03" rms="3.8685125112533569e-01" purity="2.0014303922653198e-01" nType="-99"/>
          <Node pos="r" depth="2" NCoef="0" IVar="-1" Cut="0.0000000000000000e+00" cType="1" res="-1.0356832295656204e-02" rms="2.6922324299812317e-01" purity="8.7103165686130524e-02" nType="-99"/>
        </Node>
        <Node pos="r" depth="1" NCoef="0" IVar="9" Cut="3.3633872985839844e+01" cType="1" res="6.1306692659854889e-02" rms="3.6993810534477234e-01" purity="6.9569087028503418e-01" nType="0">
          <Node pos="l" depth="2" NCoef="0" IVar="-1" Cut="0.0000000000000000e+00" cType="1" res="-2.6110922917723656e-03" rms="4.4619107246398926e-01" purity="4.2042586207389832e-01" nType="-99"/>
          <Node pos="r" depth="2" NCoef="0" IVar="-1" Cut="0.0000000000000000e+00" cType="1" res="9.5869451761245728e-03" rms="3.1162986159324646e-01" purity="8.3042001724243164e-01" nType="-99"/>
        </Node>
      </Node>
    </BinaryTree>
    <BinaryTree type="DecisionTree" boostWeight="1.0000000000000000e+00" itree="53">
      <Node pos="s" depth="0" NCoef="0" IVar="6" Cut="3.3938434600830078e+01" cType="1" res="-6.5914499573409557e-03" rms="3.6586961150169373e-01" purity="5.0392001867294312e-01" nType="0">
        <Node pos="l" depth="1" NCoef="0" IVar="2" Cut="2.2607143402099609e+01" cType="1" res="-7.9562194645404816e-02" rms="3.8644367456436157e-01" purity="2.5141575932502747e-01" nType="0">
          <Node pos="l" depth="2" NCoef="0" IVar="-1" Cut="0.0000000000000000e+00" cType="1" res="-2.0989594049751759e-03" rms="4.0771880745887756e-01" purity="3.1241196393966675e-01" nType="-99"/>
          <Node pos="r" depth="2" NCoef="0" IVar="-1" Cut="0.0000000000000000e+00" cType="1" res="-8.9217117056250572e-03" rms="3.3629626035690308e-01" purity="1.5442824363708496e-01" nType="-99"/>
        </Node>
        <Node pos="r" depth="1" NCoef="0" IVar="9" Cut="5.1679759979248047e+01" cType="1" res="1.0161536186933517e-01" rms="3.0216500163078308e-01" purity="8.7835335731506348e-01" nType="0">
          <Node pos="l" depth="2" NCoef="0" IVar="-1" Cut="0.0000000000000000e+00" cType="1" res="4.2955870740115643e-03" rms="3.7779581546783447e-01" purity="7.9801243543624878e-01" nType="-99"/>
          <Node pos="r" depth="2" NCoef="0" IVar="-1" Cut="0.0000000000000000e+00" cType="1" res="1.5288967639207840e-02" rms="1.8818737566471100e-01" purity="9.6081733703613281e-01" nType="-99"/>
        </Node>
      </Node>
    </BinaryTree>
    <BinaryTree type="DecisionTree" boostWeight="1.0000000000000000e+00" itree="54">
      <Node pos="s" depth="0" NCoef="0" IVar="4" Cut="2.4596612453460693e+00" cType="1" res="1.9107117550447583e-03" rms="3.6492368578910828e-01" purity="5.1509958505630493e-01" nType="0">
        <Node pos="l" depth="1" NCoef="0" IVar="7" Cut="8.0009719848632812e+01" cType="1" res="-1.0956159234046936e-01" rms="3.5583126544952393e-01" purity="1.7124879360198975e-01" nType="0">
          <Node pos="l" depth="2" NCoef="0" IVar="-1" Cut="0.0000000000000000e+00" cType="1" res="-5.5677839554846287e-03" rms="3.6398857831954956e-01" purity="1.8564082682132721e-01" nType="-99"/>
          <Node pos="r" depth="2" NCoef="0" IVar="-1" Cut="0.0000000000000000e+00" cType="1" res="-2.2354541346430779e-02" rms="2.4855391681194305e-01" purity="6.6374741494655609e-02" nType="-99"/>
        </Node>
        <Node pos="r" depth="1" NCoef="0" IVar="6" Cut="1.3999348640441895e+01" cType="1" res="7.4251569807529449e-02" rms="3.5231375694274902e-01" purity="7.3824435472488403e-01" nType="0">
          <Node pos="l" depth="2" NCoef="0" IVar="-1" Cut="0.0000000000000000e+00" cType="1" res="-1.1102202348411083e-02" rms="3.5278967022895813e-01" purity="1.6051998734474182e-01" nType="-99"/>
          <Node pos="r" depth="2" NCoef="0" IVar="-1" Cut="0.0000000000000000e+00" cType="1" res="6.7850113846361637e-03" rms="3.4519612789154053e-01" purity="7.9384440183639526e-01" nType="-99"/>
        </Node>
      </Node>
    </BinaryTree>
    <BinaryTree type="DecisionTree" boostWeight="1.0000000000000000e+00" itree="55">
      <Node pos="s" depth="0" NCoef="0" IVar="4" Cut="2.9600155353546143e+00" cType="1" res="-1.5932662412524223e-02" rms="3.5931837558746338e-01" purity="4.9091920256614685e-01" nType="0">
        <Node pos="l" depth="1" NCoef="0" IVar="1" Cut="5.5687294006347656e+01" cType="1" res="-1.0072916746139526e-01" rms="3.6770114302635193e-01" purity="2.1344999969005585e-01" nType="0">
          <Node pos="l" depth="2" NCoef="0" IVar="-1" Cut="0.0000000000000000e+00" cType="1" res="-9.0920682996511459e-03" rms="2.3316290974617004e-01" purity="5.7086795568466187e-02" nType="-99"/>
          <Node pos="r" depth="2" NCoef="0" IVar="-1" Cut="0.0000000000000000e+00" cType="1" res="-3.6277915351092815e-03" rms="4.2060384154319763e-01" purity="3.0171298980712891e-01" nType="-99"/>
        </Node>
        <Node pos="r" depth="1" NCoef="0" IVar="9" Cut="3.7388179779052734e+01" cType="1" res="8.4510825574398041e-02" rms="3.2137909531593323e-01" purity="8.1958818435668945e-01" nType="0">
          <Node pos="l" depth="2" NCoef="0" IVar="-1" Cut="0.0000000000000000e+00" cType="1" res="-6.9071934558451176e-04" rms="4.4304999709129333e-01" purity="5.7175207138061523e-01" nType="-99"/>
          <Node pos="r" depth="2" NCoef="0" IVar="-1" Cut="0.0000000000000000e+00" cType="1" res="1.1864933185279369e-02" rms="2.5010371208190918e-01" purity="9.1472613811492920e-01" nType="-99"/>
        </Node>
      </Node>
    </BinaryTree>
    <BinaryTree type="DecisionTree" boostWeight="1.0000000000000000e+00" itree="56">
      <Node pos="s" depth="0" NCoef="0" IVar="4" Cut="3.3440470695495605e+00" cType="1" res="-1.3613203540444374e-02" rms="3.6442855000495911e-01" purity="4.9879941344261169e-01" nType="0">
        <Node pos="l" depth="1" NCoef="0" IVar="1" Cut="6.1317127227783203e+01" cType="1" res="-8.1379503011703491e-02" rms="3.8609880208969116e-01" purity="2.7913045883178711e-01" nType="0">
          <Node pos="l" depth="2" NCoef="0" IVar="-1" Cut="0.0000000000000000e+00" cType="1" res="-9.2752920463681221e-03" rms="2.9625123739242554e-01" purity="9.7337424755096436e-02" nType="-99"/>
          <Node pos="r" depth="2" NCoef="0" IVar="-1" Cut="0.0000000000000000e+00" cType="1" res="-2.2871079854667187e-03" rms="4.3808960914611816e-01" purity="4.1876748204231262e-01" nType="-99"/>
        </Node>
        <Node pos="r" depth="1" NCoef="0" IVar="6" Cut="2.3880554199218750e+01" cType="1" res="9.8209500312805176e-02" rms="2.9306691884994507e-01" purity="8.6128020286560059e-01" nType="0">
          <Node pos="l" depth="2" NCoef="0" IVar="-1" Cut="0.0000000000000000e+00" cType="1" res="-2.1922620944678783e-03" rms="4.6722531318664551e-01" purity="3.6844155192375183e-01" nType="-99"/>
          <Node pos="r" depth="2" NCoef="0" IVar="-1" Cut="0.0000000000000000e+00" cType="1" res="1.0202944278717041e-02" rms="2.6592996716499329e-01" purity="9.0968048572540283e-01" nType="-99"/>
        </Node>
      </Node>
    </BinaryTree>
    <BinaryTree type="DecisionTree" boostWeight="1.0000000000000000e+00" itree="57">
      <Node pos="s" depth="0" NCoef="0" IVar="9" Cut="4.1745265960693359e+01" cType="1" res="-2.2442150861024857e-02" rms="3.5989201068878174e-01" purity="4.8379200696945190e-01" nType="0">
        <Node pos="l" depth="1" NCoef="0" IVar="4" Cut="3.9764175415039062e+00" cType="1" res="-9.6494354307651520e-02" rms="3.7023538351058960e-01" purity="2.9013547301292419e-01" nType="0">
          <Node pos="l" depth="2" NCoef="0" IVar="-1" Cut="0.0000000000000000e+00" cType="1" res="-6.3877473585307598e-03" rms="3.6608290672302246e-01" purity="2.3270840942859650e-01" nType="-99"/>
          <Node pos="r" depth="2" NCoef="0" IVar="-1" Cut="0.0000000000000000e+00" cType="1" res="6.2430552206933498e-03" rms="3.5675439238548279e-01" purity="8.0835539102554321e-01" nType="-99"/>
        </Node>
        <Node pos="r" depth="1" NCoef="0" IVar="4" Cut="2.8375082015991211e+00" cType="1" res="7.9583384096622467e-02" rms="3.1804570555686951e-01" purity="7.5060242414474487e-01" nType="0">
          <Node pos="l" depth="2" NCoef="0" IVar="-1" Cut="0.0000000000000000e+00" cType="1" res="-1.5427710022777319e-03" rms="4.3041774630546570e-01" purity="3.4529814124107361e-01" nType="-99"/>
          <Node pos="r" depth="2" NCoef="0" IVar="-1" Cut="0.0000000000000000e+00" cType="1" res="1.1495314538478851e-02" rms="2.4965329468250275e-01" purity="9.1000223159790039e-01" nType="-99"/>
        </Node>
      </Node>
    </BinaryTree>
    <BinaryTree type="DecisionTree" boostWeight="1.0000000000000000e+00" itree="58">
      <Node pos="s" depth="0" NCoef="0" IVar="1" Cut="6.4503303527832031e+01" cType="1" res="-5.0016138702630997e-03" rms="3.6024922132492065e-01" purity="5.0904977321624756e-01" nType="0">
        <Node pos="l" depth="1" NCoef="0" IVar="1" Cut="5.5284255981445312e+01" cType="1" res="-1.2932199239730835e-01" rms="3.1154209375381470e-01" purity="1.1825611442327499e-01" nType="0">
          <Node pos="l" depth="2" NCoef="0" IVar="-1" Cut="0.0000000000000000e+00" cType="1" res="-1.1527474969625473e-02" rms="2.3122607171535492e-01" purity="5.5175643414258957e-02" nType="-99"/>
          <Node pos="r" depth="2" NCoef="0" IVar="-1" Cut="0.0000000000000000e+00" cType="1" res="-5.0803357735276222e-03" rms="3.8608077168464661e-01" purity="1.9969154894351959e-01" nType="-99"/>
        </Node>
        <Node pos="r" depth="1" NCoef="0" IVar="9" Cut="2.6557588577270508e+01" cType="1" res="5.6333836168050766e-02" rms="3.6679103970527649e-01" purity="7.0185393095016479e-01" nType="0">
          <Node pos="l" depth="2" NCoef="0" IVar="-1" Cut="0.0000000000000000e+00" cType="1" res="-4.4662291184067726e-03" rms="4.4249767065048218e-01" purity="3.7137579917907715e-01" nType="-99"/>
          <Node pos="r" depth="2" NCoef="0" IVar="-1" Cut="0.0000000000000000e+00" cType="1" res="7.1334470994770527e-03" rms="3.3822396397590637e-01" purity="7.8161203861236572e-01" nType="-99"/>
        </Node>
      </Node>
    </BinaryTree>
    <BinaryTree type="DecisionTree" boostWeight="1.0000000000000000e+00" itree="59">
      <Node pos="s" depth="0" NCoef="0" IVar="6" Cut="3.5820602416992188e+01" cType="1" res="-1.3928253203630447e-02" rms="3.5577860474586487e-01" purity="4.8985210061073303e-01" nType="0">
        <Node pos="l" depth="1" NCoef="0" IVar="9" Cut="4.5975929260253906e+01" cType="1" res="-7.8822031617164612e-02" rms="3.7967705726623535e-01" purity="2.5875437259674072e-01" nType="0">
          <Node pos="l" depth="2" NCoef="0" IVar="-1" Cut="0.0000000000000000e+00" cType="1" res="-6.0127400793135166e-03" rms="3.6160358786582947e-01" purity="2.0624192059040070e-01" nType="-99"/>
          <Node pos="r" depth="2" NCoef="0" IVar="-1" Cut="0.0000000000000000e+00" cType="1" res="1.9985768012702465e-03" rms="4.2790862917900085e-01" purity="4.6943387389183044e-01" nType="-99"/>
        </Node>
        <Node pos="r" depth="1" NCoef="0" IVar="9" Cut="2.5812927246093750e+01" cType="1" res="1.0096002370119095e-01" rms="2.7350780367851257e-01" purity="8.9898866415023804e-01" nType="0">
          <Node pos="l" depth="2" NCoef="0" IVar="-1" Cut="0.0000000000000000e+00" cType="1" res="-1.4048371231183410e-03" rms="4.7937282919883728e-01" purity="5.9541445970535278e-01" nType="-99"/>
          <Node pos="r" depth="2" NCoef="0" IVar="-1" Cut="0.0000000000000000e+00" cType="1" res="1.0943716391921043e-02" rms="2.3661348223686218e-01" purity="9.3187654018402100e-01" nType="-99"/>
        </Node>
      </Node>
    </BinaryTree>
    <BinaryTree type="DecisionTree" boostWeight="1.0000000000000000e+00" itree="60">
      <Node pos="s" depth="0" NCoef="0" IVar="6" Cut="3.4807014465332031e+01" cType="1" res="-6.0760099440813065e-03" rms="3.6022499203681946e-01" purity="4.9986213445663452e-01" nType="0">
        <Node pos="l" depth="1" NCoef="0" IVar="6" Cut="1.8231248855590820e+01" cType="1" res="-6.5768986940383911e-02" rms="3.8614425063133240e-01" purity="2.6079913973808289e-01" nType="0">
          <Node pos="l" depth="2" NCoef="0" IVar="-1" Cut="0.0000000000000000e+00" cType="1" res="-1.1576051823794842e-02" rms="2.8180316090583801e-01" purity="9.1306604444980621e-02" nType="-99"/>
          <Node pos="r" depth="2" NCoef="0" IVar="-1" Cut="0.0000000000000000e+00" cType="1" res="-1.1096915695816278e-03" rms="4.3962958455085754e-01" purity="3.8047093152999878e-01" nType="-99"/>
        </Node>
        <Node pos="r" depth="1" NCoef="0" IVar="9" Cut="3.2239921569824219e+01" cType="1" res="9.0439304709434509e-02" rms="2.8880235552787781e-01" purity="8.8639390468597412e-01" nType="0">
          <Node pos="l" depth="2" NCoef="0" IVar="-1" Cut="0.0000000000000000e+00" cType="1" res="-4.5224546920508146e-04" rms="4.6048405766487122e-01" purity="6.3708412647247314e-01" nType="-99"/>
          <Node pos="r" depth="2" NCoef="0" IVar="-1" Cut="0.0000000000000000e+00" cType="1" res="1.1225209571421146e-02" rms="2.3667477071285248e-01" purity="9.3512302637100220e-01" nType="-99"/>
        </Node>
      </Node>
    </BinaryTree>
    <BinaryTree type="DecisionTree" boostWeight="1.0000000000000000e+00" itree="61">
      <Node pos="s" depth="0" NCoef="0" IVar="6" Cut="2.3856418609619141e+01" cType="1" res="-1.2631641700863838e-02" rms="3.6251899600028992e-01" purity="5.0091952085494995e-01" nType="0">
        <Node pos="l" depth="1" NCoef="0" IVar="4" Cut="3.4050686359405518e+00" cType="1" res="-1.1398909240961075e-01" rms="3.1094703078269958e-01" purity="1.2398593127727509e-01" nType="0">
          <Node pos="l" depth="2" NCoef="0" IVar="-1" Cut="0.0000000000000000e+00" cType="1" res="-9.6629206091165543e-03" rms="2.9157868027687073e-01" purity="9.9999979138374329e-02" nType="-99"/>
          <Node pos="r" depth="2" NCoef="0" IVar="-1" Cut="0.0000000000000000e+00" cType="1" res="1.2079175794497132e-03" rms="4.7714698314666748e-01" purity="4.2983585596084595e-01" nType="-99"/>
        </Node>
        <Node pos="r" depth="1" NCoef="0" IVar="4" Cut="3.8428912162780762e+00" cType="1" res="4.7402489930391312e-02" rms="3.7723040580749512e-01" purity="7.2417765855789185e-01" nType="0">
          <Node pos="l" depth="2" NCoef="0" IVar="-1" Cut="0.0000000000000000e+00" cType="1" res="1.5576319128740579e-05" rms="4.4756144285202026e-01" purity="5.7135921716690063e-01" nType="-99"/>
          <Node pos="r" depth="2" NCoef="0" IVar="-1" Cut="0.0000000000000000e+00" cType="1" res="1.1468862183392048e-02" rms="2.3057341575622559e-01" purity="9.3918853998184204e-01" nType="-99"/>
        </Node>
      </Node>
    </BinaryTree>
    <BinaryTree type="DecisionTree" boostWeight="1.0000000000000000e+00" itree="62">
      <Node pos="s" depth="0" NCoef="0" IVar="1" Cut="6.4495285034179688e+01" cType="1" res="-1.1125502176582813e-02" rms="3.6092999577522278e-01" purity="4.9177822470664978e-01" nType="0">
