<?xml version="1.0"?>
<MethodSetup Method="BDT::DYmva_2016_1j_BDT_1000Trees_Grad_FalseBagged_0.6BagFrac_1BagShrink_GiniIndex_20Cuts_CostComplexity_12PruneStrength_13Var">
  <GeneralInfo>
    <Info name="TMVA Release" value="4.2.1 [262657]"/>
    <Info name="ROOT Release" value="6.06/01 [394753]"/>
    <Info name="Creator" value="ddicroce"/>
    <Info name="Date" value="Fri Jun 14 16:38:28 2019"/>
    <Info name="Host" value="Linux vocms0315.cern.ch 2.6.32-573.26.1.el6.x86_64 #1 SMP Wed May 4 09:23:05 CEST 2016 x86_64 x86_64 x86_64 GNU/Linux"/>
    <Info name="Dir" value="/storage_mnt/storage/user/ddicroce/WW_sample/CMSSW_8_0_17/src/UATmva"/>
    <Info name="Training events" value="57518"/>
    <Info name="TrainingTime" value="8.09388251e+01"/>
    <Info name="AnalysisType" value="Classification"/>
  </GeneralInfo>
  <Options>
    <Option name="V" modified="Yes">False</Option>
    <Option name="VerbosityLevel" modified="No">Default</Option>
    <Option name="VarTransform" modified="No">None</Option>
    <Option name="H" modified="Yes">False</Option>
    <Option name="CreateMVAPdfs" modified="No">False</Option>
    <Option name="IgnoreNegWeightsInTraining" modified="No">False</Option>
    <Option name="NTrees" modified="Yes">1000</Option>
    <Option name="MaxDepth" modified="Yes">2</Option>
    <Option name="MinNodeSize" modified="Yes">2.5%</Option>
    <Option name="nCuts" modified="Yes">20</Option>
    <Option name="BoostType" modified="Yes">Grad</Option>
    <Option name="AdaBoostR2Loss" modified="No">quadratic</Option>
    <Option name="UseBaggedBoost" modified="Yes">True</Option>
    <Option name="Shrinkage" modified="Yes">1.000000e-01</Option>
    <Option name="AdaBoostBeta" modified="No">5.000000e-01</Option>
    <Option name="UseRandomisedTrees" modified="No">False</Option>
    <Option name="UseNvars" modified="No">4</Option>
    <Option name="UsePoissonNvars" modified="No">True</Option>
    <Option name="BaggedSampleFraction" modified="Yes">5.000000e-01</Option>
    <Option name="UseYesNoLeaf" modified="No">True</Option>
    <Option name="NegWeightTreatment" modified="No">ignorenegweightsintraining</Option>
    <Option name="Css" modified="No">1.000000e+00</Option>
    <Option name="Cts_sb" modified="No">1.000000e+00</Option>
    <Option name="Ctb_ss" modified="No">1.000000e+00</Option>
    <Option name="Cbb" modified="No">1.000000e+00</Option>
    <Option name="NodePurityLimit" modified="No">5.000000e-01</Option>
    <Option name="SeparationType" modified="No">giniindex</Option>
    <Option name="DoBoostMonitor" modified="No">False</Option>
    <Option name="UseFisherCuts" modified="No">False</Option>
    <Option name="MinLinCorrForFisher" modified="No">8.000000e-01</Option>
    <Option name="UseExclusiveVars" modified="No">False</Option>
    <Option name="DoPreselection" modified="No">False</Option>
    <Option name="SigToBkgFraction" modified="No">1.000000e+00</Option>
    <Option name="PruneMethod" modified="No">nopruning</Option>
    <Option name="PruneStrength" modified="No">0.000000e+00</Option>
    <Option name="PruningValFraction" modified="No">5.000000e-01</Option>
    <Option name="nEventsMin" modified="No">0</Option>
    <Option name="UseBaggedGrad" modified="No">False</Option>
    <Option name="GradBaggingFraction" modified="No">5.000000e-01</Option>
    <Option name="UseNTrainEvents" modified="No">0</Option>
    <Option name="NNodesMax" modified="No">0</Option>
  </Options>
  <Variables NVar="13">
    <Variable VarIndex="0" Expression="PV_npvsGood" Label="PV_npvsGood" Title="PV_npvsGood" Unit="" Internal="PV_npvsGood" Type="F" Min="1.00000000e+00" Max="8.00000000e+01"/>
    <Variable VarIndex="1" Expression="ptll" Label="ptll" Title="ptll" Unit="" Internal="ptll" Type="F" Min="3.00010490e+01" Max="6.78459778e+02"/>
    <Variable VarIndex="2" Expression="mpmet" Label="mpmet" Title="mpmet" Unit="" Internal="mpmet" Type="F" Min="0.00000000e+00" Max="1.40000000e+02"/>
    <Variable VarIndex="3" Expression="upara" Label="upara" Title="upara" Unit="" Internal="upara" Type="F" Min="-2.22769458e+03" Max="1.96981702e+03"/>
    <Variable VarIndex="4" Expression="PfMetDivSumMet" Label="PfMetDivSumMet" Title="PfMetDivSumMet" Unit="" Internal="PfMetDivSumMet" Type="F" Min="6.58622146e-01" Max="2.49520588e+01"/>
    <Variable VarIndex="5" Expression="mtw1" Label="mtw1" Title="mtw1" Unit="" Internal="mtw1" Type="F" Min="0.00000000e+00" Max="6.25373962e+02"/>
    <Variable VarIndex="6" Expression="dphilmet1" Label="dphilmet1" Title="dphilmet1" Unit="" Internal="dphilmet1" Type="F" Min="1.57356262e-05" Max="3.14152884e+00"/>
    <Variable VarIndex="7" Expression="dphilljet_cut" Label="dphilljet_cut" Title="dphilljet_cut" Unit="" Internal="dphilljet_cut" Type="F" Min="2.36438424e-03" Max="3.14158368e+00"/>
    <Variable VarIndex="8" Expression="dphijet1met_cut" Label="dphijet1met_cut" Title="dphijet1met_cut" Unit="" Internal="dphijet1met_cut" Type="F" Min="0.00000000e+00" Max="3.14158368e+00"/>
    <Variable VarIndex="9" Expression="dphijet2met_cut" Label="dphijet2met_cut" Title="dphijet2met_cut" Unit="" Internal="dphijet2met_cut" Type="F" Min="-1.00000000e+00" Max="3.14158082e+00"/>
    <Variable VarIndex="10" Expression="MET_pt" Label="MET_pt" Title="MET_pt" Unit="" Internal="MET_pt" Type="F" Min="1.19136781e-01" Max="9.81105042e+02"/>
    <Variable VarIndex="11" Expression="mth" Label="mth" Title="mth" Unit="" Internal="mth" Type="F" Min="0.00000000e+00" Max="6.12012695e+02"/>
    <Variable VarIndex="12" Expression="mTOT_cut" Label="mTOT_cut" Title="mTOT_cut" Unit="" Internal="mTOT_cut" Type="F" Min="-1.00000000e+00" Max="4.34955371e+03"/>
  </Variables>
  <Spectators NSpec="0"/>
  <Classes NClass="2">
    <Class Name="Signal" Index="0"/>
    <Class Name="Background" Index="1"/>
  </Classes>
  <Transformations NTransformations="0"/>
  <MVAPdfs/>
  <Weights NTrees="1000" AnalysisType="1">
    <BinaryTree type="DecisionTree" boostWeight="1.0000000000000000e+00" itree="0">
      <Node pos="s" depth="0" NCoef="0" IVar="2" Cut="3.3334400177001953e+01" cType="1" res="-2.2666214499622583e-03" rms="4.9999487400054932e-01" purity="4.9773335456848145e-01" nType="0">
        <Node pos="l" depth="1" NCoef="0" IVar="10" Cut="4.1074096679687500e+01" cType="1" res="-1.6935311257839203e-01" rms="4.7044607996940613e-01" purity="3.3064687252044678e-01" nType="0">
          <Node pos="l" depth="2" NCoef="0" IVar="-1" Cut="0.0000000000000000e+00" cType="1" res="-2.4095194414258003e-02" rms="4.1764789819717407e-01" purity="2.2509957849979401e-01" nType="-99"/>
          <Node pos="r" depth="2" NCoef="0" IVar="-1" Cut="0.0000000000000000e+00" cType="1" res="3.6549745127558708e-03" rms="4.9791485071182251e-01" purity="5.4561573266983032e-01" nType="-99"/>
        </Node>
        <Node pos="r" depth="1" NCoef="0" IVar="7" Cut="2.8441915512084961e+00" cType="1" res="3.3899638056755066e-01" rms="3.6753427982330322e-01" purity="8.3899641036987305e-01" nType="0">
          <Node pos="l" depth="2" NCoef="0" IVar="-1" Cut="0.0000000000000000e+00" cType="1" res="2.6560405269265175e-02" rms="2.9331424832344055e-01" purity="9.0492808818817139e-01" nType="-99"/>
          <Node pos="r" depth="2" NCoef="0" IVar="-1" Cut="0.0000000000000000e+00" cType="1" res="6.0395668260753155e-03" rms="4.9331933259963989e-01" purity="5.8146178722381592e-01" nType="-99"/>
        </Node>
      </Node>
    </BinaryTree>
    <BinaryTree type="DecisionTree" boostWeight="1.0000000000000000e+00" itree="1">
      <Node pos="s" depth="0" NCoef="0" IVar="2" Cut="3.0259464263916016e+01" cType="1" res="-5.7340632192790508e-03" rms="4.9429717659950256e-01" purity="4.9268561601638794e-01" nType="0">
        <Node pos="l" depth="1" NCoef="0" IVar="10" Cut="6.1551574707031250e+01" cType="1" res="-1.7801010608673096e-01" rms="4.6222671866416931e-01" purity="3.1442219018936157e-01" nType="0">
          <Node pos="l" depth="2" NCoef="0" IVar="-1" Cut="0.0000000000000000e+00" cType="1" res="-2.0692400634288788e-02" rms="4.3564486503601074e-01" purity="2.5656074285507202e-01" nType="-99"/>
          <Node pos="r" depth="2" NCoef="0" IVar="-1" Cut="0.0000000000000000e+00" cType="1" res="1.5964215621352196e-02" rms="4.4804179668426514e-01" purity="7.2194266319274902e-01" nType="-99"/>
        </Node>
        <Node pos="r" depth="1" NCoef="0" IVar="10" Cut="5.0102680206298828e+01" cType="1" res="2.8811982274055481e-01" rms="3.9960029721260071e-01" purity="7.9675239324569702e-01" nType="0">
          <Node pos="l" depth="2" NCoef="0" IVar="-1" Cut="0.0000000000000000e+00" cType="1" res="9.9014965817332268e-03" rms="4.7528558969497681e-01" purity="6.4676374197006226e-01" nType="-99"/>
          <Node pos="r" depth="2" NCoef="0" IVar="-1" Cut="0.0000000000000000e+00" cType="1" res="2.7957065030932426e-02" rms="2.4219372868537903e-01" purity="9.3678659200668335e-01" nType="-99"/>
        </Node>
      </Node>
    </BinaryTree>
    <BinaryTree type="DecisionTree" boostWeight="1.0000000000000000e+00" itree="2">
      <Node pos="s" depth="0" NCoef="0" IVar="4" Cut="2.9722828865051270e+00" cType="1" res="1.4139419654384255e-03" rms="4.8890885710716248e-01" purity="4.9871343374252319e-01" nType="0">
        <Node pos="l" depth="1" NCoef="0" IVar="2" Cut="2.3726547241210938e+01" cType="1" res="-1.5919576585292816e-01" rms="4.6435409784317017e-01" purity="3.2933187484741211e-01" nType="0">
          <Node pos="l" depth="2" NCoef="0" IVar="-1" Cut="0.0000000000000000e+00" cType="1" res="-2.5876969099044800e-02" rms="4.0043395757675171e-01" purity="2.0247414708137512e-01" nType="-99"/>
          <Node pos="r" depth="2" NCoef="0" IVar="-1" Cut="0.0000000000000000e+00" cType="1" res="2.3963218554854393e-03" rms="4.9390166997909546e-01" purity="5.3142529726028442e-01" nType="-99"/>
        </Node>
        <Node pos="r" depth="1" NCoef="0" IVar="10" Cut="4.7996475219726562e+01" cType="1" res="2.9992270469665527e-01" rms="3.8142555952072144e-01" purity="8.1352561712265015e-01" nType="0">
          <Node pos="l" depth="2" NCoef="0" IVar="-1" Cut="0.0000000000000000e+00" cType="1" res="7.9068122431635857e-03" rms="4.7930970788002014e-01" purity="6.1174637079238892e-01" nType="-99"/>
          <Node pos="r" depth="2" NCoef="0" IVar="-1" Cut="0.0000000000000000e+00" cType="1" res="2.6537705212831497e-02" rms="2.7407771348953247e-01" purity="9.1594356298446655e-01" nType="-99"/>
        </Node>
      </Node>
    </BinaryTree>
    <BinaryTree type="DecisionTree" boostWeight="1.0000000000000000e+00" itree="3">
      <Node pos="s" depth="0" NCoef="0" IVar="4" Cut="2.9899537563323975e+00" cType="1" res="5.2086734212934971e-03" rms="4.8335066437721252e-01" purity="5.0166171789169312e-01" nType="0">
        <Node pos="l" depth="1" NCoef="0" IVar="2" Cut="2.5473943710327148e+01" cType="1" res="-1.5468508005142212e-01" rms="4.6129328012466431e-01" purity="3.2639026641845703e-01" nType="0">
          <Node pos="l" depth="2" NCoef="0" IVar="-1" Cut="0.0000000000000000e+00" cType="1" res="-2.3788368329405785e-02" rms="4.0777644515037537e-01" purity="2.1258345246315002e-01" nType="-99"/>
          <Node pos="r" depth="2" NCoef="0" IVar="-1" Cut="0.0000000000000000e+00" cType="1" res="3.6687289830297232e-03" rms="4.9237281084060669e-01" purity="5.5220127105712891e-01" nType="-99"/>
        </Node>
        <Node pos="r" depth="1" NCoef="0" IVar="10" Cut="5.0827159881591797e+01" cType="1" res="2.9312735795974731e-01" rms="3.7711286544799805e-01" purity="8.1727063655853271e-01" nType="0">
          <Node pos="l" depth="2" NCoef="0" IVar="-1" Cut="0.0000000000000000e+00" cType="1" res="8.7163867428898811e-03" rms="4.7453960776329041e-01" purity="6.3097947835922241e-01" nType="-99"/>
          <Node pos="r" depth="2" NCoef="0" IVar="-1" Cut="0.0000000000000000e+00" cType="1" res="2.6455434039235115e-02" rms="2.5722825527191162e-01" purity="9.2698359489440918e-01" nType="-99"/>
        </Node>
      </Node>
    </BinaryTree>
    <BinaryTree type="DecisionTree" boostWeight="1.0000000000000000e+00" itree="4">
      <Node pos="s" depth="0" NCoef="0" IVar="2" Cut="3.2333129882812500e+01" cType="1" res="1.1072548106312752e-02" rms="4.7829630970954895e-01" purity="5.0589531660079956e-01" nType="0">
        <Node pos="l" depth="1" NCoef="0" IVar="10" Cut="5.8318241119384766e+01" cType="1" res="-1.3597047328948975e-01" rms="4.6187004446983337e-01" purity="3.3792713284492493e-01" nType="0">
          <Node pos="l" depth="2" NCoef="0" IVar="-1" Cut="0.0000000000000000e+00" cType="1" res="-1.6761088743805885e-02" rms="4.4067579507827759e-01" purity="2.7330335974693298e-01" nType="-99"/>
          <Node pos="r" depth="2" NCoef="0" IVar="-1" Cut="0.0000000000000000e+00" cType="1" res="1.4899989590048790e-02" rms="4.4077369570732117e-01" purity="7.1343582868576050e-01" nType="-99"/>
        </Node>
        <Node pos="r" depth="1" NCoef="0" IVar="8" Cut="1.1975158452987671e+00" cType="1" res="2.9455482959747314e-01" rms="3.6945125460624695e-01" purity="8.2971906661987305e-01" nType="0">
          <Node pos="l" depth="2" NCoef="0" IVar="-1" Cut="0.0000000000000000e+00" cType="1" res="7.6620178297162056e-03" rms="4.7879227995872498e-01" purity="6.3105601072311401e-01" nType="-99"/>
          <Node pos="r" depth="2" NCoef="0" IVar="-1" Cut="0.0000000000000000e+00" cType="1" res="2.3969873785972595e-02" rms="2.9240775108337402e-01" purity="9.0188723802566528e-01" nType="-99"/>
        </Node>
      </Node>
    </BinaryTree>
    <BinaryTree type="DecisionTree" boostWeight="1.0000000000000000e+00" itree="5">
      <Node pos="s" depth="0" NCoef="0" IVar="2" Cut="2.6667394638061523e+01" cType="1" res="6.6999630071222782e-03" rms="4.7380298376083374e-01" purity="4.9977579712867737e-01" nType="0">
        <Node pos="l" depth="1" NCoef="0" IVar="10" Cut="5.5285583496093750e+01" cType="1" res="-1.7274281382560730e-01" rms="4.4271585345268250e-01" purity="2.8924608230590820e-01" nType="0">
          <Node pos="l" depth="2" NCoef="0" IVar="-1" Cut="0.0000000000000000e+00" cType="1" res="-2.0422136411070824e-02" rms="4.1549074649810791e-01" purity="2.2641567885875702e-01" nType="-99"/>
          <Node pos="r" depth="2" NCoef="0" IVar="-1" Cut="0.0000000000000000e+00" cType="1" res="9.1892555356025696e-03" rms="4.7190675139427185e-01" purity="6.3051539659500122e-01" nType="-99"/>
        </Node>
        <Node pos="r" depth="1" NCoef="0" IVar="4" Cut="3.1867210865020752e+00" cType="1" res="2.3214715719223022e-01" rms="4.1110154986381531e-01" purity="7.6427990198135376e-01" nType="0">
          <Node pos="l" depth="2" NCoef="0" IVar="-1" Cut="0.0000000000000000e+00" cType="1" res="6.2632951885461807e-03" rms="4.8395463824272156e-01" purity="5.9487903118133545e-01" nType="-99"/>
          <Node pos="r" depth="2" NCoef="0" IVar="-1" Cut="0.0000000000000000e+00" cType="1" res="2.4264102801680565e-02" rms="2.7019503712654114e-01" purity="9.1665399074554443e-01" nType="-99"/>
        </Node>
      </Node>
    </BinaryTree>
    <BinaryTree type="DecisionTree" boostWeight="1.0000000000000000e+00" itree="6">
      <Node pos="s" depth="0" NCoef="0" IVar="4" Cut="3.0303130149841309e+00" cType="1" res="1.6025504097342491e-02" rms="4.6838793158531189e-01" purity="5.0953286886215210e-01" nType="0">
        <Node pos="l" depth="1" NCoef="0" IVar="2" Cut="2.5473878860473633e+01" cType="1" res="-1.2857155501842499e-01" rms="4.5772016048431396e-01" purity="3.3596861362457275e-01" nType="0">
          <Node pos="l" depth="2" NCoef="0" IVar="-1" Cut="0.0000000000000000e+00" cType="1" res="-2.0497046411037445e-02" rms="4.1059786081314087e-01" purity="2.1934081614017487e-01" nType="-99"/>
          <Node pos="r" depth="2" NCoef="0" IVar="-1" Cut="0.0000000000000000e+00" cType="1" res="4.1807866655290127e-03" rms="4.8745372891426086e-01" purity="5.6539434194564819e-01" nType="-99"/>
        </Node>
        <Node pos="r" depth="1" NCoef="0" IVar="7" Cut="2.8428251743316650e+00" cType="1" res="2.9458591341972351e-01" rms="3.4719571471214294e-01" purity="8.4389728307723999e-01" nType="0">
          <Node pos="l" depth="2" NCoef="0" IVar="-1" Cut="0.0000000000000000e+00" cType="1" res="2.3618986830115318e-02" rms="2.8404065966606140e-01" purity="9.0327060222625732e-01" nType="-99"/>
          <Node pos="r" depth="2" NCoef="0" IVar="-1" Cut="0.0000000000000000e+00" cType="1" res="6.5536522306501865e-03" rms="4.6974703669548035e-01" purity="6.1294180154800415e-01" nType="-99"/>
        </Node>
      </Node>
    </BinaryTree>
    <BinaryTree type="DecisionTree" boostWeight="1.0000000000000000e+00" itree="7">
      <Node pos="s" depth="0" NCoef="0" IVar="2" Cut="3.3333332061767578e+01" cType="1" res="1.6730291768908501e-02" rms="4.6489879488945007e-01" purity="5.1050180196762085e-01" nType="0">
        <Node pos="l" depth="1" NCoef="0" IVar="10" Cut="3.8918540954589844e+01" cType="1" res="-1.1713440716266632e-01" rms="4.5737206935882568e-01" purity="3.4194526076316833e-01" nType="0">
          <Node pos="l" depth="2" NCoef="0" IVar="-1" Cut="0.0000000000000000e+00" cType="1" res="-1.8593505024909973e-02" rms="4.1797015070915222e-01" purity="2.3340690135955811e-01" nType="-99"/>
          <Node pos="r" depth="2" NCoef="0" IVar="-1" Cut="0.0000000000000000e+00" cType="1" res="2.7729400899261236e-03" rms="4.8029279708862305e-01" purity="5.2519971132278442e-01" nType="-99"/>
        </Node>
        <Node pos="r" depth="1" NCoef="0" IVar="8" Cut="7.4789112806320190e-01" cType="1" res="2.8555551171302795e-01" rms="3.4902411699295044e-01" purity="8.4899455308914185e-01" nType="0">
          <Node pos="l" depth="2" NCoef="0" IVar="-1" Cut="0.0000000000000000e+00" cType="1" res="4.6425238251686096e-03" rms="4.8663601279258728e-01" purity="5.9988903999328613e-01" nType="-99"/>
          <Node pos="r" depth="2" NCoef="0" IVar="-1" Cut="0.0000000000000000e+00" cType="1" res="2.2053528577089310e-02" rms="3.0239263176918030e-01" purity="8.9273864030838013e-01" nType="-99"/>
        </Node>
      </Node>
    </BinaryTree>
    <BinaryTree type="DecisionTree" boostWeight="1.0000000000000000e+00" itree="8">
      <Node pos="s" depth="0" NCoef="0" IVar="2" Cut="3.2335681915283203e+01" cType="1" res="8.9678708463907242e-03" rms="4.6121761202812195e-01" purity="5.0127440690994263e-01" nType="0">
        <Node pos="l" depth="1" NCoef="0" IVar="4" Cut="3.7897710800170898e+00" cType="1" res="-1.2447788566350937e-01" rms="4.5191073417663574e-01" purity="3.2698753476142883e-01" nType="0">
          <Node pos="l" depth="2" NCoef="0" IVar="-1" Cut="0.0000000000000000e+00" cType="1" res="-1.3967115432024002e-02" rms="4.4117099046707153e-01" purity="2.8497520089149475e-01" nType="-99"/>
          <Node pos="r" depth="2" NCoef="0" IVar="-1" Cut="0.0000000000000000e+00" cType="1" res="1.6810582950711250e-02" rms="4.0325888991355896e-01" purity="7.7447789907455444e-01" nType="-99"/>
        </Node>
        <Node pos="r" depth="1" NCoef="0" IVar="10" Cut="4.7814086914062500e+01" cType="1" res="2.6359590888023376e-01" rms="3.6072567105293274e-01" purity="8.3383148908615112e-01" nType="0">
          <Node pos="l" depth="2" NCoef="0" IVar="-1" Cut="0.0000000000000000e+00" cType="1" res="9.0936012566089630e-03" rms="4.6244668960571289e-01" purity="6.7603546380996704e-01" nType="-99"/>
          <Node pos="r" depth="2" NCoef="0" IVar="-1" Cut="0.0000000000000000e+00" cType="1" res="2.4216337129473686e-02" rms="2.2606979310512543e-01" purity="9.4299179315567017e-01" nType="-99"/>
        </Node>
      </Node>
    </BinaryTree>
    <BinaryTree type="DecisionTree" boostWeight="1.0000000000000000e+00" itree="9">
      <Node pos="s" depth="0" NCoef="0" IVar="4" Cut="2.9722828865051270e+00" cType="1" res="1.2679959647357464e-02" rms="4.5656776428222656e-01" purity="5.0490319728851318e-01" nType="0">
        <Node pos="l" depth="1" NCoef="0" IVar="2" Cut="2.7196699142456055e+01" cType="1" res="-1.2042646855115891e-01" rms="4.5048558712005615e-01" purity="3.2885572314262390e-01" nType="0">
          <Node pos="l" depth="2" NCoef="0" IVar="-1" Cut="0.0000000000000000e+00" cType="1" res="-1.8790522590279579e-02" rms="4.1109004616737366e-01" purity="2.2141656279563904e-01" nType="-99"/>
          <Node pos="r" depth="2" NCoef="0" IVar="-1" Cut="0.0000000000000000e+00" cType="1" res="5.7592275552451611e-03" rms="4.8140567541122437e-01" purity="5.9641808271408081e-01" nType="-99"/>
        </Node>
        <Node pos="r" depth="1" NCoef="0" IVar="10" Cut="4.8085281372070312e+01" cType="1" res="2.5067412853240967e-01" rms="3.6055305600166321e-01" purity="8.1967598199844360e-01" nType="0">
          <Node pos="l" depth="2" NCoef="0" IVar="-1" Cut="0.0000000000000000e+00" cType="1" res="6.1697452329099178e-03" rms="4.6609908342361450e-01" purity="6.1115181446075439e-01" nType="-99"/>
          <Node pos="r" depth="2" NCoef="0" IVar="-1" Cut="0.0000000000000000e+00" cType="1" res="2.2833170369267464e-02" rms="2.6016098260879517e-01" purity="9.2095035314559937e-01" nType="-99"/>
        </Node>
      </Node>
    </BinaryTree>
    <BinaryTree type="DecisionTree" boostWeight="1.0000000000000000e+00" itree="10">
      <Node pos="s" depth="0" NCoef="0" IVar="4" Cut="2.4906003475189209e+00" cType="1" res="6.8499795161187649e-03" rms="4.5228272676467896e-01" purity="4.9743437767028809e-01" nType="0">
        <Node pos="l" depth="1" NCoef="0" IVar="2" Cut="2.0428850173950195e+01" cType="1" res="-1.6157576441764832e-01" rms="4.3041411042213440e-01" purity="2.7028939127922058e-01" nType="0">
          <Node pos="l" depth="2" NCoef="0" IVar="-1" Cut="0.0000000000000000e+00" cType="1" res="-2.5475757196545601e-02" rms="3.6020284891128540e-01" purity="1.5601855516433716e-01" nType="-99"/>
          <Node pos="r" depth="2" NCoef="0" IVar="-1" Cut="0.0000000000000000e+00" cType="1" res="-4.5713824220001698e-03" rms="4.7813633084297180e-01" purity="4.0103051066398621e-01" nType="-99"/>
        </Node>
        <Node pos="r" depth="1" NCoef="0" IVar="10" Cut="3.8312931060791016e+01" cType="1" res="1.8767371773719788e-01" rms="4.0265539288520813e-01" purity="7.4129974842071533e-01" nType="0">
          <Node pos="l" depth="2" NCoef="0" IVar="-1" Cut="0.0000000000000000e+00" cType="1" res="-2.7353568002581596e-03" rms="4.7229528427124023e-01" purity="4.5956954360008240e-01" nType="-99"/>
          <Node pos="r" depth="2" NCoef="0" IVar="-1" Cut="0.0000000000000000e+00" cType="1" res="1.9288951531052589e-02" rms="3.3338311314582825e-01" purity="8.5182350873947144e-01" nType="-99"/>
        </Node>
      </Node>
    </BinaryTree>
    <BinaryTree type="DecisionTree" boostWeight="1.0000000000000000e+00" itree="11">
      <Node pos="s" depth="0" NCoef="0" IVar="2" Cut="2.3666578292846680e+01" cType="1" res="1.1935445480048656e-02" rms="4.4991427659988403e-01" purity="5.0099146366119385e-01" nType="0">
        <Node pos="l" depth="1" NCoef="0" IVar="4" Cut="3.7282719612121582e+00" cType="1" res="-1.5745252370834351e-01" rms="4.2094811797142029e-01" purity="2.6491454243659973e-01" nType="0">
          <Node pos="l" depth="2" NCoef="0" IVar="-1" Cut="0.0000000000000000e+00" cType="1" res="-1.7977587878704071e-02" rms="4.0617537498474121e-01" purity="2.2008195519447327e-01" nType="-99"/>
          <Node pos="r" depth="2" NCoef="0" IVar="-1" Cut="0.0000000000000000e+00" cType="1" res="1.2255669571459293e-02" rms="4.3320691585540771e-01" purity="7.1912586688995361e-01" nType="-99"/>
        </Node>
        <Node pos="r" depth="1" NCoef="0" IVar="10" Cut="4.6980369567871094e+01" cType="1" res="1.7299936711788177e-01" rms="4.1615486145019531e-01" purity="7.2546702623367310e-01" nType="0">
          <Node pos="l" depth="2" NCoef="0" IVar="-1" Cut="0.0000000000000000e+00" cType="1" res="2.8507751412689686e-03" rms="4.8181453347206116e-01" purity="5.4632925987243652e-01" nType="-99"/>
          <Node pos="r" depth="2" NCoef="0" IVar="-1" Cut="0.0000000000000000e+00" cType="1" res="2.1628377959132195e-02" rms="2.7641540765762329e-01" purity="9.0712857246398926e-01" nType="-99"/>
        </Node>
      </Node>
    </BinaryTree>
    <BinaryTree type="DecisionTree" boostWeight="1.0000000000000000e+00" itree="12">
      <Node pos="s" depth="0" NCoef="0" IVar="10" Cut="4.4552947998046875e+01" cType="1" res="9.8385233432054520e-03" rms="4.4591397047042847e-01" purity="4.9883082509040833e-01" nType="0">
        <Node pos="l" depth="1" NCoef="0" IVar="2" Cut="3.0821788787841797e+01" cType="1" res="-1.2162572890520096e-01" rms="4.3892702460289001e-01" purity="3.1535780429840088e-01" nType="0">
          <Node pos="l" depth="2" NCoef="0" IVar="-1" Cut="0.0000000000000000e+00" cType="1" res="-1.7169602215290070e-02" rms="4.0691620111465454e-01" purity="2.1868211030960083e-01" nType="-99"/>
          <Node pos="r" depth="2" NCoef="0" IVar="-1" Cut="0.0000000000000000e+00" cType="1" res="6.0315015725791454e-03" rms="4.7500681877136230e-01" purity="6.3225120306015015e-01" nType="-99"/>
        </Node>
        <Node pos="r" depth="1" NCoef="0" IVar="2" Cut="2.9068006515502930e+01" cType="1" res="2.0554184913635254e-01" rms="3.7949278950691223e-01" purity="7.7195656299591064e-01" nType="0">
          <Node pos="l" depth="2" NCoef="0" IVar="-1" Cut="0.0000000000000000e+00" cType="1" res="5.0630499608814716e-03" rms="4.7012516856193542e-01" purity="5.5444246530532837e-01" nType="-99"/>
          <Node pos="r" depth="2" NCoef="0" IVar="-1" Cut="0.0000000000000000e+00" cType="1" res="2.1515626460313797e-02" rms="2.5956755876541138e-01" purity="9.2070752382278442e-01" nType="-99"/>
        </Node>
      </Node>
    </BinaryTree>
    <BinaryTree type="DecisionTree" boostWeight="1.0000000000000000e+00" itree="13">
      <Node pos="s" depth="0" NCoef="0" IVar="4" Cut="3.0242443084716797e+00" cType="1" res="7.6427343301475048e-03" rms="4.4285464286804199e-01" purity="4.9808028340339661e-01" nType="0">
        <Node pos="l" depth="1" NCoef="0" IVar="11" Cut="7.0355178833007812e+01" cType="1" res="-1.1078292131423950e-01" rms="4.4257548451423645e-01" purity="3.2273733615875244e-01" nType="0">
          <Node pos="l" depth="2" NCoef="0" IVar="-1" Cut="0.0000000000000000e+00" cType="1" res="-1.7282735556364059e-02" rms="4.0109598636627197e-01" purity="2.1481443941593170e-01" nType="-99"/>
          <Node pos="r" depth="2" NCoef="0" IVar="-1" Cut="0.0000000000000000e+00" cType="1" res="1.0983123211190104e-03" rms="4.7875052690505981e-01" purity="5.0222641229629517e-01" nType="-99"/>
        </Node>
        <Node pos="r" depth="1" NCoef="0" IVar="2" Cut="2.9587598800659180e+01" cType="1" res="2.3290942609310150e-01" rms="3.4520709514617920e-01" purity="8.3161377906799316e-01" nType="0">
          <Node pos="l" depth="2" NCoef="0" IVar="-1" Cut="0.0000000000000000e+00" cType="1" res="7.4106357060372829e-03" rms="4.5275667309761047e-01" purity="6.3763427734375000e-01" nType="-99"/>
          <Node pos="r" depth="2" NCoef="0" IVar="-1" Cut="0.0000000000000000e+00" cType="1" res="2.0381622016429901e-02" rms="2.6510345935821533e-01" purity="9.1646587848663330e-01" nType="-99"/>
        </Node>
      </Node>
    </BinaryTree>
    <BinaryTree type="DecisionTree" boostWeight="1.0000000000000000e+00" itree="14">
      <Node pos="s" depth="0" NCoef="0" IVar="4" Cut="3.3567187786102295e+00" cType="1" res="1.5892034396529198e-02" rms="4.3973901867866516e-01" purity="5.0419610738754272e-01" nType="0">
        <Node pos="l" depth="1" NCoef="0" IVar="2" Cut="2.5472097396850586e+01" cType="1" res="-7.7969104051589966e-02" rms="4.4761520624160767e-01" purity="3.6003097891807556e-01" nType="0">
          <Node pos="l" depth="2" NCoef="0" IVar="-1" Cut="0.0000000000000000e+00" cType="1" res="-1.5241917222738266e-02" rms="4.1114047169685364e-01" purity="2.2867803275585175e-01" nType="-99"/>
          <Node pos="r" depth="2" NCoef="0" IVar="-1" Cut="0.0000000000000000e+00" cType="1" res="5.3324904292821884e-03" rms="4.7214415669441223e-01" purity="6.0053807497024536e-01" nType="-99"/>
        </Node>
        <Node pos="r" depth="1" NCoef="0" IVar="7" Cut="2.8426487445831299e+00" cType="1" res="2.5893363356590271e-01" rms="3.0560106039047241e-01" purity="8.7749356031417847e-01" nType="0">
          <Node pos="l" depth="2" NCoef="0" IVar="-1" Cut="0.0000000000000000e+00" cType="1" res="2.1003728732466698e-02" rms="2.5337037444114685e-01" purity="9.2032307386398315e-01" nType="-99"/>
          <Node pos="r" depth="2" NCoef="0" IVar="-1" Cut="0.0000000000000000e+00" cType="1" res="8.8106980547308922e-03" rms="4.3877276778221130e-01" purity="6.9521826505661011e-01" nType="-99"/>
        </Node>
      </Node>
    </BinaryTree>
    <BinaryTree type="DecisionTree" boostWeight="1.0000000000000000e+00" itree="15">
      <Node pos="s" depth="0" NCoef="0" IVar="2" Cut="3.2333644866943359e+01" cType="1" res="8.6114825680851936e-03" rms="4.3895819783210754e-01" purity="4.9522209167480469e-01" nType="0">
        <Node pos="l" depth="1" NCoef="0" IVar="10" Cut="6.1603691101074219e+01" cType="1" res="-9.5243684947490692e-02" rms="4.4088318943977356e-01" purity="3.2320931553840637e-01" nType="0">
          <Node pos="l" depth="2" NCoef="0" IVar="-1" Cut="0.0000000000000000e+00" cType="1" res="-1.1640214361250401e-02" rms="4.3263137340545654e-01" purity="2.7307114005088806e-01" nType="-99"/>
          <Node pos="r" depth="2" NCoef="0" IVar="-1" Cut="0.0000000000000000e+00" cType="1" res="1.1631845496594906e-02" rms="4.2454272508621216e-01" purity="7.0294755697250366e-01" nType="-99"/>
        </Node>
        <Node pos="r" depth="1" NCoef="0" IVar="8" Cut="7.4802958965301514e-01" cType="1" res="2.0879146456718445e-01" rms="3.5854989290237427e-01" purity="8.2677531242370605e-01" nType="0">
          <Node pos="l" depth="2" NCoef="0" IVar="-1" Cut="0.0000000000000000e+00" cType="1" res="-1.8863303121179342e-03" rms="4.8975574970245361e-01" purity="5.4135149717330933e-01" nType="-99"/>
          <Node pos="r" depth="2" NCoef="0" IVar="-1" Cut="0.0000000000000000e+00" cType="1" res="1.8415547907352448e-02" rms="3.0687811970710754e-01" purity="8.8226854801177979e-01" nType="-99"/>
        </Node>
      </Node>
    </BinaryTree>
    <BinaryTree type="DecisionTree" boostWeight="1.0000000000000000e+00" itree="16">
      <Node pos="s" depth="0" NCoef="0" IVar="4" Cut="3.0019137859344482e+00" cType="1" res="1.4031330123543739e-02" rms="4.3525126576423645e-01" purity="5.0135391950607300e-01" nType="0">
        <Node pos="l" depth="1" NCoef="0" IVar="2" Cut="2.1229722976684570e+01" cType="1" res="-9.0946473181247711e-02" rms="4.4111651182174683e-01" purity="3.2644000649452209e-01" nType="0">
          <Node pos="l" depth="2" NCoef="0" IVar="-1" Cut="0.0000000000000000e+00" cType="1" res="-1.8485443666577339e-02" rms="3.8407948613166809e-01" purity="1.8541055917739868e-01" nType="-99"/>
          <Node pos="r" depth="2" NCoef="0" IVar="-1" Cut="0.0000000000000000e+00" cType="1" res="1.1015982599928975e-03" rms="4.7845479846000671e-01" purity="4.9073833227157593e-01" nType="-99"/>
        </Node>
        <Node pos="r" depth="1" NCoef="0" IVar="7" Cut="2.8425884246826172e+00" cType="1" res="2.0618715882301331e-01" rms="3.5062664747238159e-01" purity="8.2152372598648071e-01" nType="0">
          <Node pos="l" depth="2" NCoef="0" IVar="-1" Cut="0.0000000000000000e+00" cType="1" res="1.8767721951007843e-02" rms="2.9253023862838745e-01" purity="8.8710081577301025e-01" nType="-99"/>
          <Node pos="r" depth="2" NCoef="0" IVar="-1" Cut="0.0000000000000000e+00" cType="1" res="1.7270984826609492e-03" rms="4.6278491616249084e-01" purity="5.8539807796478271e-01" nType="-99"/>
        </Node>
      </Node>
    </BinaryTree>
    <BinaryTree type="DecisionTree" boostWeight="1.0000000000000000e+00" itree="17">
      <Node pos="s" depth="0" NCoef="0" IVar="4" Cut="3.0937058925628662e+00" cType="1" res="1.1138592846691608e-02" rms="4.3292251229286194e-01" purity="4.9816864728927612e-01" nType="0">
        <Node pos="l" depth="1" NCoef="0" IVar="2" Cut="1.9778013229370117e+01" cType="1" res="-8.4062270820140839e-02" rms="4.4148144125938416e-01" purity="3.3431488275527954e-01" nType="0">
          <Node pos="l" depth="2" NCoef="0" IVar="-1" Cut="0.0000000000000000e+00" cType="1" res="-1.9192248582839966e-02" rms="3.7819358706474304e-01" purity="1.7972289025783539e-01" nType="-99"/>
          <Node pos="r" depth="2" NCoef="0" IVar="-1" Cut="0.0000000000000000e+00" cType="1" res="6.4114399719983339e-05" rms="4.7493943572044373e-01" purity="4.7137954831123352e-01" nType="-99"/>
        </Node>
        <Node pos="r" depth="1" NCoef="0" IVar="10" Cut="3.8944965362548828e+01" cType="1" res="2.0617586374282837e-01" rms="3.3982685208320618e-01" purity="8.3385461568832397e-01" nType="0">
          <Node pos="l" depth="2" NCoef="0" IVar="-1" Cut="0.0000000000000000e+00" cType="1" res="-3.5322704934515059e-04" rms="4.7146743535995483e-01" purity="5.3778296709060669e-01" nType="-99"/>
          <Node pos="r" depth="2" NCoef="0" IVar="-1" Cut="0.0000000000000000e+00" cType="1" res="1.8567144870758057e-02" rms="2.8445154428482056e-01" purity="8.9748835563659668e-01" nType="-99"/>
        </Node>
      </Node>
    </BinaryTree>
    <BinaryTree type="DecisionTree" boostWeight="1.0000000000000000e+00" itree="18">
      <Node pos="s" depth="0" NCoef="0" IVar="4" Cut="3.0350553989410400e+00" cType="1" res="4.4073960743844509e-03" rms="4.2786213755607605e-01" purity="4.9296611547470093e-01" nType="0">
        <Node pos="l" depth="1" NCoef="0" IVar="2" Cut="2.2615261077880859e+01" cType="1" res="-1.0079888999462128e-01" rms="4.3328461050987244e-01" purity="3.0941569805145264e-01" nType="0">
          <Node pos="l" depth="2" NCoef="0" IVar="-1" Cut="0.0000000000000000e+00" cType="1" res="-1.7189363017678261e-02" rms="3.8331764936447144e-01" purity="1.8517266213893890e-01" nType="-99"/>
          <Node pos="r" depth="2" NCoef="0" IVar="-1" Cut="0.0000000000000000e+00" cType="1" res="-3.5223906161263585e-04" rms="4.8045650124549866e-01" purity="4.8843595385551453e-01" nType="-99"/>
        </Node>
        <Node pos="r" depth="1" NCoef="0" IVar="10" Cut="4.5858989715576172e+01" cType="1" res="1.9766862690448761e-01" rms="3.4176883101463318e-01" purity="8.3014345169067383e-01" nType="0">
          <Node pos="l" depth="2" NCoef="0" IVar="-1" Cut="0.0000000000000000e+00" cType="1" res="4.4379220344126225e-03" rms="4.5496693253517151e-01" purity="6.1695492267608643e-01" nType="-99"/>
          <Node pos="r" depth="2" NCoef="0" IVar="-1" Cut="0.0000000000000000e+00" cType="1" res="1.8738264217972755e-02" rms="2.6776456832885742e-01" purity="9.1235411167144775e-01" nType="-99"/>
        </Node>
      </Node>
    </BinaryTree>
    <BinaryTree type="DecisionTree" boostWeight="1.0000000000000000e+00" itree="19">
      <Node pos="s" depth="0" NCoef="0" IVar="2" Cut="3.3334018707275391e+01" cType="1" res="4.3216496706008911e-03" rms="4.2636534571647644e-01" purity="4.9014732241630554e-01" nType="0">
        <Node pos="l" depth="1" NCoef="0" IVar="10" Cut="3.5555084228515625e+01" cType="1" res="-8.9428879320621490e-02" rms="4.3130612373352051e-01" purity="3.2260158658027649e-01" nType="0">
          <Node pos="l" depth="2" NCoef="0" IVar="-1" Cut="0.0000000000000000e+00" cType="1" res="-1.6126597300171852e-02" rms="3.9247882366180420e-01" purity="2.0199309289455414e-01" nType="-99"/>
          <Node pos="r" depth="2" NCoef="0" IVar="-1" Cut="0.0000000000000000e+00" cType="1" res="8.6387235205620527e-04" rms="4.5768234133720398e-01" purity="4.7765043377876282e-01" nType="-99"/>
        </Node>
        <Node pos="r" depth="1" NCoef="0" IVar="8" Cut="8.9848148822784424e-01" cType="1" res="2.0306672155857086e-01" rms="3.3863255381584167e-01" purity="8.4533351659774780e-01" nType="0">
          <Node pos="l" depth="2" NCoef="0" IVar="-1" Cut="0.0000000000000000e+00" cType="1" res="1.6934877494350076e-03" rms="4.7737711668014526e-01" purity="6.0209339857101440e-01" nType="-99"/>
          <Node pos="r" depth="2" NCoef="0" IVar="-1" Cut="0.0000000000000000e+00" cType="1" res="1.8314301967620850e-02" rms="2.8052046895027161e-01" purity="9.0237379074096680e-01" nType="-99"/>
        </Node>
      </Node>
    </BinaryTree>
    <BinaryTree type="DecisionTree" boostWeight="1.0000000000000000e+00" itree="20">
      <Node pos="s" depth="0" NCoef="0" IVar="4" Cut="3.0019137859344482e+00" cType="1" res="1.3743516989052296e-02" rms="4.2460310459136963e-01" purity="4.9885857105255127e-01" nType="0">
        <Node pos="l" depth="1" NCoef="0" IVar="2" Cut="3.1330055236816406e+01" cType="1" res="-8.2484610378742218e-02" rms="4.3575409054756165e-01" purity="3.1947183609008789e-01" nType="0">
          <Node pos="l" depth="2" NCoef="0" IVar="-1" Cut="0.0000000000000000e+00" cType="1" res="-1.1522795073688030e-02" rms="4.1869497299194336e-01" purity="2.4476364254951477e-01" nType="-99"/>
          <Node pos="r" depth="2" NCoef="0" IVar="-1" Cut="0.0000000000000000e+00" cType="1" res="6.1541930772364140e-03" rms="4.6922627091407776e-01" purity="6.4892464876174927e-01" nType="-99"/>
        </Node>
        <Node pos="r" depth="1" NCoef="0" IVar="10" Cut="4.9145320892333984e+01" cType="1" res="1.9337283074855804e-01" rms="3.3589711785316467e-01" purity="8.3372032642364502e-01" nType="0">
          <Node pos="l" depth="2" NCoef="0" IVar="-1" Cut="0.0000000000000000e+00" cType="1" res="5.8455304242670536e-03" rms="4.4600915908813477e-01" purity="6.4458996057510376e-01" nType="-99"/>
          <Node pos="r" depth="2" NCoef="0" IVar="-1" Cut="0.0000000000000000e+00" cType="1" res="1.9544387236237526e-02" rms="2.4325430393218994e-01" purity="9.2885422706604004e-01" nType="-99"/>
        </Node>
      </Node>
    </BinaryTree>
    <BinaryTree type="DecisionTree" boostWeight="1.0000000000000000e+00" itree="21">
      <Node pos="s" depth="0" NCoef="0" IVar="2" Cut="2.6667798995971680e+01" cType="1" res="1.3514929451048374e-02" rms="4.2334985733032227e-01" purity="4.9819847941398621e-01" nType="0">
        <Node pos="l" depth="1" NCoef="0" IVar="10" Cut="6.1632961273193359e+01" cType="1" res="-9.7309552133083344e-02" rms="4.1974973678588867e-01" purity="2.8204709291458130e-01" nType="0">
          <Node pos="l" depth="2" NCoef="0" IVar="-1" Cut="0.0000000000000000e+00" cType="1" res="-1.2613185681402683e-02" rms="4.0900793671607971e-01" purity="2.2841571271419525e-01" nType="-99"/>
          <Node pos="r" depth="2" NCoef="0" IVar="-1" Cut="0.0000000000000000e+00" cType="1" res="1.0660399682819843e-02" rms="4.2837667465209961e-01" purity="6.9319194555282593e-01" nType="-99"/>
        </Node>
        <Node pos="r" depth="1" NCoef="0" IVar="10" Cut="2.6359327316284180e+01" cType="1" res="1.5010143816471100e-01" rms="3.8622906804084778e-01" purity="7.6459592580795288e-01" nType="0">
          <Node pos="l" depth="2" NCoef="0" IVar="-1" Cut="0.0000000000000000e+00" cType="1" res="-5.8212452568113804e-03" rms="4.8307159543037415e-01" purity="4.4673475623130798e-01" nType="-99"/>
          <Node pos="r" depth="2" NCoef="0" IVar="-1" Cut="0.0000000000000000e+00" cType="1" res="1.4959400519728661e-02" rms="3.4351018071174622e-01" purity="8.3249092102050781e-01" nType="-99"/>
        </Node>
      </Node>
    </BinaryTree>
    <BinaryTree type="DecisionTree" boostWeight="1.0000000000000000e+00" itree="22">
      <Node pos="s" depth="0" NCoef="0" IVar="4" Cut="2.7064261436462402e+00" cType="1" res="1.6145285218954086e-02" rms="4.2224723100662231e-01" purity="5.0160109996795654e-01" nType="0">
        <Node pos="l" depth="1" NCoef="0" IVar="2" Cut="1.8846050262451172e+01" cType="1" res="-8.5249617695808411e-02" rms="4.3158724904060364e-01" purity="3.0114585161209106e-01" nType="0">
          <Node pos="l" depth="2" NCoef="0" IVar="-1" Cut="0.0000000000000000e+00" cType="1" res="-1.9029378890991211e-02" rms="3.5940062999725342e-01" purity="1.5609328448772430e-01" nType="-99"/>
          <Node pos="r" depth="2" NCoef="0" IVar="-1" Cut="0.0000000000000000e+00" cType="1" res="-1.0121228406205773e-03" rms="4.7423169016838074e-01" purity="4.2811042070388794e-01" nType="-99"/>
        </Node>
        <Node pos="r" depth="1" NCoef="0" IVar="10" Cut="4.5113925933837891e+01" cType="1" res="1.5613120794296265e-01" rms="3.6536660790443420e-01" purity="7.7834987640380859e-01" nType="0">
          <Node pos="l" depth="2" NCoef="0" IVar="-1" Cut="0.0000000000000000e+00" cType="1" res="1.9764313474297523e-03" rms="4.5338356494903564e-01" purity="5.5800843238830566e-01" nType="-99"/>
          <Node pos="r" depth="2" NCoef="0" IVar="-1" Cut="0.0000000000000000e+00" cType="1" res="1.7431650310754776e-02" rms="2.8734672069549561e-01" purity="8.9297813177108765e-01" nType="-99"/>
        </Node>
      </Node>
    </BinaryTree>
    <BinaryTree type="DecisionTree" boostWeight="1.0000000000000000e+00" itree="23">
      <Node pos="s" depth="0" NCoef="0" IVar="4" Cut="3.3286473751068115e+00" cType="1" res="1.4977647922933102e-02" rms="4.1733625531196594e-01" purity="5.0330823659896851e-01" nType="0">
        <Node pos="l" depth="1" NCoef="0" IVar="2" Cut="2.5471614837646484e+01" cType="1" res="-6.1205677688121796e-02" rms="4.3494474887847900e-01" purity="3.4956616163253784e-01" nType="0">
          <Node pos="l" depth="2" NCoef="0" IVar="-1" Cut="0.0000000000000000e+00" cType="1" res="-1.2632695958018303e-02" rms="4.0130451321601868e-01" purity="2.1472138166427612e-01" nType="-99"/>
          <Node pos="r" depth="2" NCoef="0" IVar="-1" Cut="0.0000000000000000e+00" cType="1" res="3.8458465132862329e-03" rms="4.6965661644935608e-01" purity="5.9369701147079468e-01" nType="-99"/>
        </Node>
        <Node pos="r" depth="1" NCoef="0" IVar="7" Cut="2.8427577018737793e+00" cType="1" res="1.9915266335010529e-01" rms="2.9989546537399292e-01" purity="8.7498354911804199e-01" nType="0">
          <Node pos="l" depth="2" NCoef="0" IVar="-1" Cut="0.0000000000000000e+00" cType="1" res="1.7835220322012901e-02" rms="2.5128397345542908e-01" purity="9.1742080450057983e-01" nType="-99"/>
          <Node pos="r" depth="2" NCoef="0" IVar="-1" Cut="0.0000000000000000e+00" cType="1" res="6.0939523391425610e-03" rms="4.3429616093635559e-01" purity="6.8951094150543213e-01" nType="-99"/>
        </Node>
      </Node>
    </BinaryTree>
    <BinaryTree type="DecisionTree" boostWeight="1.0000000000000000e+00" itree="24">
      <Node pos="s" depth="0" NCoef="0" IVar="10" Cut="4.6890655517578125e+01" cType="1" res="1.7288761213421822e-02" rms="4.1560906171798706e-01" purity="5.0604909658432007e-01" nType="0">
        <Node pos="l" depth="1" NCoef="0" IVar="11" Cut="7.7762573242187500e+01" cType="1" res="-7.3894023895263672e-02" rms="4.2593908309936523e-01" purity="3.3376359939575195e-01" nType="0">
          <Node pos="l" depth="2" NCoef="0" IVar="-1" Cut="0.0000000000000000e+00" cType="1" res="-1.3793178834021091e-02" rms="3.9055773615837097e-01" purity="2.1073517203330994e-01" nType="-99"/>
          <Node pos="r" depth="2" NCoef="0" IVar="-1" Cut="0.0000000000000000e+00" cType="1" res="4.4908830896019936e-03" rms="4.6108862757682800e-01" purity="5.7752633094787598e-01" nType="-99"/>
        </Node>
        <Node pos="r" depth="1" NCoef="0" IVar="7" Cut="2.8426322937011719e+00" cType="1" res="1.7067924141883850e-01" rms="3.4726315736770630e-01" purity="7.9587310552597046e-01" nType="0">
          <Node pos="l" depth="2" NCoef="0" IVar="-1" Cut="0.0000000000000000e+00" cType="1" res="1.8527315929532051e-02" rms="2.7585914731025696e-01" purity="8.9147758483886719e-01" nType="-99"/>
          <Node pos="r" depth="2" NCoef="0" IVar="-1" Cut="0.0000000000000000e+00" cType="1" res="2.2552490700036287e-03" rms="4.4861206412315369e-01" purity="5.5953222513198853e-01" nType="-99"/>
        </Node>
      </Node>
    </BinaryTree>
    <BinaryTree type="DecisionTree" boostWeight="1.0000000000000000e+00" itree="25">
      <Node pos="s" depth="0" NCoef="0" IVar="10" Cut="4.6890655517578125e+01" cType="1" res="9.4751752912998199e-03" rms="4.1601383686065674e-01" purity="4.8992612957954407e-01" nType="0">
        <Node pos="l" depth="1" NCoef="0" IVar="7" Cut="2.8427553176879883e+00" cType="1" res="-7.3920592665672302e-02" rms="4.2713022232055664e-01" purity="3.2556980848312378e-01" nType="0">
          <Node pos="l" depth="2" NCoef="0" IVar="-1" Cut="0.0000000000000000e+00" cType="1" res="1.0215702932327986e-03" rms="4.4895482063293457e-01" purity="4.4760039448738098e-01" nType="-99"/>
          <Node pos="r" depth="2" NCoef="0" IVar="-1" Cut="0.0000000000000000e+00" cType="1" res="-1.5388697385787964e-02" rms="3.8714879751205444e-01" purity="2.0756772160530090e-01" nType="-99"/>
        </Node>
        <Node pos="r" depth="1" NCoef="0" IVar="7" Cut="2.8426196575164795e+00" cType="1" res="1.5839277207851410e-01" rms="3.4890592098236084e-01" purity="7.8341281414031982e-01" nType="0">
          <Node pos="l" depth="2" NCoef="0" IVar="-1" Cut="0.0000000000000000e+00" cType="1" res="1.7685851082205772e-02" rms="2.7894720435142517e-01" purity="8.8191932439804077e-01" nType="-99"/>
          <Node pos="r" depth="2" NCoef="0" IVar="-1" Cut="0.0000000000000000e+00" cType="1" res="1.8945577321574092e-03" rms="4.4690808653831482e-01" purity="5.4891616106033325e-01" nType="-99"/>
        </Node>
      </Node>
    </BinaryTree>
    <BinaryTree type="DecisionTree" boostWeight="1.0000000000000000e+00" itree="26">
      <Node pos="s" depth="0" NCoef="0" IVar="10" Cut="4.6832752227783203e+01" cType="1" res="2.2524863481521606e-02" rms="4.1642364859580994e-01" purity="5.0813663005828857e-01" nType="0">
        <Node pos="l" depth="1" NCoef="0" IVar="11" Cut="7.3771408081054688e+01" cType="1" res="-6.1111010611057281e-02" rms="4.3072190880775452e-01" purity="3.3707877993583679e-01" nType="0">
          <Node pos="l" depth="2" NCoef="0" IVar="-1" Cut="0.0000000000000000e+00" cType="1" res="-1.2289978563785553e-02" rms="3.9837524294853210e-01" purity="2.1334478259086609e-01" nType="-99"/>
          <Node pos="r" depth="2" NCoef="0" IVar="-1" Cut="0.0000000000000000e+00" cType="1" res="3.2450121361762285e-03" rms="4.6297371387481689e-01" purity="5.4699051380157471e-01" nType="-99"/>
        </Node>
        <Node pos="r" depth="1" NCoef="0" IVar="7" Cut="2.8426976203918457e+00" cType="1" res="1.5855956077575684e-01" rms="3.5188686847686768e-01" purity="7.8636413812637329e-01" nType="0">
          <Node pos="l" depth="2" NCoef="0" IVar="-1" Cut="0.0000000000000000e+00" cType="1" res="1.7445590347051620e-02" rms="2.8274574875831604e-01" purity="8.8329088687896729e-01" nType="-99"/>
          <Node pos="r" depth="2" NCoef="0" IVar="-1" Cut="0.0000000000000000e+00" cType="1" res="3.0723195523023605e-03" rms="4.5098191499710083e-01" purity="5.6345415115356445e-01" nType="-99"/>
        </Node>
      </Node>
    </BinaryTree>
    <BinaryTree type="DecisionTree" boostWeight="1.0000000000000000e+00" itree="27">
      <Node pos="s" depth="0" NCoef="0" IVar="2" Cut="2.9581808090209961e+01" cType="1" res="1.8421899527311325e-02" rms="4.1506204009056091e-01" purity="5.0083380937576294e-01" nType="0">
        <Node pos="l" depth="1" NCoef="0" IVar="7" Cut="2.8433175086975098e+00" cType="1" res="-6.3328370451927185e-02" rms="4.2510467767715454e-01" purity="3.1221556663513184e-01" nType="0">
          <Node pos="l" depth="2" NCoef="0" IVar="-1" Cut="0.0000000000000000e+00" cType="1" res="1.6010680701583624e-03" rms="4.5179349184036255e-01" purity="4.2202693223953247e-01" nType="-99"/>
          <Node pos="r" depth="2" NCoef="0" IVar="-1" Cut="0.0000000000000000e+00" cType="1" res="-1.3147382065653801e-02" rms="3.9059191942214966e-01" purity="2.2445069253444672e-01" nType="-99"/>
        </Node>
        <Node pos="r" depth="1" NCoef="0" IVar="7" Cut="2.9918894767761230e+00" cType="1" res="1.4906701445579529e-01" rms="3.6200016736984253e-01" purity="8.0226463079452515e-01" nType="0">
          <Node pos="l" depth="2" NCoef="0" IVar="-1" Cut="0.0000000000000000e+00" cType="1" res="1.4367863535881042e-02" rms="3.2913443446159363e-01" purity="8.4716409444808960e-01" nType="-99"/>
          <Node pos="r" depth="2" NCoef="0" IVar="-1" Cut="0.0000000000000000e+00" cType="1" res="-7.2482442483305931e-03" rms="4.8140895366668701e-01" purity="4.7569420933723450e-01" nType="-99"/>
        </Node>
      </Node>
    </BinaryTree>
    <BinaryTree type="DecisionTree" boostWeight="1.0000000000000000e+00" itree="28">
      <Node pos="s" depth="0" NCoef="0" IVar="10" Cut="4.6832752227783203e+01" cType="1" res="7.9796807840466499e-03" rms="4.1175803542137146e-01" purity="4.8999917507171631e-01" nType="0">
        <Node pos="l" depth="1" NCoef="0" IVar="7" Cut="2.6944091320037842e+00" cType="1" res="-7.1184635162353516e-02" rms="4.2264702916145325e-01" purity="3.2270762324333191e-01" nType="0">
          <Node pos="l" depth="2" NCoef="0" IVar="-1" Cut="0.0000000000000000e+00" cType="1" res="3.0120541341602802e-03" rms="4.4622936844825745e-01" purity="4.9139931797981262e-01" nType="-99"/>
          <Node pos="r" depth="2" NCoef="0" IVar="-1" Cut="0.0000000000000000e+00" cType="1" res="-1.2649328447878361e-02" rms="3.9764529466629028e-01" purity="2.3230266571044922e-01" nType="-99"/>
        </Node>
        <Node pos="r" depth="1" NCoef="0" IVar="4" Cut="1.9061751365661621e+00" cType="1" res="1.4496214687824249e-01" rms="3.5244098305702209e-01" purity="7.7947318553924561e-01" nType="0">
          <Node pos="l" depth="2" NCoef="0" IVar="-1" Cut="0.0000000000000000e+00" cType="1" res="-7.0542269386351109e-03" rms="4.6221482753753662e-01" purity="3.3571258187294006e-01" nType="-99"/>
          <Node pos="r" depth="2" NCoef="0" IVar="-1" Cut="0.0000000000000000e+00" cType="1" res="1.4480422250926495e-02" rms="3.2413518428802490e-01" purity="8.3806264400482178e-01" nType="-99"/>
        </Node>
      </Node>
    </BinaryTree>
    <BinaryTree type="DecisionTree" boostWeight="1.0000000000000000e+00" itree="29">
      <Node pos="s" depth="0" NCoef="0" IVar="4" Cut="2.4682698249816895e+00" cType="1" res="9.5308283343911171e-03" rms="4.1104272007942200e-01" purity="4.9338176846504211e-01" nType="0">
        <Node pos="l" depth="1" NCoef="0" IVar="1" Cut="6.0880035400390625e+01" cType="1" res="-9.0499430894851685e-02" rms="4.1776871681213379e-01" purity="2.6552301645278931e-01" nType="0">
          <Node pos="l" depth="2" NCoef="0" IVar="-1" Cut="0.0000000000000000e+00" cType="1" res="-1.6959279775619507e-02" rms="3.5740235447883606e-01" purity="1.6833633184432983e-01" nType="-99"/>
          <Node pos="r" depth="2" NCoef="0" IVar="-1" Cut="0.0000000000000000e+00" cType="1" res="-7.6195452129468322e-04" rms="4.6599742770195007e-01" purity="3.7992870807647705e-01" nType="-99"/>
        </Node>
        <Node pos="r" depth="1" NCoef="0" IVar="2" Cut="2.0012302398681641e+01" cType="1" res="1.1562925577163696e-01" rms="3.7573054432868958e-01" purity="7.3506319522857666e-01" nType="0">
          <Node pos="l" depth="2" NCoef="0" IVar="-1" Cut="0.0000000000000000e+00" cType="1" res="-2.2150885779410601e-03" rms="4.3648022413253784e-01" purity="4.4456115365028381e-01" nType="-99"/>
          <Node pos="r" depth="2" NCoef="0" IVar="-1" Cut="0.0000000000000000e+00" cType="1" res="1.2972475960850716e-02" rms="3.4273785352706909e-01" purity="8.2688665390014648e-01" nType="-99"/>
        </Node>
      </Node>
    </BinaryTree>
    <BinaryTree type="DecisionTree" boostWeight="1.0000000000000000e+00" itree="30">
      <Node pos="s" depth="0" NCoef="0" IVar="2" Cut="3.5778816223144531e+01" cType="1" res="1.3308733701705933e-02" rms="4.1097533702850342e-01" purity="4.9712264537811279e-01" nType="0">
        <Node pos="l" depth="1" NCoef="0" IVar="1" Cut="5.9257301330566406e+01" cType="1" res="-4.7701586037874222e-02" rms="4.2966088652610779e-01" purity="3.4876051545143127e-01" nType="0">
          <Node pos="l" depth="2" NCoef="0" IVar="-1" Cut="0.0000000000000000e+00" cType="1" res="-1.0472490452229977e-02" rms="3.9744806289672852e-01" purity="2.8153482079505920e-01" nType="-99"/>
          <Node pos="r" depth="2" NCoef="0" IVar="-1" Cut="0.0000000000000000e+00" cType="1" res="3.1749547924846411e-03" rms="4.5900952816009521e-01" purity="4.4466146826744080e-01" nType="-99"/>
        </Node>
        <Node pos="r" depth="1" NCoef="0" IVar="7" Cut="2.8436315059661865e+00" cType="1" res="1.6532252728939056e-01" rms="3.1205859780311584e-01" purity="8.6678278446197510e-01" nType="0">
          <Node pos="l" depth="2" NCoef="0" IVar="-1" Cut="0.0000000000000000e+00" cType="1" res="1.6388565301895142e-02" rms="2.5653463602066040e-01" purity="9.1824352741241455e-01" nType="-99"/>
          <Node pos="r" depth="2" NCoef="0" IVar="-1" Cut="0.0000000000000000e+00" cType="1" res="1.7943432321771979e-03" rms="4.6127611398696899e-01" purity="6.3790464401245117e-01" nType="-99"/>
        </Node>
      </Node>
    </BinaryTree>
    <BinaryTree type="DecisionTree" boostWeight="1.0000000000000000e+00" itree="31">
      <Node pos="s" depth="0" NCoef="0" IVar="10" Cut="3.7780334472656250e+01" cType="1" res="1.3168526813387871e-02" rms="4.0849819779396057e-01" purity="4.9744552373886108e-01" nType="0">
        <Node pos="l" depth="1" NCoef="0" IVar="1" Cut="6.0882453918457031e+01" cType="1" res="-8.5943803191184998e-02" rms="4.1626164317131042e-01" purity="2.8366851806640625e-01" nType="0">
          <Node pos="l" depth="2" NCoef="0" IVar="-1" Cut="0.0000000000000000e+00" cType="1" res="-1.4350523240864277e-02" rms="3.7268453836441040e-01" purity="2.0183563232421875e-01" nType="-99"/>
          <Node pos="r" depth="2" NCoef="0" IVar="-1" Cut="0.0000000000000000e+00" cType="1" res="-7.6993083348497748e-04" rms="4.6053382754325867e-01" purity="4.0030172467231750e-01" nType="-99"/>
        </Node>
        <Node pos="r" depth="1" NCoef="0" IVar="7" Cut="2.8434553146362305e+00" cType="1" res="1.0911266505718231e-01" rms="3.7677308917045593e-01" purity="7.0438903570175171e-01" nType="0">
          <Node pos="l" depth="2" NCoef="0" IVar="-1" Cut="0.0000000000000000e+00" cType="1" res="1.4546194113790989e-02" rms="3.1658947467803955e-01" purity="8.2919532060623169e-01" nType="-99"/>
          <Node pos="r" depth="2" NCoef="0" IVar="-1" Cut="0.0000000000000000e+00" cType="1" res="-7.6224113581702113e-04" rms="4.4612380862236023e-01" purity="4.7026747465133667e-01" nType="-99"/>
        </Node>
      </Node>
    </BinaryTree>
    <BinaryTree type="DecisionTree" boostWeight="1.0000000000000000e+00" itree="32">
      <Node pos="s" depth="0" NCoef="0" IVar="7" Cut="2.6933465003967285e+00" cType="1" res="1.6530890017747879e-02" rms="4.0686777234077454e-01" purity="5.0322854518890381e-01" nType="0">
        <Node pos="l" depth="1" NCoef="0" IVar="10" Cut="3.7958698272705078e+01" cType="1" res="1.2264958769083023e-01" rms="3.7095499038696289e-01" purity="7.1010345220565796e-01" nType="0">
          <Node pos="l" depth="2" NCoef="0" IVar="-1" Cut="0.0000000000000000e+00" cType="1" res="1.6289624618366361e-03" rms="4.5067688822746277e-01" purity="4.4291302561759949e-01" nType="-99"/>
          <Node pos="r" depth="2" NCoef="0" IVar="-1" Cut="0.0000000000000000e+00" cType="1" res="1.5571214258670807e-02" rms="3.0080494284629822e-01" purity="8.6275851726531982e-01" nType="-99"/>
        </Node>
        <Node pos="r" depth="1" NCoef="0" IVar="1" Cut="5.9257301330566406e+01" cType="1" res="-6.9175384938716888e-02" rms="4.1432037949562073e-01" purity="3.3614695072174072e-01" nType="0">
          <Node pos="l" depth="2" NCoef="0" IVar="-1" Cut="0.0000000000000000e+00" cType="1" res="-1.7661156132817268e-02" rms="3.5420534014701843e-01" purity="1.8943710625171661e-01" nType="-99"/>
          <Node pos="r" depth="2" NCoef="0" IVar="-1" Cut="0.0000000000000000e+00" cType="1" res="1.2296360218897462e-03" rms="4.4364351034164429e-01" purity="4.6328124403953552e-01" nType="-99"/>
        </Node>
      </Node>
    </BinaryTree>
    <BinaryTree type="DecisionTree" boostWeight="1.0000000000000000e+00" itree="33">
      <Node pos="s" depth="0" NCoef="0" IVar="4" Cut="3.0303130149841309e+00" cType="1" res="1.6450846567749977e-02" rms="4.0457805991172791e-01" purity="5.0256663560867310e-01" nType="0">
        <Node pos="l" depth="1" NCoef="0" IVar="1" Cut="5.7449111938476562e+01" cType="1" res="-4.7777831554412842e-02" rms="4.2749163508415222e-01" purity="3.3073037862777710e-01" nType="0">
          <Node pos="l" depth="2" NCoef="0" IVar="-1" Cut="0.0000000000000000e+00" cType="1" res="-1.1718980967998505e-02" rms="3.8018766045570374e-01" purity="2.2392524778842926e-01" nType="-99"/>
          <Node pos="r" depth="2" NCoef="0" IVar="-1" Cut="0.0000000000000000e+00" cType="1" res="1.5574021963402629e-03" rms="4.6092206239700317e-01" purity="4.3778631091117859e-01" nType="-99"/>
        </Node>
        <Node pos="r" depth="1" NCoef="0" IVar="4" Cut="4.0742154121398926e+00" cType="1" res="1.4240846037864685e-01" rms="3.1990408897399902e-01" purity="8.3955144882202148e-01" nType="0">
          <Node pos="l" depth="2" NCoef="0" IVar="-1" Cut="0.0000000000000000e+00" cType="1" res="6.5181273967027664e-03" rms="3.9565670490264893e-01" purity="7.2498255968093872e-01" nType="-99"/>
          <Node pos="r" depth="2" NCoef="0" IVar="-1" Cut="0.0000000000000000e+00" cType="1" res="1.7396744340658188e-02" rms="2.2474293410778046e-01" purity="9.3575942516326904e-01" nType="-99"/>
        </Node>
      </Node>
    </BinaryTree>
    <BinaryTree type="DecisionTree" boostWeight="1.0000000000000000e+00" itree="34">
      <Node pos="s" depth="0" NCoef="0" IVar="4" Cut="3.2969763278961182e+00" cType="1" res="1.3949425891041756e-02" rms="4.0593019127845764e-01" purity="4.9919351935386658e-01" nType="0">
        <Node pos="l" depth="1" NCoef="0" IVar="1" Cut="6.0882621765136719e+01" cType="1" res="-4.1497677564620972e-02" rms="4.2923712730407715e-01" purity="3.5164672136306763e-01" nType="0">
          <Node pos="l" depth="2" NCoef="0" IVar="-1" Cut="0.0000000000000000e+00" cType="1" res="-1.0415680706501007e-02" rms="3.9466476440429688e-01" purity="2.5346171855926514e-01" nType="-99"/>
          <Node pos="r" depth="2" NCoef="0" IVar="-1" Cut="0.0000000000000000e+00" cType="1" res="2.7417473029345274e-03" rms="4.5752131938934326e-01" purity="4.7167140245437622e-01" nType="-99"/>
        </Node>
        <Node pos="r" depth="1" NCoef="0" IVar="10" Cut="4.6187240600585938e+01" cType="1" res="1.5165352821350098e-01" rms="2.9973214864730835e-01" purity="8.6562931537628174e-01" nType="0">
          <Node pos="l" depth="2" NCoef="0" IVar="-1" Cut="0.0000000000000000e+00" cType="1" res="4.8685409128665924e-03" rms="4.3496468663215637e-01" purity="6.5463483333587646e-01" nType="-99"/>
          <Node pos="r" depth="2" NCoef="0" IVar="-1" Cut="0.0000000000000000e+00" cType="1" res="1.6476299613714218e-02" rms="2.3343268036842346e-01" purity="9.3361949920654297e-01" nType="-99"/>
        </Node>
      </Node>
    </BinaryTree>
    <BinaryTree type="DecisionTree" boostWeight="1.0000000000000000e+00" itree="35">
      <Node pos="s" depth="0" NCoef="0" IVar="10" Cut="4.6832752227783203e+01" cType="1" res="1.6887703910470009e-02" rms="4.0381848812103271e-01" purity="5.0445598363876343e-01" nType="0">
        <Node pos="l" depth="1" NCoef="0" IVar="7" Cut="2.8436369895935059e+00" cType="1" res="-5.2108675241470337e-02" rms="4.2323428392410278e-01" purity="3.3309510350227356e-01" nType="0">
          <Node pos="l" depth="2" NCoef="0" IVar="-1" Cut="0.0000000000000000e+00" cType="1" res="1.0094527387991548e-03" rms="4.4310966134071350e-01" purity="4.4716656208038330e-01" nType="-99"/>
          <Node pos="r" depth="2" NCoef="0" IVar="-1" Cut="0.0000000000000000e+00" cType="1" res="-1.1820561252534389e-02" rms="3.9334252476692200e-01" purity="2.2255153954029083e-01" nType="-99"/>
        </Node>
        <Node pos="r" depth="1" NCoef="0" IVar="7" Cut="2.8432910442352295e+00" cType="1" res="1.3291886448860168e-01" rms="3.3852013945579529e-01" purity="7.9263335466384888e-01" nType="0">
          <Node pos="l" depth="2" NCoef="0" IVar="-1" Cut="0.0000000000000000e+00" cType="1" res="1.6001343727111816e-02" rms="2.7001759409904480e-01" purity="8.8918775320053101e-01" nType="-99"/>
          <Node pos="r" depth="2" NCoef="0" IVar="-1" Cut="0.0000000000000000e+00" cType="1" res="2.8590555302798748e-03" rms="4.4374725222587585e-01" purity="5.6858611106872559e-01" nType="-99"/>
        </Node>
      </Node>
    </BinaryTree>
    <BinaryTree type="DecisionTree" boostWeight="1.0000000000000000e+00" itree="36">
      <Node pos="s" depth="0" NCoef="0" IVar="7" Cut="2.6933534145355225e+00" cType="1" res="1.7355337738990784e-02" rms="4.0021738409996033e-01" purity="5.0570803880691528e-01" nType="0">
        <Node pos="l" depth="1" NCoef="0" IVar="2" Cut="1.8160234451293945e+01" cType="1" res="1.1179209500551224e-01" rms="3.6291342973709106e-01" purity="7.1073484420776367e-01" nType="0">
          <Node pos="l" depth="2" NCoef="0" IVar="-1" Cut="0.0000000000000000e+00" cType="1" res="-5.9468536637723446e-03" rms="4.1088140010833740e-01" purity="3.1708571314811707e-01" nType="-99"/>
          <Node pos="r" depth="2" NCoef="0" IVar="-1" Cut="0.0000000000000000e+00" cType="1" res="1.2885268777608871e-02" rms="3.3949846029281616e-01" purity="8.0161142349243164e-01" nType="-99"/>
        </Node>
        <Node pos="r" depth="1" NCoef="0" IVar="1" Cut="5.9257301330566406e+01" cType="1" res="-5.9663888067007065e-02" rms="4.1253590583801270e-01" purity="3.3849558234214783e-01" nType="0">
          <Node pos="l" depth="2" NCoef="0" IVar="-1" Cut="0.0000000000000000e+00" cType="1" res="-1.5297274105250835e-02" rms="3.6580568552017212e-01" purity="1.9776977598667145e-01" nType="-99"/>
          <Node pos="r" depth="2" NCoef="0" IVar="-1" Cut="0.0000000000000000e+00" cType="1" res="1.0581776732578874e-03" rms="4.3820837140083313e-01" purity="4.6458968520164490e-01" nType="-99"/>
        </Node>
      </Node>
    </BinaryTree>
    <BinaryTree type="DecisionTree" boostWeight="1.0000000000000000e+00" itree="37">
      <Node pos="s" depth="0" NCoef="0" IVar="10" Cut="2.6316968917846680e+01" cType="1" res="1.5615209005773067e-02" rms="4.0106254816055298e-01" purity="5.0010550022125244e-01" nType="0">
        <Node pos="l" depth="1" NCoef="0" IVar="1" Cut="6.7576286315917969e+01" cType="1" res="-1.1444146931171417e-01" rms="3.8944306969642639e-01" purity="2.2570814192295074e-01" nType="0">
          <Node pos="l" depth="2" NCoef="0" IVar="-1" Cut="0.0000000000000000e+00" cType="1" res="-1.5519692562520504e-02" rms="3.5244122147560120e-01" purity="1.6866625845432281e-01" nType="-99"/>
          <Node pos="r" depth="2" NCoef="0" IVar="-1" Cut="0.0000000000000000e+00" cType="1" res="-4.5916461385786533e-03" rms="4.5258164405822754e-01" purity="3.4913340210914612e-01" nType="-99"/>
        </Node>
        <Node pos="r" depth="1" NCoef="0" IVar="7" Cut="2.6943790912628174e+00" cType="1" res="6.9050714373588562e-02" rms="3.9347180724143982e-01" purity="6.1284530162811279e-01" nType="0">
          <Node pos="l" depth="2" NCoef="0" IVar="-1" Cut="0.0000000000000000e+00" cType="1" res="1.2892525643110275e-02" rms="3.3604419231414795e-01" purity="7.8865098953247070e-01" nType="-99"/>
          <Node pos="r" depth="2" NCoef="0" IVar="-1" Cut="0.0000000000000000e+00" cType="1" res="-9.4178481958806515e-04" rms="4.3125122785568237e-01" purity="4.3053406476974487e-01" nType="-99"/>
        </Node>
      </Node>
    </BinaryTree>
    <BinaryTree type="DecisionTree" boostWeight="1.0000000000000000e+00" itree="38">
      <Node pos="s" depth="0" NCoef="0" IVar="10" Cut="3.8973548889160156e+01" cType="1" res="1.8349288031458855e-02" rms="3.9874613285064697e-01" purity="5.0625103712081909e-01" nType="0">
        <Node pos="l" depth="1" NCoef="0" IVar="7" Cut="2.9921312332153320e+00" cType="1" res="-6.3592910766601562e-02" rms="4.1284656524658203e-01" purity="2.9570430517196655e-01" nType="0">
          <Node pos="l" depth="2" NCoef="0" IVar="-1" Cut="0.0000000000000000e+00" cType="1" res="-1.9209596794098616e-03" rms="4.3297111988067627e-01" purity="3.6107459664344788e-01" nType="-99"/>
          <Node pos="r" depth="2" NCoef="0" IVar="-1" Cut="0.0000000000000000e+00" cType="1" res="-1.7142485827207565e-02" rms="3.4885692596435547e-01" purity="1.5650026500225067e-01" nType="-99"/>
        </Node>
        <Node pos="r" depth="1" NCoef="0" IVar="4" Cut="2.0429685115814209e+00" cType="1" res="1.0371760278940201e-01" rms="3.6440795660018921e-01" purity="7.2560101747512817e-01" nType="0">
          <Node pos="l" depth="2" NCoef="0" IVar="-1" Cut="0.0000000000000000e+00" cType="1" res="-4.9651823937892914e-03" rms="4.4895249605178833e-01" purity="3.2949912548065186e-01" nType="-99"/>
          <Node pos="r" depth="2" NCoef="0" IVar="-1" Cut="0.0000000000000000e+00" cType="1" res="1.2636388652026653e-02" rms="3.3159890770912170e-01" purity="8.1679612398147583e-01" nType="-99"/>
        </Node>
      </Node>
    </BinaryTree>
    <BinaryTree type="DecisionTree" boostWeight="1.0000000000000000e+00" itree="39">
      <Node pos="s" depth="0" NCoef="0" IVar="2" Cut="3.2333129882812500e+01" cType="1" res="2.5899992324411869e-03" rms="3.9242640137672424e-01" purity="4.8830249905586243e-01" nType="0">
        <Node pos="l" depth="1" NCoef="0" IVar="10" Cut="2.0596616744995117e+01" cType="1" res="-6.2268465757369995e-02" rms="4.0684074163436890e-01" purity="3.0627885460853577e-01" nType="0">
          <Node pos="l" depth="2" NCoef="0" IVar="-1" Cut="0.0000000000000000e+00" cType="1" res="-1.7834084108471870e-02" rms="3.2802206277847290e-01" purity="1.3121317327022552e-01" nType="-99"/>
          <Node pos="r" depth="2" NCoef="0" IVar="-1" Cut="0.0000000000000000e+00" cType="1" res="-2.7555085252970457e-03" rms="4.2603641748428345e-01" purity="3.6793929338455200e-01" nType="-99"/>
        </Node>
        <Node pos="r" depth="1" NCoef="0" IVar="7" Cut="2.9922664165496826e+00" cType="1" res="1.2850634753704071e-01" rms="3.2803985476493835e-01" purity="8.4168362617492676e-01" nType="0">
          <Node pos="l" depth="2" NCoef="0" IVar="-1" Cut="0.0000000000000000e+00" cType="1" res="1.3896318152546883e-02" rms="2.9237198829650879e-01" purity="8.8637506961822510e-01" nType="-99"/>
          <Node pos="r" depth="2" NCoef="0" IVar="-1" Cut="0.0000000000000000e+00" cType="1" res="-8.7357256561517715e-03" rms="4.7714003920555115e-01" purity="4.6997711062431335e-01" nType="-99"/>
        </Node>
      </Node>
    </BinaryTree>
    <BinaryTree type="DecisionTree" boostWeight="1.0000000000000000e+00" itree="40">
      <Node pos="s" depth="0" NCoef="0" IVar="4" Cut="3.0069839954376221e+00" cType="1" res="1.3077916577458382e-02" rms="3.9906588196754456e-01" purity="4.9752950668334961e-01" nType="0">
        <Node pos="l" depth="1" NCoef="0" IVar="7" Cut="2.6977601051330566e+00" cType="1" res="-4.1364300996065140e-02" rms="4.2198598384857178e-01" purity="3.2724913954734802e-01" nType="0">
          <Node pos="l" depth="2" NCoef="0" IVar="-1" Cut="0.0000000000000000e+00" cType="1" res="3.1995053868740797e-03" rms="4.5163100957870483e-01" purity="4.7289237380027771e-01" nType="-99"/>
          <Node pos="r" depth="2" NCoef="0" IVar="-1" Cut="0.0000000000000000e+00" cType="1" res="-8.0735255032777786e-03" rms="4.0242701768875122e-01" purity="2.5991067290306091e-01" nType="-99"/>
        </Node>
        <Node pos="r" depth="1" NCoef="0" IVar="2" Cut="2.4208299636840820e+01" cType="1" res="1.1849095672369003e-01" rms="3.2552340626716614e-01" purity="8.2723265886306763e-01" nType="0">
          <Node pos="l" depth="2" NCoef="0" IVar="-1" Cut="0.0000000000000000e+00" cType="1" res="1.8265136750414968e-03" rms="4.3852981925010681e-01" purity="5.9894937276840210e-01" nType="-99"/>
          <Node pos="r" depth="2" NCoef="0" IVar="-1" Cut="0.0000000000000000e+00" cType="1" res="1.3958988711237907e-02" rms="2.7271544933319092e-01" purity="9.0029215812683105e-01" nType="-99"/>
        </Node>
      </Node>
    </BinaryTree>
    <BinaryTree type="DecisionTree" boostWeight="1.0000000000000000e+00" itree="41">
      <Node pos="s" depth="0" NCoef="0" IVar="10" Cut="4.6923175811767578e+01" cType="1" res="1.5463450923562050e-02" rms="3.9877507090568542e-01" purity="5.0271683931350708e-01" nType="0">
        <Node pos="l" depth="1" NCoef="0" IVar="7" Cut="2.6934370994567871e+00" cType="1" res="-4.0747102349996567e-02" rms="4.1870304942131042e-01" purity="3.3570361137390137e-01" nType="0">
          <Node pos="l" depth="2" NCoef="0" IVar="-1" Cut="0.0000000000000000e+00" cType="1" res="3.2034423202276230e-03" rms="4.4208794832229614e-01" purity="5.0452458858489990e-01" nType="-99"/>
          <Node pos="r" depth="2" NCoef="0" IVar="-1" Cut="0.0000000000000000e+00" cType="1" res="-8.7320711463689804e-03" rms="3.9931377768516541e-01" purity="2.4481698870658875e-01" nType="-99"/>
        </Node>
        <Node pos="r" depth="1" NCoef="0" IVar="0" Cut="1.9904762268066406e+01" cType="1" res="1.0904247313737869e-01" rms="3.4334203600883484e-01" purity="7.8075963258743286e-01" nType="0">
          <Node pos="l" depth="2" NCoef="0" IVar="-1" Cut="0.0000000000000000e+00" cType="1" res="1.3953580521047115e-02" rms="3.0646833777427673e-01" purity="8.4221845865249634e-01" nType="-99"/>
          <Node pos="r" depth="2" NCoef="0" IVar="-1" Cut="0.0000000000000000e+00" cType="1" res="3.3061939757317305e-03" rms="3.8557490706443787e-01" purity="6.7775195837020874e-01" nType="-99"/>
        </Node>
      </Node>
    </BinaryTree>
    <BinaryTree type="DecisionTree" boostWeight="1.0000000000000000e+00" itree="42">
      <Node pos="s" depth="0" NCoef="0" IVar="7" Cut="2.6949212551116943e+00" cType="1" res="1.4091367833316326e-02" rms="3.9635822176933289e-01" purity="5.0253981351852417e-01" nType="0">
        <Node pos="l" depth="1" NCoef="0" IVar="2" Cut="2.0007987976074219e+01" cType="1" res="9.3838833272457123e-02" rms="3.6273843050003052e-01" purity="7.0348638296127319e-01" nType="0">
          <Node pos="l" depth="2" NCoef="0" IVar="-1" Cut="0.0000000000000000e+00" cType="1" res="-3.1183720566332340e-03" rms="4.2133566737174988e-01" purity="3.4437438845634460e-01" nType="-99"/>
          <Node pos="r" depth="2" NCoef="0" IVar="-1" Cut="0.0000000000000000e+00" cType="1" res="1.1420178227126598e-02" rms="3.3643010258674622e-01" purity="8.0395543575286865e-01" nType="-99"/>
        </Node>
        <Node pos="r" depth="1" NCoef="0" IVar="1" Cut="6.0882453918457031e+01" cType="1" res="-5.1731389015913010e-02" rms="4.1058802604675293e-01" purity="3.3668047189712524e-01" nType="0">
          <Node pos="l" depth="2" NCoef="0" IVar="-1" Cut="0.0000000000000000e+00" cType="1" res="-1.3548813760280609e-02" rms="3.6248412728309631e-01" purity="2.0288367569446564e-01" nType="-99"/>
          <Node pos="r" depth="2" NCoef="0" IVar="-1" Cut="0.0000000000000000e+00" cType="1" res="1.3896439922973514e-03" rms="4.4213685393333435e-01" purity="4.6608528494834900e-01" nType="-99"/>
        </Node>
      </Node>
    </BinaryTree>
    <BinaryTree type="DecisionTree" boostWeight="1.0000000000000000e+00" itree="43">
      <Node pos="s" depth="0" NCoef="0" IVar="2" Cut="2.6667213439941406e+01" cType="1" res="9.8363952711224556e-03" rms="3.9410179853439331e-01" purity="4.9399778246879578e-01" nType="0">
        <Node pos="l" depth="1" NCoef="0" IVar="1" Cut="1.0520116424560547e+02" cType="1" res="-5.8463621884584427e-02" rms="3.9898079633712769e-01" purity="2.7431711554527283e-01" nType="0">
          <Node pos="l" depth="2" NCoef="0" IVar="-1" Cut="0.0000000000000000e+00" cType="1" res="-8.0638723447918892e-03" rms="3.9057278633117676e-01" purity="2.5457403063774109e-01" nType="-99"/>
          <Node pos="r" depth="2" NCoef="0" IVar="-1" Cut="0.0000000000000000e+00" cType="1" res="1.2139718048274517e-02" rms="4.4768628478050232e-01" purity="5.0539207458496094e-01" nType="-99"/>
        </Node>
        <Node pos="r" depth="1" NCoef="0" IVar="8" Cut="1.1971757411956787e+00" cType="1" res="9.2176623642444611e-02" rms="3.7181660532951355e-01" purity="7.5883752107620239e-01" nType="0">
          <Node pos="l" depth="2" NCoef="0" IVar="-1" Cut="0.0000000000000000e+00" cType="1" res="-3.0417516245506704e-04" rms="4.6329933404922485e-01" purity="5.6056702136993408e-01" nType="-99"/>
          <Node pos="r" depth="2" NCoef="0" IVar="-1" Cut="0.0000000000000000e+00" cType="1" res="1.2204297818243504e-02" rms="3.1412160396575928e-01" purity="8.4633058309555054e-01" nType="-99"/>
        </Node>
      </Node>
    </BinaryTree>
    <BinaryTree type="DecisionTree" boostWeight="1.0000000000000000e+00" itree="44">
      <Node pos="s" depth="0" NCoef="0" IVar="10" Cut="4.6832752227783203e+01" cType="1" res="1.1407367885112762e-02" rms="3.9493051171302795e-01" purity="4.9666428565979004e-01" nType="0">
        <Node pos="l" depth="1" NCoef="0" IVar="10" Cut="2.9035335540771484e+01" cType="1" res="-4.6636179089546204e-02" rms="4.1646659374237061e-01" purity="3.2296231389045715e-01" nType="0">
          <Node pos="l" depth="2" NCoef="0" IVar="-1" Cut="0.0000000000000000e+00" cType="1" res="-1.1012820526957512e-02" rms="3.9160686731338501e-01" purity="2.2179876267910004e-01" nType="-99"/>
          <Node pos="r" depth="2" NCoef="0" IVar="-1" Cut="0.0000000000000000e+00" cType="1" res="1.7636794364079833e-03" rms="4.3415254354476929e-01" purity="4.3950074911117554e-01" nType="-99"/>
        </Node>
        <Node pos="r" depth="1" NCoef="0" IVar="4" Cut="1.9061751365661621e+00" cType="1" res="1.0977803170681000e-01" rms="3.3311939239501953e-01" purity="7.9104977846145630e-01" nType="0">
          <Node pos="l" depth="2" NCoef="0" IVar="-1" Cut="0.0000000000000000e+00" cType="1" res="-6.3078254461288452e-03" rms="4.5487999916076660e-01" purity="3.3125549554824829e-01" nType="-99"/>
          <Node pos="r" depth="2" NCoef="0" IVar="-1" Cut="0.0000000000000000e+00" cType="1" res="1.2377972714602947e-02" rms="3.0998927354812622e-01" purity="8.4385782480239868e-01" nType="-99"/>
        </Node>
      </Node>
    </BinaryTree>
    <BinaryTree type="DecisionTree" boostWeight="1.0000000000000000e+00" itree="45">
      <Node pos="s" depth="0" NCoef="0" IVar="2" Cut="3.3333332061767578e+01" cType="1" res="1.3045556843280792e-02" rms="3.9453899860382080e-01" purity="5.0194686651229858e-01" nType="0">
        <Node pos="l" depth="1" NCoef="0" IVar="10" Cut="5.1635086059570312e+01" cType="1" res="-3.5208538174629211e-02" rms="4.1626909375190735e-01" purity="3.3283978700637817e-01" nType="0">
          <Node pos="l" depth="2" NCoef="0" IVar="-1" Cut="0.0000000000000000e+00" cType="1" res="-7.0763383992016315e-03" rms="4.0764075517654419e-01" purity="2.4833509325981140e-01" nType="-99"/>
          <Node pos="r" depth="2" NCoef="0" IVar="-1" Cut="0.0000000000000000e+00" cType="1" res="7.4198818765580654e-03" rms="4.2645794153213501e-01" purity="6.5457087755203247e-01" nType="-99"/>
        </Node>
        <Node pos="r" depth="1" NCoef="0" IVar="7" Cut="2.9921398162841797e+00" cType="1" res="1.1200367659330368e-01" rms="3.2397654652595520e-01" purity="8.4874683618545532e-01" nType="0">
          <Node pos="l" depth="2" NCoef="0" IVar="-1" Cut="0.0000000000000000e+00" cType="1" res="1.2494860216975212e-02" rms="2.9444101452827454e-01" purity="8.8681405782699585e-01" nType="-99"/>
          <Node pos="r" depth="2" NCoef="0" IVar="-1" Cut="0.0000000000000000e+00" cType="1" res="-5.5764950811862946e-03" rms="4.8072317242622375e-01" purity="5.1055914163589478e-01" nType="-99"/>
        </Node>
      </Node>
    </BinaryTree>
    <BinaryTree type="DecisionTree" boostWeight="1.0000000000000000e+00" itree="46">
      <Node pos="s" depth="0" NCoef="0" IVar="7" Cut="2.6932578086853027e+00" cType="1" res="1.6937477514147758e-02" rms="3.9266958832740784e-01" purity="5.0453758239746094e-01" nType="0">
        <Node pos="l" depth="1" NCoef="0" IVar="11" Cut="6.0552204132080078e+01" cType="1" res="9.4605959951877594e-02" rms="3.6009189486503601e-01" purity="7.0628619194030762e-01" nType="0">
          <Node pos="l" depth="2" NCoef="0" IVar="-1" Cut="0.0000000000000000e+00" cType="1" res="-1.1313952272757888e-03" rms="4.3193328380584717e-01" purity="3.7922161817550659e-01" nType="-99"/>
          <Node pos="r" depth="2" NCoef="0" IVar="-1" Cut="0.0000000000000000e+00" cType="1" res="1.2288914993405342e-02" rms="3.2317981123924255e-01" purity="8.2054746150970459e-01" nType="-99"/>
        </Node>
        <Node pos="r" depth="1" NCoef="0" IVar="1" Cut="6.0882453918457031e+01" cType="1" res="-4.8075933009386063e-02" rms="4.0674394369125366e-01" purity="3.3566129207611084e-01" nType="0">
          <Node pos="l" depth="2" NCoef="0" IVar="-1" Cut="0.0000000000000000e+00" cType="1" res="-1.3834047131240368e-02" rms="3.5383757948875427e-01" purity="1.9414284825325012e-01" nType="-99"/>
          <Node pos="r" depth="2" NCoef="0" IVar="-1" Cut="0.0000000000000000e+00" cType="1" res="1.5011520590633154e-03" rms="4.4083687663078308e-01" purity="4.6741604804992676e-01" nType="-99"/>
        </Node>
      </Node>
    </BinaryTree>
    <BinaryTree type="DecisionTree" boostWeight="1.0000000000000000e+00" itree="47">
      <Node pos="s" depth="0" NCoef="0" IVar="10" Cut="3.7722427368164062e+01" cType="1" res="1.4601642265915871e-02" rms="3.9546340703964233e-01" purity="4.9951249361038208e-01" nType="0">
        <Node pos="l" depth="1" NCoef="0" IVar="1" Cut="6.0882621765136719e+01" cType="1" res="-5.2704408764839172e-02" rms="4.1161459684371948e-01" purity="2.8650379180908203e-01" nType="0">
          <Node pos="l" depth="2" NCoef="0" IVar="-1" Cut="0.0000000000000000e+00" cType="1" res="-1.0552914813160896e-02" rms="3.6904826760292053e-01" purity="2.0456992089748383e-01" nType="-99"/>
          <Node pos="r" depth="2" NCoef="0" IVar="-1" Cut="0.0000000000000000e+00" cType="1" res="5.1187549252063036e-04" rms="4.5938375592231750e-01" purity="4.0334329009056091e-01" nType="-99"/>
        </Node>
        <Node pos="r" depth="1" NCoef="0" IVar="7" Cut="2.8440601825714111e+00" cType="1" res="8.0292053520679474e-02" rms="3.6733141541481018e-01" purity="7.0740801095962524e-01" nType="0">
          <Node pos="l" depth="2" NCoef="0" IVar="-1" Cut="0.0000000000000000e+00" cType="1" res="1.1851743794977665e-02" rms="3.1748303771018982e-01" purity="8.2496505975723267e-01" nType="-99"/>
          <Node pos="r" depth="2" NCoef="0" IVar="-1" Cut="0.0000000000000000e+00" cType="1" res="-8.2327984273433685e-04" rms="4.4140073657035828e-01" purity="4.6078026294708252e-01" nType="-99"/>
        </Node>
      </Node>
    </BinaryTree>
    <BinaryTree type="DecisionTree" boostWeight="1.0000000000000000e+00" itree="48">
      <Node pos="s" depth="0" NCoef="0" IVar="4" Cut="2.4682698249816895e+00" cType="1" res="1.1505815200507641e-02" rms="3.9389705657958984e-01" purity="4.9509340524673462e-01" nType="0">
        <Node pos="l" depth="1" NCoef="0" IVar="2" Cut="1.7514238357543945e+01" cType="1" res="-5.2136272192001343e-02" rms="4.1139194369316101e-01" purity="2.7501541376113892e-01" nType="0">
          <Node pos="l" depth="2" NCoef="0" IVar="-1" Cut="0.0000000000000000e+00" cType="1" res="-1.4583917334675789e-02" rms="3.4069252014160156e-01" purity="1.4072808623313904e-01" nType="-99"/>
          <Node pos="r" depth="2" NCoef="0" IVar="-1" Cut="0.0000000000000000e+00" cType="1" res="-7.4009649688377976e-04" rms="4.5531567931175232e-01" purity="3.8207152485847473e-01" nType="-99"/>
        </Node>
        <Node pos="r" depth="1" NCoef="0" IVar="7" Cut="2.8426196575164795e+00" cType="1" res="8.0445766448974609e-02" rms="3.6159849166870117e-01" purity="7.3349171876907349e-01" nType="0">
          <Node pos="l" depth="2" NCoef="0" IVar="-1" Cut="0.0000000000000000e+00" cType="1" res="1.1219545267522335e-02" rms="3.2053849101066589e-01" purity="8.2686507701873779e-01" nType="-99"/>
          <Node pos="r" depth="2" NCoef="0" IVar="-1" Cut="0.0000000000000000e+00" cType="1" res="-1.2822978897020221e-03" rms="4.3815720081329346e-01" purity="4.8781302571296692e-01" nType="-99"/>
        </Node>
      </Node>
    </BinaryTree>
    <BinaryTree type="DecisionTree" boostWeight="1.0000000000000000e+00" itree="49">
      <Node pos="s" depth="0" NCoef="0" IVar="10" Cut="4.6832752227783203e+01" cType="1" res="1.3782659545540810e-02" rms="3.9115667343139648e-01" purity="5.0201129913330078e-01" nType="0">
        <Node pos="l" depth="1" NCoef="0" IVar="10" Cut="2.6808269500732422e+01" cType="1" res="-3.4687317907810211e-02" rms="4.1381075978279114e-01" purity="3.3151668310165405e-01" nType="0">
          <Node pos="l" depth="2" NCoef="0" IVar="-1" Cut="0.0000000000000000e+00" cType="1" res="-9.4846757128834724e-03" rms="3.8670375943183899e-01" purity="2.2875601053237915e-01" nType="-99"/>
          <Node pos="r" depth="2" NCoef="0" IVar="-1" Cut="0.0000000000000000e+00" cType="1" res="1.5617529861629009e-03" rms="4.3167179822921753e-01" purity="4.2845985293388367e-01" nType="-99"/>
        </Node>
        <Node pos="r" depth="1" NCoef="0" IVar="7" Cut="2.8433563709259033e+00" cType="1" res="9.1741181910037994e-02" rms="3.3736789226531982e-01" purity="7.7623289823532104e-01" nType="0">
          <Node pos="l" depth="2" NCoef="0" IVar="-1" Cut="0.0000000000000000e+00" cType="1" res="1.3151123188436031e-02" rms="2.7011540532112122e-01" purity="8.8128024339675903e-01" nType="-99"/>
          <Node pos="r" depth="2" NCoef="0" IVar="-1" Cut="0.0000000000000000e+00" cType="1" res="8.5110333748161793e-04" rms="4.4722503423690796e-01" purity="5.2989983558654785e-01" nType="-99"/>
        </Node>
      </Node>
    </BinaryTree>
    <BinaryTree type="DecisionTree" boostWeight="1.0000000000000000e+00" itree="50">
      <Node pos="s" depth="0" NCoef="0" IVar="10" Cut="4.6923175811767578e+01" cType="1" res="2.2360343486070633e-02" rms="3.8974347710609436e-01" purity="5.1122879981994629e-01" nType="0">
        <Node pos="l" depth="1" NCoef="0" IVar="2" Cut="4.0004943847656250e+01" cType="1" res="-2.4446217343211174e-02" rms="4.1514885425567627e-01" purity="3.3926510810852051e-01" nType="0">
          <Node pos="l" depth="2" NCoef="0" IVar="-1" Cut="0.0000000000000000e+00" cType="1" res="-4.4697346165776253e-03" rms="4.1546413302421570e-01" purity="2.8497874736785889e-01" nType="-99"/>
          <Node pos="r" depth="2" NCoef="0" IVar="-1" Cut="0.0000000000000000e+00" cType="1" res="1.0264356620609760e-02" rms="3.7985408306121826e-01" purity="7.9396551847457886e-01" nType="-99"/>
        </Node>
        <Node pos="r" depth="1" NCoef="0" IVar="0" Cut="1.8714284896850586e+01" cType="1" res="9.9607668817043304e-02" rms="3.2949924468994141e-01" purity="7.9502940177917480e-01" nType="0">
          <Node pos="l" depth="2" NCoef="0" IVar="-1" Cut="0.0000000000000000e+00" cType="1" res="1.4455758966505527e-02" rms="2.8076657652854919e-01" purity="8.6991035938262939e-01" nType="-99"/>
          <Node pos="r" depth="2" NCoef="0" IVar="-1" Cut="0.0000000000000000e+00" cType="1" res="4.0306551381945610e-03" rms="3.7361848354339600e-01" purity="7.0004898309707642e-01" nType="-99"/>
        </Node>
      </Node>
    </BinaryTree>
    <BinaryTree type="DecisionTree" boostWeight="1.0000000000000000e+00" itree="51">
      <Node pos="s" depth="0" NCoef="0" IVar="7" Cut="2.8427648544311523e+00" cType="1" res="1.5943428501486778e-02" rms="3.9239743351936340e-01" purity="5.0215834379196167e-01" nType="0">
        <Node pos="l" depth="1" NCoef="0" IVar="11" Cut="4.1437362670898438e+01" cType="1" res="6.8316772580146790e-02" rms="3.7605825066566467e-01" purity="6.5383410453796387e-01" nType="0">
          <Node pos="l" depth="2" NCoef="0" IVar="-1" Cut="0.0000000000000000e+00" cType="1" res="-8.0932229757308960e-03" rms="3.9566379785537720e-01" purity="2.6194146275520325e-01" nType="-99"/>
          <Node pos="r" depth="2" NCoef="0" IVar="-1" Cut="0.0000000000000000e+00" cType="1" res="9.0451398864388466e-03" rms="3.6677294969558716e-01" purity="7.2372621297836304e-01" nType="-99"/>
        </Node>
        <Node pos="r" depth="1" NCoef="0" IVar="1" Cut="6.0890949249267578e+01" cType="1" res="-5.3650394082069397e-02" rms="4.0270578861236572e-01" purity="3.0061119794845581e-01" nType="0">
          <Node pos="l" depth="2" NCoef="0" IVar="-1" Cut="0.0000000000000000e+00" cType="1" res="-1.5025857836008072e-02" rms="3.3966019749641418e-01" purity="1.6406105458736420e-01" nType="-99"/>
          <Node pos="r" depth="2" NCoef="0" IVar="-1" Cut="0.0000000000000000e+00" cType="1" res="8.9078681776300073e-04" rms="4.4465538859367371e-01" purity="4.2836561799049377e-01" nType="-99"/>
        </Node>
      </Node>
    </BinaryTree>
    <BinaryTree type="DecisionTree" boostWeight="1.0000000000000000e+00" itree="52">
      <Node pos="s" depth="0" NCoef="0" IVar="4" Cut="3.3286473751068115e+00" cType="1" res="1.7037969082593918e-02" rms="3.9109510183334351e-01" purity="5.0619876384735107e-01" nType="0">
        <Node pos="l" depth="1" NCoef="0" IVar="1" Cut="6.0886100769042969e+01" cType="1" res="-1.9217466935515404e-02" rms="4.2161220312118530e-01" purity="3.5933694243431091e-01" nType="0">
          <Node pos="l" depth="2" NCoef="0" IVar="-1" Cut="0.0000000000000000e+00" cType="1" res="-6.7158071324229240e-03" rms="3.8850209116935730e-01" purity="2.6524221897125244e-01" nType="-99"/>
          <Node pos="r" depth="2" NCoef="0" IVar="-1" Cut="0.0000000000000000e+00" cType="1" res="2.8053859714418650e-03" rms="4.5379561185836792e-01" purity="4.7438612580299377e-01" nType="-99"/>
        </Node>
        <Node pos="r" depth="1" NCoef="0" IVar="10" Cut="5.3494178771972656e+01" cType="1" res="1.0790134966373444e-01" rms="2.8150931000709534e-01" purity="8.7426406145095825e-01" nType="0">
          <Node pos="l" depth="2" NCoef="0" IVar="-1" Cut="0.0000000000000000e+00" cType="1" res="4.4071446172893047e-03" rms="3.8775712251663208e-01" purity="7.2123748064041138e-01" nType="-99"/>
          <Node pos="r" depth="2" NCoef="0" IVar="-1" Cut="0.0000000000000000e+00" cType="1" res="1.5497359447181225e-02" rms="2.0525090396404266e-01" purity="9.4892978668212891e-01" nType="-99"/>
        </Node>
      </Node>
    </BinaryTree>
    <BinaryTree type="DecisionTree" boostWeight="1.0000000000000000e+00" itree="53">
      <Node pos="s" depth="0" NCoef="0" IVar="10" Cut="1.9609264373779297e+01" cType="1" res="8.7883314117789268e-03" rms="3.9192590117454529e-01" purity="4.9340462684631348e-01" nType="0">
        <Node pos="l" depth="1" NCoef="0" IVar="10" Cut="1.3143714904785156e+01" cType="1" res="-1.1340127885341644e-01" rms="3.5694459080696106e-01" purity="1.8445862829685211e-01" nType="0">
          <Node pos="l" depth="2" NCoef="0" IVar="-1" Cut="0.0000000000000000e+00" cType="1" res="-1.6966817900538445e-02" rms="3.2411313056945801e-01" purity="1.3687552511692047e-01" nType="-99"/>
          <Node pos="r" depth="2" NCoef="0" IVar="-1" Cut="0.0000000000000000e+00" cType="1" res="-8.6176842451095581e-03" rms="3.8415467739105225e-01" purity="2.3325099050998688e-01" nType="-99"/>
        </Node>
        <Node pos="r" depth="1" NCoef="0" IVar="2" Cut="2.0000000000000000e+01" cType="1" res="3.5957358777523041e-02" rms="3.9417356252670288e-01" purity="5.6209921836853027e-01" nType="0">
          <Node pos="l" depth="2" NCoef="0" IVar="-1" Cut="0.0000000000000000e+00" cType="1" res="-3.9384337142109871e-03" rms="4.0951102972030640e-01" purity="3.0021166801452637e-01" nType="-99"/>
          <Node pos="r" depth="2" NCoef="0" IVar="-1" Cut="0.0000000000000000e+00" cType="1" res="7.0332577452063560e-03" rms="3.7953472137451172e-01" purity="7.0955550670623779e-01" nType="-99"/>
        </Node>
      </Node>
    </BinaryTree>
    <BinaryTree type="DecisionTree" boostWeight="1.0000000000000000e+00" itree="54">
      <Node pos="s" depth="0" NCoef="0" IVar="10" Cut="3.7780334472656250e+01" cType="1" res="6.5029333345592022e-03" rms="3.8950634002685547e-01" purity="4.8838341236114502e-01" nType="0">
        <Node pos="l" depth="1" NCoef="0" IVar="10" Cut="2.1662601470947266e+01" cType="1" res="-5.3011536598205566e-02" rms="4.0404772758483887e-01" purity="2.7617949247360229e-01" nType="0">
          <Node pos="l" depth="2" NCoef="0" IVar="-1" Cut="0.0000000000000000e+00" cType="1" res="-1.1742835864424706e-02" rms="3.6198112368583679e-01" purity="1.8971039354801178e-01" nType="-99"/>
          <Node pos="r" depth="2" NCoef="0" IVar="-1" Cut="0.0000000000000000e+00" cType="1" res="-1.7340340418741107e-03" rms="4.2918562889099121e-01" purity="3.4036561846733093e-01" nType="-99"/>
        </Node>
        <Node pos="r" depth="1" NCoef="0" IVar="7" Cut="2.8433930873870850e+00" cType="1" res="6.5671622753143311e-02" rms="3.6499390006065369e-01" purity="6.9935441017150879e-01" nType="0">
          <Node pos="l" depth="2" NCoef="0" IVar="-1" Cut="0.0000000000000000e+00" cType="1" res="1.1209996417164803e-02" rms="3.1622499227523804e-01" purity="8.2762134075164795e-01" nType="-99"/>
          <Node pos="r" depth="2" NCoef="0" IVar="-1" Cut="0.0000000000000000e+00" cType="1" res="-2.1958150900900364e-03" rms="4.3454465270042419e-01" purity="4.3882304430007935e-01" nType="-99"/>
        </Node>
      </Node>
    </BinaryTree>
    <BinaryTree type="DecisionTree" boostWeight="1.0000000000000000e+00" itree="55">
      <Node pos="s" depth="0" NCoef="0" IVar="2" Cut="1.9399877548217773e+01" cType="1" res="7.3598688468337059e-03" rms="3.8430306315422058e-01" purity="4.9263414740562439e-01" nType="0">
        <Node pos="l" depth="1" NCoef="0" IVar="10" Cut="6.8629928588867188e+01" cType="1" res="-7.3802806437015533e-02" rms="3.6654266715049744e-01" purity="2.2767901420593262e-01" nType="0">
          <Node pos="l" depth="2" NCoef="0" IVar="-1" Cut="0.0000000000000000e+00" cType="1" res="-1.2014379724860191e-02" rms="3.5760462284088135e-01" purity="1.7357683181762695e-01" nType="-99"/>
          <Node pos="r" depth="2" NCoef="0" IVar="-1" Cut="0.0000000000000000e+00" cType="1" res="8.2459980621933937e-03" rms="4.0193828940391541e-01" purity="7.2255277633666992e-01" nType="-99"/>
        </Node>
        <Node pos="r" depth="1" NCoef="0" IVar="7" Cut="2.9921395778656006e+00" cType="1" res="5.4904758930206299e-02" rms="3.8649868965148926e-01" purity="6.4784419536590576e-01" nType="0">
          <Node pos="l" depth="2" NCoef="0" IVar="-1" Cut="0.0000000000000000e+00" cType="1" res="7.6975044794380665e-03" rms="3.7059867382049561e-01" purity="7.1212995052337646e-01" nType="-99"/>
          <Node pos="r" depth="2" NCoef="0" IVar="-1" Cut="0.0000000000000000e+00" cType="1" res="-7.0629194378852844e-03" rms="4.3188554048538208e-01" purity="3.3644112944602966e-01" nType="-99"/>
        </Node>
      </Node>
    </BinaryTree>
    <BinaryTree type="DecisionTree" boostWeight="1.0000000000000000e+00" itree="56">
      <Node pos="s" depth="0" NCoef="0" IVar="4" Cut="2.1893625259399414e+00" cType="1" res="1.2170786038041115e-02" rms="3.8860416412353516e-01" purity="5.0172287225723267e-01" nType="0">
        <Node pos="l" depth="1" NCoef="0" IVar="2" Cut="1.5444469451904297e+01" cType="1" res="-5.2326787263154984e-02" rms="4.0597164630889893e-01" purity="2.4755443632602692e-01" nType="0">
          <Node pos="l" depth="2" NCoef="0" IVar="-1" Cut="0.0000000000000000e+00" cType="1" res="-1.4452149160206318e-02" rms="3.2642713189125061e-01" purity="1.2812511622905731e-01" nType="-99"/>
          <Node pos="r" depth="2" NCoef="0" IVar="-1" Cut="0.0000000000000000e+00" cType="1" res="-1.6522897640243173e-03" rms="4.5342531800270081e-01" purity="3.3695837855339050e-01" nType="-99"/>
        </Node>
        <Node pos="r" depth="1" NCoef="0" IVar="10" Cut="6.1684432983398438e+01" cType="1" res="5.8564096689224243e-02" rms="3.6870363354682922e-01" purity="6.8454706668853760e-01" nType="0">
          <Node pos="l" depth="2" NCoef="0" IVar="-1" Cut="0.0000000000000000e+00" cType="1" res="1.9980454817414284e-03" rms="4.1417762637138367e-01" purity="5.6413626670837402e-01" nType="-99"/>
          <Node pos="r" depth="2" NCoef="0" IVar="-1" Cut="0.0000000000000000e+00" cType="1" res="1.4407919719815254e-02" rms="2.4245455861091614e-01" purity="9.1877955198287964e-01" nType="-99"/>
        </Node>
      </Node>
    </BinaryTree>
    <BinaryTree type="DecisionTree" boostWeight="1.0000000000000000e+00" itree="57">
      <Node pos="s" depth="0" NCoef="0" IVar="10" Cut="4.7060840606689453e+01" cType="1" res="1.0867087170481682e-02" rms="3.8579005002975464e-01" purity="5.0211542844772339e-01" nType="0">
        <Node pos="l" depth="1" NCoef="0" IVar="7" Cut="2.5440666675567627e+00" cType="1" res="-3.1001219525933266e-02" rms="4.0887227654457092e-01" purity="3.2854551076889038e-01" nType="0">
          <Node pos="l" depth="2" NCoef="0" IVar="-1" Cut="0.0000000000000000e+00" cType="1" res="4.0772380307316780e-03" rms="4.3275707960128784e-01" purity="5.2877771854400635e-01" nType="-99"/>
          <Node pos="r" depth="2" NCoef="0" IVar="-1" Cut="0.0000000000000000e+00" cType="1" res="-6.4771077595651150e-03" rms="3.9611563086509705e-01" purity="2.5547319650650024e-01" nType="-99"/>
        </Node>
        <Node pos="r" depth="1" NCoef="0" IVar="0" Cut="1.8285715103149414e+01" cType="1" res="7.9594589769840240e-02" rms="3.3335170149803162e-01" purity="7.8703325986862183e-01" nType="0">
          <Node pos="l" depth="2" NCoef="0" IVar="-1" Cut="0.0000000000000000e+00" cType="1" res="1.3509394600987434e-02" rms="2.8619396686553955e-01" purity="8.6700582504272461e-01" nType="-99"/>
          <Node pos="r" depth="2" NCoef="0" IVar="-1" Cut="0.0000000000000000e+00" cType="1" res="1.2626835377886891e-03" rms="3.7414661049842834e-01" purity="6.8544173240661621e-01" nType="-99"/>
        </Node>
      </Node>
    </BinaryTree>
    <BinaryTree type="DecisionTree" boostWeight="1.0000000000000000e+00" itree="58">
      <Node pos="s" depth="0" NCoef="0" IVar="10" Cut="4.6890655517578125e+01" cType="1" res="1.2887842021882534e-02" rms="3.8464680314064026e-01" purity="5.0313425064086914e-01" nType="0">
        <Node pos="l" depth="1" NCoef="0" IVar="1" Cut="5.3860794067382812e+01" cType="1" res="-2.9967175796627998e-02" rms="4.0899524092674255e-01" purity="3.2674938440322876e-01" nType="0">
          <Node pos="l" depth="2" NCoef="0" IVar="-1" Cut="0.0000000000000000e+00" cType="1" res="-1.0208490304648876e-02" rms="3.5482195019721985e-01" purity="2.1775937080383301e-01" nType="-99"/>
          <Node pos="r" depth="2" NCoef="0" IVar="-1" Cut="0.0000000000000000e+00" cType="1" res="1.6680072294548154e-03" rms="4.4422167539596558e-01" purity="4.1899704933166504e-01" nType="-99"/>
        </Node>
        <Node pos="r" depth="1" NCoef="0" IVar="8" Cut="1.1971452236175537e+00" cType="1" res="8.3366513252258301e-02" rms="3.2891595363616943e-01" purity="7.9321390390396118e-01" nType="0">
          <Node pos="l" depth="2" NCoef="0" IVar="-1" Cut="0.0000000000000000e+00" cType="1" res="-3.8595299702137709e-03" rms="4.4824564456939697e-01" purity="5.7922029495239258e-01" nType="-99"/>
          <Node pos="r" depth="2" NCoef="0" IVar="-1" Cut="0.0000000000000000e+00" cType="1" res="1.1408491991460323e-02" rms="2.9651185870170593e-01" purity="8.3224642276763916e-01" nType="-99"/>
        </Node>
      </Node>
    </BinaryTree>
    <BinaryTree type="DecisionTree" boostWeight="1.0000000000000000e+00" itree="59">
      <Node pos="s" depth="0" NCoef="0" IVar="7" Cut="2.8426976203918457e+00" cType="1" res="1.0183855891227722e-02" rms="3.8749921321868896e-01" purity="4.9379295110702515e-01" nType="0">
        <Node pos="l" depth="1" NCoef="0" IVar="5" Cut="5.8850749969482422e+01" cType="1" res="5.7769253849983215e-02" rms="3.7229928374290466e-01" purity="6.4445018768310547e-01" nType="0">
          <Node pos="l" depth="2" NCoef="0" IVar="-1" Cut="0.0000000000000000e+00" cType="1" res="-1.2663996312767267e-03" rms="4.1663974523544312e-01" purity="3.9868801832199097e-01" nType="-99"/>
          <Node pos="r" depth="2" NCoef="0" IVar="-1" Cut="0.0000000000000000e+00" cType="1" res="1.0530182160437107e-02" rms="3.3563488721847534e-01" purity="7.9270333051681519e-01" nType="-99"/>
        </Node>
        <Node pos="r" depth="1" NCoef="0" IVar="10" Cut="7.5727798461914062e+01" cType="1" res="-5.2783939987421036e-02" rms="3.9809107780456543e-01" purity="2.9443442821502686e-01" nType="0">
          <Node pos="l" depth="2" NCoef="0" IVar="-1" Cut="0.0000000000000000e+00" cType="1" res="-7.4869254603981972e-03" rms="3.9732947945594788e-01" purity="2.5503140687942505e-01" nType="-99"/>
          <Node pos="r" depth="2" NCoef="0" IVar="-1" Cut="0.0000000000000000e+00" cType="1" res="1.2069354765117168e-02" rms="3.5503759980201721e-01" purity="8.1268018484115601e-01" nType="-99"/>
        </Node>
      </Node>
    </BinaryTree>
    <BinaryTree type="DecisionTree" boostWeight="1.0000000000000000e+00" itree="60">
      <Node pos="s" depth="0" NCoef="0" IVar="10" Cut="3.7722427368164062e+01" cType="1" res="6.4432704821228981e-03" rms="3.8492000102996826e-01" purity="4.9294775724411011e-01" nType="0">
        <Node pos="l" depth="1" NCoef="0" IVar="1" Cut="5.5159053802490234e+01" cType="1" res="-4.8102378845214844e-02" rms="4.0086358785629272e-01" purity="2.7801284193992615e-01" nType="0">
          <Node pos="l" depth="2" NCoef="0" IVar="-1" Cut="0.0000000000000000e+00" cType="1" res="-1.0432742536067963e-02" rms="3.5622340440750122e-01" purity="1.8607309460639954e-01" nType="-99"/>
          <Node pos="r" depth="2" NCoef="0" IVar="-1" Cut="0.0000000000000000e+00" cType="1" res="-1.2177338358014822e-03" rms="4.3693590164184570e-01" purity="3.6710488796234131e-01" nType="-99"/>
        </Node>
        <Node pos="r" depth="1" NCoef="0" IVar="7" Cut="2.6947569847106934e+00" cType="1" res="6.0147769749164581e-02" rms="3.6057576537132263e-01" purity="7.0456820726394653e-01" nType="0">
          <Node pos="l" depth="2" NCoef="0" IVar="-1" Cut="0.0000000000000000e+00" cType="1" res="1.1885604821145535e-02" rms="2.8522032499313354e-01" purity="8.6531883478164673e-01" nType="-99"/>
          <Node pos="r" depth="2" NCoef="0" IVar="-1" Cut="0.0000000000000000e+00" cType="1" res="-1.4092953642830253e-04" rms="4.3027809262275696e-01" purity="5.0007146596908569e-01" nType="-99"/>
        </Node>
      </Node>
    </BinaryTree>
    <BinaryTree type="DecisionTree" boostWeight="1.0000000000000000e+00" itree="61">
      <Node pos="s" depth="0" NCoef="0" IVar="7" Cut="2.6932489871978760e+00" cType="1" res="4.7894436866044998e-03" rms="3.8511586189270020e-01" purity="4.9522733688354492e-01" nType="0">
        <Node pos="l" depth="1" NCoef="0" IVar="2" Cut="1.7896198272705078e+01" cType="1" res="6.3133522868156433e-02" rms="3.5748416185379028e-01" purity="7.0283442735671997e-01" nType="0">
          <Node pos="l" depth="2" NCoef="0" IVar="-1" Cut="0.0000000000000000e+00" cType="1" res="-4.4336640276014805e-03" rms="4.1385269165039062e-01" purity="3.3116897940635681e-01" nType="-99"/>
          <Node pos="r" depth="2" NCoef="0" IVar="-1" Cut="0.0000000000000000e+00" cType="1" res="8.8270828127861023e-03" rms="3.3846110105514526e-01" purity="7.9040741920471191e-01" nType="-99"/>
        </Node>
        <Node pos="r" depth="1" NCoef="0" IVar="1" Cut="6.0882621765136719e+01" cType="1" res="-4.2543608695268631e-02" rms="3.9994874596595764e-01" purity="3.2680100202560425e-01" nType="0">
          <Node pos="l" depth="2" NCoef="0" IVar="-1" Cut="0.0000000000000000e+00" cType="1" res="-1.1383161880075932e-02" rms="3.5727739334106445e-01" purity="1.9481910765171051e-01" nType="-99"/>
          <Node pos="r" depth="2" NCoef="0" IVar="-1" Cut="0.0000000000000000e+00" cType="1" res="1.9876896112691611e-04" rms="4.3146646022796631e-01" purity="4.5065191388130188e-01" nType="-99"/>
        </Node>
      </Node>
    </BinaryTree>
    <BinaryTree type="DecisionTree" boostWeight="1.0000000000000000e+00" itree="62">
      <Node pos="s" depth="0" NCoef="0" IVar="10" Cut="4.9721622467041016e+01" cType="1" res="1.5086286701261997e-02" rms="3.8051110506057739e-01" purity="5.0886315107345581e-01" nType="0">
